<?xml version="1.0"?>
<MethodSetup Method="BDT::BDTG">
  <GeneralInfo>
    <Info name="TMVA Release" value="4.2.1 [262657]"/>
    <Info name="ROOT Release" value="6.22/06 [398854]"/>
    <Info name="Creator" value="imawby"/>
    <Info name="Date" value="Thu Jul  8 02:52:23 2021"/>
    <Info name="Host" value="Linux buildservice004.fnal.gov 3.10.0-1160.11.1.el7.x86_64 #1 SMP Tue Dec 15 08:51:23 CST 2020 x86_64 x86_64 x86_64 GNU/Linux"/>
    <Info name="Dir" value="/dune/app/users/imawby/selection/trainings/pandizzle"/>
    <Info name="Training events" value="192747"/>
    <Info name="TrainingTime" value="1.40086429e+02"/>
    <Info name="AnalysisType" value="Classification"/>
  </GeneralInfo>
  <Options>
    <Option name="V" modified="Yes">False</Option>
    <Option name="VerbosityLevel" modified="No">Default</Option>
    <Option name="VarTransform" modified="No">None</Option>
    <Option name="H" modified="Yes">False</Option>
    <Option name="CreateMVAPdfs" modified="No">False</Option>
    <Option name="IgnoreNegWeightsInTraining" modified="No">False</Option>
    <Option name="NTrees" modified="Yes">1000</Option>
    <Option name="MaxDepth" modified="Yes">2</Option>
    <Option name="MinNodeSize" modified="Yes">2.5%</Option>
    <Option name="nCuts" modified="Yes">20</Option>
    <Option name="BoostType" modified="Yes">Grad</Option>
    <Option name="AdaBoostR2Loss" modified="No">quadratic</Option>
    <Option name="UseBaggedBoost" modified="Yes">True</Option>
    <Option name="Shrinkage" modified="Yes">1.000000e-01</Option>
    <Option name="AdaBoostBeta" modified="No">5.000000e-01</Option>
    <Option name="UseRandomisedTrees" modified="No">False</Option>
    <Option name="UseNvars" modified="No">4</Option>
    <Option name="UsePoissonNvars" modified="No">True</Option>
    <Option name="BaggedSampleFraction" modified="Yes">5.000000e-01</Option>
    <Option name="UseYesNoLeaf" modified="No">True</Option>
    <Option name="NegWeightTreatment" modified="No">pray</Option>
    <Option name="Css" modified="No">1.000000e+00</Option>
    <Option name="Cts_sb" modified="No">1.000000e+00</Option>
    <Option name="Ctb_ss" modified="No">1.000000e+00</Option>
    <Option name="Cbb" modified="No">1.000000e+00</Option>
    <Option name="NodePurityLimit" modified="No">5.000000e-01</Option>
    <Option name="SeparationType" modified="No">giniindex</Option>
    <Option name="RegressionLossFunctionBDTG" modified="No">huber</Option>
    <Option name="HuberQuantile" modified="No">7.000000e-01</Option>
    <Option name="DoBoostMonitor" modified="No">False</Option>
    <Option name="UseFisherCuts" modified="No">False</Option>
    <Option name="MinLinCorrForFisher" modified="No">8.000000e-01</Option>
    <Option name="UseExclusiveVars" modified="No">False</Option>
    <Option name="DoPreselection" modified="No">False</Option>
    <Option name="SigToBkgFraction" modified="No">1.000000e+00</Option>
    <Option name="PruneMethod" modified="No">nopruning</Option>
    <Option name="PruneStrength" modified="No">0.000000e+00</Option>
    <Option name="PruningValFraction" modified="No">5.000000e-01</Option>
    <Option name="SkipNormalization" modified="No">False</Option>
    <Option name="nEventsMin" modified="No">0</Option>
    <Option name="UseBaggedGrad" modified="No">False</Option>
    <Option name="GradBaggingFraction" modified="No">5.000000e-01</Option>
    <Option name="UseNTrainEvents" modified="No">0</Option>
    <Option name="NNodesMax" modified="No">0</Option>
  </Options>
  <Variables NVar="12">
    <Variable VarIndex="0" Expression="PFPMichelNHits" Label="PFPMichelNHits" Title="NHits in Michel candidate" Unit="" Internal="PFPMichelNHits" Type="F" Min="-2.00000000e+00" Max="1.00000000e+02"/>
    <Variable VarIndex="1" Expression="PFPMichelElectronMVA" Label="PFPMichelElectronMVA" Title="Electron-like MVA for Michel candidate" Unit="" Internal="PFPMichelElectronMVA" Type="F" Min="-9.99000000e+02" Max="2.04903007e-01"/>
    <Variable VarIndex="2" Expression="PFPMichelRecoEnergyPlane2" Label="PFPMichelRecoEnergyPlane2" Title="Reco energy (col. plane) for Michel candidate" Unit="" Internal="PFPMichelRecoEnergyPlane2" Type="F" Min="-2.00000000e+00" Max="2.90826702e+01"/>
    <Variable VarIndex="3" Expression="PFPTrackDeflecAngleSD" Label="PFPTrackDeflecAngleSD" Title="Track candidate scattering SD" Unit="" Internal="PFPTrackDeflecAngleSD" Type="F" Min="-2.00000000e+00" Max="1.07998032e+02"/>
    <Variable VarIndex="4" Expression="PFPTrackLength" Label="PFPTrackLength" Title="Candidate track length" Unit="" Internal="PFPTrackLength" Type="F" Min="1.71731740e-01" Max="1.60704234e+05"/>
    <Variable VarIndex="5" Expression="PFPTrackEvalRatio" Label="PFPTrackEvalRatio" Title="EvalRatio" Unit="" Internal="PFPTrackEvalRatio" Type="F" Min="0.00000000e+00" Max="9.93794918e-01"/>
    <Variable VarIndex="6" Expression="PFPTrackConcentration" Label="PFPTrackConcentration" Title="Concentration" Unit="" Internal="PFPTrackConcentration" Type="F" Min="7.03991158e-03" Max="1.00000000e+02"/>
    <Variable VarIndex="7" Expression="PFPTrackCoreHaloRatio" Label="PFPTrackCoreHaloRatio" Title="Core halo ratio" Unit="" Internal="PFPTrackCoreHaloRatio" Type="F" Min="0.00000000e+00" Max="1.00000000e+02"/>
    <Variable VarIndex="8" Expression="PFPTrackConicalness" Label="PFPTrackConicalness" Title="Conicalness" Unit="" Internal="PFPTrackConicalness" Type="F" Min="5.99814462e-04" Max="2.34119556e+03"/>
    <Variable VarIndex="9" Expression="PFPTrackdEdxStart" Label="PFPTrackdEdxStart" Title="dEdx (start)" Unit="" Internal="PFPTrackdEdxStart" Type="F" Min="0.00000000e+00" Max="4.99834671e+01"/>
    <Variable VarIndex="10" Expression="PFPTrackdEdxEnd" Label="PFPTrackdEdxEnd" Title="dEdx (end)" Unit="" Internal="PFPTrackdEdxEnd" Type="F" Min="0.00000000e+00" Max="4.99297943e+01"/>
    <Variable VarIndex="11" Expression="PFPTrackdEdxEndRatio" Label="PFPTrackdEdxEndRatio" Title="dEdx (end/start ratio)" Unit="" Internal="PFPTrackdEdxEndRatio" Type="F" Min="0.00000000e+00" Max="1.58436615e+02"/>
  </Variables>
  <Spectators NSpec="0"/>
  <Classes NClass="2">
    <Class Name="Signal" Index="0"/>
    <Class Name="Background" Index="1"/>
  </Classes>
  <Transformations NTransformations="0"/>
  <MVAPdfs/>
  <Weights NTrees="1000" AnalysisType="1">
    <BinaryTree type="DecisionTree" boostWeight="1.0000000000000000e+00" itree="0">
      <Node pos="s" depth="0" NCoef="0" IVar="3" Cut="8.4760026931762695e+00" cType="1" res="-1.8291994638275355e-04" rms="4.9999997019767761e-01" purity="4.9981710314750671e-01" nType="0">
        <Node pos="l" depth="1" NCoef="0" IVar="10" Cut="4.6618490219116211e+00" cType="1" res="2.0880751311779022e-01" rms="4.5431202650070190e-01" purity="7.0880752801895142e-01" nType="0">
          <Node pos="l" depth="2" NCoef="0" IVar="-1" Cut="0.0000000000000000e+00" cType="1" res="6.0179390013217926e-02" rms="3.9932569861412048e-01" purity="8.0089694261550903e-01" nType="-99"/>
          <Node pos="r" depth="2" NCoef="0" IVar="-1" Cut="0.0000000000000000e+00" cType="1" res="-6.5950341522693634e-02" rms="3.7585079669952393e-01" purity="1.7024828493595123e-01" nType="-99"/>
        </Node>
        <Node pos="r" depth="1" NCoef="0" IVar="4" Cut="2.9306505203247070e+01" cType="1" res="-3.9259231090545654e-01" rms="3.0963087081909180e-01" purity="1.0740768164396286e-01" nType="0">
          <Node pos="l" depth="2" NCoef="0" IVar="-1" Cut="0.0000000000000000e+00" cType="1" res="-8.7110400199890137e-02" rms="2.4554926156997681e-01" purity="6.4447984099388123e-02" nType="-99"/>
          <Node pos="r" depth="2" NCoef="0" IVar="-1" Cut="0.0000000000000000e+00" cType="1" res="-5.7753585278987885e-02" rms="4.0818265080451965e-01" purity="2.1123208105564117e-01" nType="-99"/>
        </Node>
      </Node>
    </BinaryTree>
    <BinaryTree type="DecisionTree" boostWeight="1.0000000000000000e+00" itree="1">
      <Node pos="s" depth="0" NCoef="0" IVar="3" Cut="8.4760026931762695e+00" cType="1" res="-1.2863205047324300e-03" rms="4.7753515839576721e-01" purity="4.9888810515403748e-01" nType="0">
        <Node pos="l" depth="1" NCoef="0" IVar="10" Cut="4.7145972251892090e+00" cType="1" res="1.8580260872840881e-01" rms="4.4487312436103821e-01" purity="7.0666921138763428e-01" nType="0">
          <Node pos="l" depth="2" NCoef="0" IVar="-1" Cut="0.0000000000000000e+00" cType="1" res="5.3728494793176651e-02" rms="4.0168836712837219e-01" purity="7.9757577180862427e-01" nType="-99"/>
          <Node pos="r" depth="2" NCoef="0" IVar="-1" Cut="0.0000000000000000e+00" cType="1" res="-6.0561701655387878e-02" rms="3.7170073390007019e-01" purity="1.6557727754116058e-01" nType="-99"/>
        </Node>
        <Node pos="r" depth="1" NCoef="0" IVar="10" Cut="7.1320013999938965e+00" cType="1" res="-3.5685145854949951e-01" rms="3.0388993024826050e-01" purity="1.0399708896875381e-01" nType="0">
          <Node pos="l" depth="2" NCoef="0" IVar="-1" Cut="0.0000000000000000e+00" cType="1" res="-6.3808351755142212e-02" rms="3.4937539696693420e-01" purity="1.4395222067832947e-01" nType="-99"/>
          <Node pos="r" depth="2" NCoef="0" IVar="-1" Cut="0.0000000000000000e+00" cType="1" res="-8.9558839797973633e-02" rms="1.2387066334486008e-01" purity="1.5597472898662090e-02" nType="-99"/>
        </Node>
      </Node>
    </BinaryTree>
    <BinaryTree type="DecisionTree" boostWeight="1.0000000000000000e+00" itree="2">
      <Node pos="s" depth="0" NCoef="0" IVar="3" Cut="6.4371061325073242e+00" cType="1" res="1.0597158689051867e-03" rms="4.5818334817886353e-01" purity="5.0143444538116455e-01" nType="0">
        <Node pos="l" depth="1" NCoef="0" IVar="10" Cut="4.6618490219116211e+00" cType="1" res="2.3228682577610016e-01" rms="3.9986333250999451e-01" purity="7.7595770359039307e-01" nType="0">
          <Node pos="l" depth="2" NCoef="0" IVar="-1" Cut="0.0000000000000000e+00" cType="1" res="5.9061333537101746e-02" rms="3.5881054401397705e-01" purity="8.4821689128875732e-01" nType="-99"/>
          <Node pos="r" depth="2" NCoef="0" IVar="-1" Cut="0.0000000000000000e+00" cType="1" res="-5.0260372459888458e-02" rms="3.9200234413146973e-01" purity="1.9067481160163879e-01" nType="-99"/>
        </Node>
        <Node pos="r" depth="1" NCoef="0" IVar="4" Cut="9.5648216247558594e+01" cType="1" res="-2.9868248105049133e-01" rms="3.4006935358047485e-01" purity="1.4556708931922913e-01" nType="0">
          <Node pos="l" depth="2" NCoef="0" IVar="-1" Cut="0.0000000000000000e+00" cType="1" res="-6.4557112753391266e-02" rms="3.2100820541381836e-01" purity="1.2395816296339035e-01" nType="-99"/>
          <Node pos="r" depth="2" NCoef="0" IVar="-1" Cut="0.0000000000000000e+00" cType="1" res="-3.4379314165562391e-03" rms="4.8682752251625061e-01" purity="4.9812889099121094e-01" nType="-99"/>
        </Node>
      </Node>
    </BinaryTree>
    <BinaryTree type="DecisionTree" boostWeight="1.0000000000000000e+00" itree="3">
      <Node pos="s" depth="0" NCoef="0" IVar="3" Cut="6.5829658508300781e+00" cType="1" res="1.1771637946367264e-03" rms="4.4094309210777283e-01" purity="5.0050663948059082e-01" nType="0">
        <Node pos="l" depth="1" NCoef="0" IVar="10" Cut="4.5797691345214844e+00" cType="1" res="2.0273452997207642e-01" rms="3.9763566851615906e-01" purity="7.6803010702133179e-01" nType="0">
          <Node pos="l" depth="2" NCoef="0" IVar="-1" Cut="0.0000000000000000e+00" cType="1" res="5.3274065256118774e-02" rms="3.6252856254577637e-01" purity="8.4378647804260254e-01" nType="-99"/>
          <Node pos="r" depth="2" NCoef="0" IVar="-1" Cut="0.0000000000000000e+00" cType="1" res="-4.3230108916759491e-02" rms="4.0241786837577820e-01" purity="2.0893664658069611e-01" nType="-99"/>
        </Node>
        <Node pos="r" depth="1" NCoef="0" IVar="10" Cut="7.0810294151306152e+00" cType="1" res="-2.6273569464683533e-01" rms="3.4516543149948120e-01" purity="1.5021976828575134e-01" nType="0">
          <Node pos="l" depth="2" NCoef="0" IVar="-1" Cut="0.0000000000000000e+00" cType="1" res="-4.5392952859401703e-02" rms="3.9180243015289307e-01" purity="2.0385231077671051e-01" nType="-99"/>
          <Node pos="r" depth="2" NCoef="0" IVar="-1" Cut="0.0000000000000000e+00" cType="1" res="-7.6883003115653992e-02" rms="1.5228036046028137e-01" purity="2.3918952792882919e-02" nType="-99"/>
        </Node>
      </Node>
    </BinaryTree>
    <BinaryTree type="DecisionTree" boostWeight="1.0000000000000000e+00" itree="4">
      <Node pos="s" depth="0" NCoef="0" IVar="3" Cut="6.6757454872131348e+00" cType="1" res="6.1674914322793484e-03" rms="4.2531925439834595e-01" purity="5.0746959447860718e-01" nType="0">
        <Node pos="l" depth="1" NCoef="0" IVar="10" Cut="6.3553647994995117e+00" cType="1" res="1.8797336518764496e-01" rms="3.8939693570137024e-01" purity="7.7304184436798096e-01" nType="0">
          <Node pos="l" depth="2" NCoef="0" IVar="-1" Cut="0.0000000000000000e+00" cType="1" res="4.7625966370105743e-02" rms="3.6964070796966553e-01" purity="8.2716518640518188e-01" nType="-99"/>
          <Node pos="r" depth="2" NCoef="0" IVar="-1" Cut="0.0000000000000000e+00" cType="1" res="-6.1544682830572128e-02" rms="2.9752448201179504e-01" purity="9.8211139440536499e-02" nType="-99"/>
        </Node>
        <Node pos="r" depth="1" NCoef="0" IVar="10" Cut="7.1328277587890625e+00" cType="1" res="-2.4383206665515900e-01" rms="3.3643627166748047e-01" purity="1.4228370785713196e-01" nType="0">
          <Node pos="l" depth="2" NCoef="0" IVar="-1" Cut="0.0000000000000000e+00" cType="1" res="-4.3964933604001999e-02" rms="3.8224789500236511e-01" purity="1.9135145843029022e-01" nType="-99"/>
          <Node pos="r" depth="2" NCoef="0" IVar="-1" Cut="0.0000000000000000e+00" cType="1" res="-7.1448944509029388e-02" rms="1.6134949028491974e-01" purity="2.6813840493559837e-02" nType="-99"/>
        </Node>
      </Node>
    </BinaryTree>
    <BinaryTree type="DecisionTree" boostWeight="1.0000000000000000e+00" itree="5">
      <Node pos="s" depth="0" NCoef="0" IVar="3" Cut="8.4760026931762695e+00" cType="1" res="1.7243347829207778e-03" rms="4.1373509168624878e-01" purity="5.0273275375366211e-01" nType="0">
        <Node pos="l" depth="1" NCoef="0" IVar="3" Cut="4.4851427078247070e+00" cType="1" res="1.2732857465744019e-01" rms="4.0805050730705261e-01" purity="7.1016979217529297e-01" nType="0">
          <Node pos="l" depth="2" NCoef="0" IVar="-1" Cut="0.0000000000000000e+00" cType="1" res="4.9333874136209488e-02" rms="3.3591452240943909e-01" purity="8.4280478954315186e-01" nType="-99"/>
          <Node pos="r" depth="2" NCoef="0" IVar="-1" Cut="0.0000000000000000e+00" cType="1" res="-1.7886133864521980e-02" rms="4.5982581377029419e-01" purity="4.3455821275711060e-01" nType="-99"/>
        </Node>
        <Node pos="r" depth="1" NCoef="0" IVar="3" Cut="1.3215692520141602e+01" cType="1" res="-2.3809386789798737e-01" rms="3.0407425761222839e-01" purity="1.0666967928409576e-01" nType="0">
          <Node pos="l" depth="2" NCoef="0" IVar="-1" Cut="0.0000000000000000e+00" cType="1" res="-4.0638200938701630e-02" rms="3.6499664187431335e-01" purity="1.6505974531173706e-01" nType="-99"/>
          <Node pos="r" depth="2" NCoef="0" IVar="-1" Cut="0.0000000000000000e+00" cType="1" res="-6.1040367931127548e-02" rms="2.4861207604408264e-01" purity="6.7396037280559540e-02" nType="-99"/>
        </Node>
      </Node>
    </BinaryTree>
    <BinaryTree type="DecisionTree" boostWeight="1.0000000000000000e+00" itree="6">
      <Node pos="s" depth="0" NCoef="0" IVar="3" Cut="8.4760026931762695e+00" cType="1" res="-2.2347267076838762e-04" rms="4.0186032652854919e-01" purity="5.0128352642059326e-01" nType="0">
        <Node pos="l" depth="1" NCoef="0" IVar="3" Cut="4.9839272499084473e+00" cType="1" res="1.1391609162092209e-01" rms="4.0172338485717773e-01" purity="7.0955258607864380e-01" nType="0">
          <Node pos="l" depth="2" NCoef="0" IVar="-1" Cut="0.0000000000000000e+00" cType="1" res="4.3253239244222641e-02" rms="3.4581059217453003e-01" purity="8.2893228530883789e-01" nType="-99"/>
          <Node pos="r" depth="2" NCoef="0" IVar="-1" Cut="0.0000000000000000e+00" cType="1" res="-2.3133626207709312e-02" rms="4.5362836122512817e-01" purity="3.8680148124694824e-01" nType="-99"/>
        </Node>
        <Node pos="r" depth="1" NCoef="0" IVar="4" Cut="4.9401901245117188e+01" cType="1" res="-2.1901005506515503e-01" rms="2.9809880256652832e-01" purity="1.0206615179777145e-01" nType="0">
          <Node pos="l" depth="2" NCoef="0" IVar="-1" Cut="0.0000000000000000e+00" cType="1" res="-5.5362902581691742e-02" rms="2.6611009240150452e-01" purity="7.8571662306785583e-02" nType="-99"/>
          <Node pos="r" depth="2" NCoef="0" IVar="-1" Cut="0.0000000000000000e+00" cType="1" res="-1.0976760648190975e-02" rms="4.5015099644660950e-01" purity="2.9229211807250977e-01" nType="-99"/>
        </Node>
      </Node>
    </BinaryTree>
    <BinaryTree type="DecisionTree" boostWeight="1.0000000000000000e+00" itree="7">
      <Node pos="s" depth="0" NCoef="0" IVar="3" Cut="6.6757454872131348e+00" cType="1" res="3.0212866477086209e-05" rms="3.9348903298377991e-01" purity="5.0002282857894897e-01" nType="0">
        <Node pos="l" depth="1" NCoef="0" IVar="10" Cut="4.6165299415588379e+00" cType="1" res="1.3346138596534729e-01" rms="3.8146874308586121e-01" purity="7.6656436920166016e-01" nType="0">
          <Node pos="l" depth="2" NCoef="0" IVar="-1" Cut="0.0000000000000000e+00" cType="1" res="4.0209796279668808e-02" rms="3.5757920145988464e-01" purity="8.4252130985260010e-01" nType="-99"/>
          <Node pos="r" depth="2" NCoef="0" IVar="-1" Cut="0.0000000000000000e+00" cType="1" res="-4.4991303235292435e-02" rms="3.7904658913612366e-01" purity="1.8665744364261627e-01" nType="-99"/>
        </Node>
        <Node pos="r" depth="1" NCoef="0" IVar="10" Cut="4.7546677589416504e+00" cType="1" res="-1.7882591485977173e-01" rms="3.3386465907096863e-01" purity="1.4274069666862488e-01" nType="0">
          <Node pos="l" depth="2" NCoef="0" IVar="-1" Cut="0.0000000000000000e+00" cType="1" res="-3.0217811465263367e-02" rms="3.9202427864074707e-01" purity="2.0842610299587250e-01" nType="-99"/>
          <Node pos="r" depth="2" NCoef="0" IVar="-1" Cut="0.0000000000000000e+00" cType="1" res="-5.9768564999103546e-02" rms="2.0327338576316833e-01" purity="4.5352462679147720e-02" nType="-99"/>
        </Node>
      </Node>
    </BinaryTree>
    <BinaryTree type="DecisionTree" boostWeight="1.0000000000000000e+00" itree="8">
      <Node pos="s" depth="0" NCoef="0" IVar="6" Cut="4.7691926956176758e+00" cType="1" res="2.6635709218680859e-03" rms="3.8501766324043274e-01" purity="5.0497931241989136e-01" nType="0">
        <Node pos="l" depth="1" NCoef="0" IVar="3" Cut="3.4524676799774170e+00" cType="1" res="1.1913468688726425e-01" rms="3.6486542224884033e-01" purity="7.1110564470291138e-01" nType="0">
          <Node pos="l" depth="2" NCoef="0" IVar="-1" Cut="0.0000000000000000e+00" cType="1" res="6.0404680669307709e-02" rms="2.1965585649013519e-01" purity="9.4149738550186157e-01" nType="-99"/>
          <Node pos="r" depth="2" NCoef="0" IVar="-1" Cut="0.0000000000000000e+00" cType="1" res="-3.6771052982658148e-03" rms="4.2251953482627869e-01" purity="4.8702460527420044e-01" nType="-99"/>
        </Node>
        <Node pos="r" depth="1" NCoef="0" IVar="4" Cut="4.9052516937255859e+01" cType="1" res="-1.5866388380527496e-01" rms="3.5263848304748535e-01" purity="2.1946784853935242e-01" nType="0">
          <Node pos="l" depth="2" NCoef="0" IVar="-1" Cut="0.0000000000000000e+00" cType="1" res="-5.3682733327150345e-02" rms="3.0042982101440430e-01" purity="1.1500342935323715e-01" nType="-99"/>
          <Node pos="r" depth="2" NCoef="0" IVar="-1" Cut="0.0000000000000000e+00" cType="1" res="1.0452971793711185e-02" rms="4.2878431081771851e-01" purity="5.7016664743423462e-01" nType="-99"/>
        </Node>
      </Node>
    </BinaryTree>
    <BinaryTree type="DecisionTree" boostWeight="1.0000000000000000e+00" itree="9">
      <Node pos="s" depth="0" NCoef="0" IVar="6" Cut="4.7691926956176758e+00" cType="1" res="-2.4716134648770094e-03" rms="3.7621778249740601e-01" purity="4.9820962548255920e-01" nType="0">
        <Node pos="l" depth="1" NCoef="0" IVar="3" Cut="3.4203600883483887e+00" cType="1" res="1.0361561179161072e-01" rms="3.6134460568428040e-01" purity="7.0606589317321777e-01" nType="0">
          <Node pos="l" depth="2" NCoef="0" IVar="-1" Cut="0.0000000000000000e+00" cType="1" res="5.7338122278451920e-02" rms="2.1835294365882874e-01" purity="9.4196128845214844e-01" nType="-99"/>
          <Node pos="r" depth="2" NCoef="0" IVar="-1" Cut="0.0000000000000000e+00" cType="1" res="-5.1352544687688351e-03" rms="4.2237830162048340e-01" purity="4.7771820425987244e-01" nType="-99"/>
        </Node>
        <Node pos="r" depth="1" NCoef="0" IVar="4" Cut="5.4979377746582031e+01" cType="1" res="-1.4774134755134583e-01" rms="3.4647771716117859e-01" purity="2.1358308196067810e-01" nType="0">
          <Node pos="l" depth="2" NCoef="0" IVar="-1" Cut="0.0000000000000000e+00" cType="1" res="-4.9776405096054077e-02" rms="3.0247074365615845e-01" purity="1.1887295544147491e-01" nType="-99"/>
          <Node pos="r" depth="2" NCoef="0" IVar="-1" Cut="0.0000000000000000e+00" cType="1" res="1.2031394056975842e-02" rms="4.3036299943923950e-01" purity="5.9874594211578369e-01" nType="-99"/>
        </Node>
      </Node>
    </BinaryTree>
    <BinaryTree type="DecisionTree" boostWeight="1.0000000000000000e+00" itree="10">
      <Node pos="s" depth="0" NCoef="0" IVar="3" Cut="6.4056439399719238e+00" cType="1" res="9.9445824162103236e-05" rms="3.7034711241722107e-01" purity="4.9986001849174500e-01" nType="0">
        <Node pos="l" depth="1" NCoef="0" IVar="9" Cut="4.3572006225585938e+00" cType="1" res="1.0585581511259079e-01" rms="3.6194032430648804e-01" purity="7.7499175071716309e-01" nType="0">
          <Node pos="l" depth="2" NCoef="0" IVar="-1" Cut="0.0000000000000000e+00" cType="1" res="3.5155728459358215e-02" rms="3.3213922381401062e-01" purity="8.2632720470428467e-01" nType="-99"/>
          <Node pos="r" depth="2" NCoef="0" IVar="-1" Cut="0.0000000000000000e+00" cType="1" res="-3.7893675267696381e-02" rms="4.3229189515113831e-01" purity="4.2689797282218933e-01" nType="-99"/>
        </Node>
        <Node pos="r" depth="1" NCoef="0" IVar="4" Cut="9.5779266357421875e+01" cType="1" res="-1.3401955366134644e-01" rms="3.3584573864936829e-01" purity="1.5094116330146790e-01" nType="0">
          <Node pos="l" depth="2" NCoef="0" IVar="-1" Cut="0.0000000000000000e+00" cType="1" res="-3.7734292447566986e-02" rms="3.2012236118316650e-01" purity="1.2803222239017487e-01" nType="-99"/>
          <Node pos="r" depth="2" NCoef="0" IVar="-1" Cut="0.0000000000000000e+00" cType="1" res="1.4878378249704838e-02" rms="4.8301196098327637e-01" purity="5.1782482862472534e-01" nType="-99"/>
        </Node>
      </Node>
    </BinaryTree>
    <BinaryTree type="DecisionTree" boostWeight="1.0000000000000000e+00" itree="11">
      <Node pos="s" depth="0" NCoef="0" IVar="6" Cut="4.7725763320922852e+00" cType="1" res="-1.5689220745116472e-03" rms="3.6378458142280579e-01" purity="4.9883851408958435e-01" nType="0">
        <Node pos="l" depth="1" NCoef="0" IVar="5" Cut="4.6859551221132278e-02" cType="1" res="8.8903859257698059e-02" rms="3.5251766443252563e-01" purity="7.0614457130432129e-01" nType="0">
          <Node pos="l" depth="2" NCoef="0" IVar="-1" Cut="0.0000000000000000e+00" cType="1" res="2.9514627531170845e-02" rms="3.3467817306518555e-01" purity="7.5364404916763306e-01" nType="-99"/>
          <Node pos="r" depth="2" NCoef="0" IVar="-1" Cut="0.0000000000000000e+00" cType="1" res="-6.7975357174873352e-02" rms="3.5056376457214355e-01" purity="1.3766002655029297e-01" nType="-99"/>
        </Node>
        <Node pos="r" depth="1" NCoef="0" IVar="4" Cut="5.6274013519287109e+01" cType="1" res="-1.2587772309780121e-01" rms="3.4165593981742859e-01" purity="2.1400186419487000e-01" nType="0">
          <Node pos="l" depth="2" NCoef="0" IVar="-1" Cut="0.0000000000000000e+00" cType="1" res="-4.4918846338987350e-02" rms="3.0681928992271423e-01" purity="1.2146239727735519e-01" nType="-99"/>
          <Node pos="r" depth="2" NCoef="0" IVar="-1" Cut="0.0000000000000000e+00" cType="1" res="1.0570048354566097e-02" rms="4.1864109039306641e-01" purity="6.0514771938323975e-01" nType="-99"/>
        </Node>
      </Node>
    </BinaryTree>
    <BinaryTree type="DecisionTree" boostWeight="1.0000000000000000e+00" itree="12">
      <Node pos="s" depth="0" NCoef="0" IVar="3" Cut="6.5829658508300781e+00" cType="1" res="6.2804721528664231e-04" rms="3.5859346389770508e-01" purity="5.0384020805358887e-01" nType="0">
        <Node pos="l" depth="1" NCoef="0" IVar="10" Cut="6.8696541786193848e+00" cType="1" res="8.6710222065448761e-02" rms="3.5581690073013306e-01" purity="7.7131754159927368e-01" nType="0">
          <Node pos="l" depth="2" NCoef="0" IVar="-1" Cut="0.0000000000000000e+00" cType="1" res="2.8298260644078255e-02" rms="3.4812501072883606e-01" purity="8.2070392370223999e-01" nType="-99"/>
          <Node pos="r" depth="2" NCoef="0" IVar="-1" Cut="0.0000000000000000e+00" cType="1" res="-6.6687189042568207e-02" rms="2.1578793227672577e-01" purity="4.8438776284456253e-02" nType="-99"/>
        </Node>
        <Node pos="r" depth="1" NCoef="0" IVar="10" Cut="7.0441818237304688e+00" cType="1" res="-1.1533334851264954e-01" rms="3.2837808132171631e-01" purity="1.4352117478847504e-01" nType="0">
          <Node pos="l" depth="2" NCoef="0" IVar="-1" Cut="0.0000000000000000e+00" cType="1" res="-2.1449320018291473e-02" rms="3.7660780549049377e-01" purity="1.9639839231967926e-01" nType="-99"/>
          <Node pos="r" depth="2" NCoef="0" IVar="-1" Cut="0.0000000000000000e+00" cType="1" res="-5.7911727577447891e-02" rms="1.4226770401000977e-01" purity="1.9843950867652893e-02" nType="-99"/>
        </Node>
      </Node>
    </BinaryTree>
    <BinaryTree type="DecisionTree" boostWeight="1.0000000000000000e+00" itree="13">
      <Node pos="s" depth="0" NCoef="0" IVar="6" Cut="4.7740583419799805e+00" cType="1" res="-1.8304507248103619e-03" rms="3.5619786381721497e-01" purity="4.9725443124771118e-01" nType="0">
        <Node pos="l" depth="1" NCoef="0" IVar="3" Cut="3.2780973911285400e+00" cType="1" res="7.4328772723674774e-02" rms="3.4842434525489807e-01" purity="7.0502078533172607e-01" nType="0">
          <Node pos="l" depth="2" NCoef="0" IVar="-1" Cut="0.0000000000000000e+00" cType="1" res="4.9931325018405914e-02" rms="2.1622364223003387e-01" purity="9.3901956081390381e-01" nType="-99"/>
          <Node pos="r" depth="2" NCoef="0" IVar="-1" Cut="0.0000000000000000e+00" cType="1" res="-3.1995477620512247e-03" rms="4.0928164124488831e-01" purity="5.0775778293609619e-01" nType="-99"/>
        </Node>
        <Node pos="r" depth="1" NCoef="0" IVar="4" Cut="5.6142963409423828e+01" cType="1" res="-1.0577822476625443e-01" rms="3.4004577994346619e-01" purity="2.1367938816547394e-01" nType="0">
          <Node pos="l" depth="2" NCoef="0" IVar="-1" Cut="0.0000000000000000e+00" cType="1" res="-4.0588974952697754e-02" rms="3.0733045935630798e-01" purity="1.2373514473438263e-01" nType="-99"/>
          <Node pos="r" depth="2" NCoef="0" IVar="-1" Cut="0.0000000000000000e+00" cType="1" res="9.9973510950803757e-03" rms="4.2379361391067505e-01" purity="6.0213810205459595e-01" nType="-99"/>
        </Node>
      </Node>
    </BinaryTree>
    <BinaryTree type="DecisionTree" boostWeight="1.0000000000000000e+00" itree="14">
      <Node pos="s" depth="0" NCoef="0" IVar="10" Cut="4.7552185058593750e+00" cType="1" res="-4.9206486437469721e-04" rms="3.5129126906394958e-01" purity="4.9997907876968384e-01" nType="0">
        <Node pos="l" depth="1" NCoef="0" IVar="5" Cut="4.6506069600582123e-02" cType="1" res="4.5213233679533005e-02" rms="3.6215439438819885e-01" purity="6.2806487083435059e-01" nType="0">
          <Node pos="l" depth="2" NCoef="0" IVar="-1" Cut="0.0000000000000000e+00" cType="1" res="1.7854783684015274e-02" rms="3.5260027647018433e-01" purity="6.6254454851150513e-01" nType="-99"/>
          <Node pos="r" depth="2" NCoef="0" IVar="-1" Cut="0.0000000000000000e+00" cType="1" res="-7.1612864732742310e-02" rms="3.4934321045875549e-01" purity="1.2195565551519394e-01" nType="-99"/>
        </Node>
        <Node pos="r" depth="1" NCoef="0" IVar="10" Cut="6.9064607620239258e+00" cType="1" res="-1.4461429417133331e-01" rms="2.6759740710258484e-01" purity="9.6087038516998291e-02" nType="0">
          <Node pos="l" depth="2" NCoef="0" IVar="-1" Cut="0.0000000000000000e+00" cType="1" res="-1.5167709439992905e-02" rms="3.9258766174316406e-01" purity="2.4761845171451569e-01" nType="-99"/>
          <Node pos="r" depth="2" NCoef="0" IVar="-1" Cut="0.0000000000000000e+00" cType="1" res="-5.5333323776721954e-02" rms="1.8166987597942352e-01" purity="3.2850429415702820e-02" nType="-99"/>
        </Node>
      </Node>
    </BinaryTree>
    <BinaryTree type="DecisionTree" boostWeight="1.0000000000000000e+00" itree="15">
      <Node pos="s" depth="0" NCoef="0" IVar="10" Cut="4.7552185058593750e+00" cType="1" res="-4.1194423101842403e-03" rms="3.4664699435234070e-01" purity="4.9695202708244324e-01" nType="0">
        <Node pos="l" depth="1" NCoef="0" IVar="5" Cut="4.6506069600582123e-02" cType="1" res="3.9721943438053131e-02" rms="3.6103022098541260e-01" purity="6.2593424320220947e-01" nType="0">
          <Node pos="l" depth="2" NCoef="0" IVar="-1" Cut="0.0000000000000000e+00" cType="1" res="1.6274934634566307e-02" rms="3.5358262062072754e-01" purity="6.6205084323883057e-01" nType="-99"/>
          <Node pos="r" depth="2" NCoef="0" IVar="-1" Cut="0.0000000000000000e+00" cType="1" res="-7.0349365472793579e-02" rms="3.3028939366340637e-01" purity="1.0650374740362167e-01" nType="-99"/>
        </Node>
        <Node pos="r" depth="1" NCoef="0" IVar="10" Cut="9.0575666427612305e+00" cType="1" res="-1.4595450460910797e-01" rms="2.4677687883377075e-01" purity="7.9670421779155731e-02" nType="0">
          <Node pos="l" depth="2" NCoef="0" IVar="-1" Cut="0.0000000000000000e+00" cType="1" res="-3.0328186228871346e-02" rms="3.3086135983467102e-01" purity="1.5477584302425385e-01" nType="-99"/>
          <Node pos="r" depth="2" NCoef="0" IVar="-1" Cut="0.0000000000000000e+00" cType="1" res="-5.8914009481668472e-02" rms="1.2684187293052673e-01" purity="1.3468893244862556e-02" nType="-99"/>
        </Node>
      </Node>
    </BinaryTree>
    <BinaryTree type="DecisionTree" boostWeight="1.0000000000000000e+00" itree="16">
      <Node pos="s" depth="0" NCoef="0" IVar="3" Cut="6.5829658508300781e+00" cType="1" res="-2.7331509627401829e-03" rms="3.4524118900299072e-01" purity="4.9514755606651306e-01" nType="0">
        <Node pos="l" depth="1" NCoef="0" IVar="9" Cut="4.2835521697998047e+00" cType="1" res="6.3665181398391724e-02" rms="3.4656214714050293e-01" purity="7.6636248826980591e-01" nType="0">
          <Node pos="l" depth="2" NCoef="0" IVar="-1" Cut="0.0000000000000000e+00" cType="1" res="2.6262138038873672e-02" rms="3.2185223698616028e-01" purity="8.1947326660156250e-01" nType="-99"/>
          <Node pos="r" depth="2" NCoef="0" IVar="-1" Cut="0.0000000000000000e+00" cType="1" res="-3.2317128032445908e-02" rms="4.1706958413124084e-01" purity="4.4919428229331970e-01" nType="-99"/>
        </Node>
        <Node pos="r" depth="1" NCoef="0" IVar="10" Cut="2.3776092529296875e+00" cType="1" res="-8.9454874396324158e-02" rms="3.2360330224037170e-01" purity="1.4091832935810089e-01" nType="0">
          <Node pos="l" depth="2" NCoef="0" IVar="-1" Cut="0.0000000000000000e+00" cType="1" res="-1.2739846482872963e-02" rms="3.8818547129631042e-01" purity="2.1493743360042572e-01" nType="-99"/>
          <Node pos="r" depth="2" NCoef="0" IVar="-1" Cut="0.0000000000000000e+00" cType="1" res="-3.5993378609418869e-02" rms="2.7654176950454712e-01" purity="9.8096221685409546e-02" nType="-99"/>
        </Node>
      </Node>
    </BinaryTree>
    <BinaryTree type="DecisionTree" boostWeight="1.0000000000000000e+00" itree="17">
      <Node pos="s" depth="0" NCoef="0" IVar="6" Cut="4.7691926956176758e+00" cType="1" res="-2.3506300058215857e-03" rms="3.4090882539749146e-01" purity="4.9660748243331909e-01" nType="0">
        <Node pos="l" depth="1" NCoef="0" IVar="3" Cut="3.4524877071380615e+00" cType="1" res="6.1905182898044586e-02" rms="3.3288833498954773e-01" purity="7.0622730255126953e-01" nType="0">
          <Node pos="l" depth="2" NCoef="0" IVar="-1" Cut="0.0000000000000000e+00" cType="1" res="4.5422602444887161e-02" rms="2.1179313957691193e-01" purity="9.3758237361907959e-01" nType="-99"/>
          <Node pos="r" depth="2" NCoef="0" IVar="-1" Cut="0.0000000000000000e+00" cType="1" res="-4.5742229558527470e-03" rms="4.0105208754539490e-01" purity="4.8461240530014038e-01" nType="-99"/>
        </Node>
        <Node pos="r" depth="1" NCoef="0" IVar="4" Cut="5.4563777923583984e+01" cType="1" res="-9.1182827949523926e-02" rms="3.3179935812950134e-01" purity="2.0681287348270416e-01" nType="0">
          <Node pos="l" depth="2" NCoef="0" IVar="-1" Cut="0.0000000000000000e+00" cType="1" res="-3.8210518658161163e-02" rms="2.9970949888229370e-01" purity="1.1507648974657059e-01" nType="-99"/>
          <Node pos="r" depth="2" NCoef="0" IVar="-1" Cut="0.0000000000000000e+00" cType="1" res="5.9518860653042793e-03" rms="4.2012012004852295e-01" purity="5.8340311050415039e-01" nType="-99"/>
        </Node>
      </Node>
    </BinaryTree>
    <BinaryTree type="DecisionTree" boostWeight="1.0000000000000000e+00" itree="18">
      <Node pos="s" depth="0" NCoef="0" IVar="6" Cut="4.7686095237731934e+00" cType="1" res="1.5049028443172574e-03" rms="3.4088456630706787e-01" purity="4.9979004263877869e-01" nType="0">
        <Node pos="l" depth="1" NCoef="0" IVar="10" Cut="6.9982109069824219e+00" cType="1" res="5.5843617767095566e-02" rms="3.3240386843681335e-01" purity="7.0470154285430908e-01" nType="0">
          <Node pos="l" depth="2" NCoef="0" IVar="-1" Cut="0.0000000000000000e+00" cType="1" res="2.2264000028371811e-02" rms="3.3136808872222900e-01" purity="7.6728516817092896e-01" nType="-99"/>
          <Node pos="r" depth="2" NCoef="0" IVar="-1" Cut="0.0000000000000000e+00" cType="1" res="-4.9710534512996674e-02" rms="2.4169178307056427e-01" purity="6.4069196581840515e-02" nType="-99"/>
        </Node>
        <Node pos="r" depth="1" NCoef="0" IVar="4" Cut="5.4694824218750000e+01" cType="1" res="-7.2931900620460510e-02" rms="3.3828759193420410e-01" purity="2.1908861398696899e-01" nType="0">
          <Node pos="l" depth="2" NCoef="0" IVar="-1" Cut="0.0000000000000000e+00" cType="1" res="-3.2694276422262192e-02" rms="3.1274086236953735e-01" purity="1.2570953369140625e-01" nType="-99"/>
          <Node pos="r" depth="2" NCoef="0" IVar="-1" Cut="0.0000000000000000e+00" cType="1" res="7.9749580472707748e-03" rms="4.1103944182395935e-01" purity="6.0381704568862915e-01" nType="-99"/>
        </Node>
      </Node>
    </BinaryTree>
    <BinaryTree type="DecisionTree" boostWeight="1.0000000000000000e+00" itree="19">
      <Node pos="s" depth="0" NCoef="0" IVar="3" Cut="3.2380015850067139e+00" cType="1" res="-4.7927991545293480e-05" rms="3.3547893166542053e-01" purity="5.0084149837493896e-01" nType="0">
        <Node pos="l" depth="1" NCoef="0" IVar="6" Cut="9.5307331085205078e+00" cType="1" res="8.9686870574951172e-02" rms="2.6967042684555054e-01" purity="8.5389983654022217e-01" nType="0">
          <Node pos="l" depth="2" NCoef="0" IVar="-1" Cut="0.0000000000000000e+00" cType="1" res="4.0454450994729996e-02" rms="2.2241005301475525e-01" purity="9.2229759693145752e-01" nType="-99"/>
          <Node pos="r" depth="2" NCoef="0" IVar="-1" Cut="0.0000000000000000e+00" cType="1" res="-3.0084406957030296e-02" rms="4.1633695363998413e-01" purity="3.9712667465209961e-01" nType="-99"/>
        </Node>
        <Node pos="r" depth="1" NCoef="0" IVar="0" Cut="7.0857139587402344e+01" cType="1" res="-4.3089747428894043e-02" rms="3.5487034916877747e-01" purity="3.3149501681327820e-01" nType="0">
          <Node pos="l" depth="2" NCoef="0" IVar="-1" Cut="0.0000000000000000e+00" cType="1" res="-9.6797160804271698e-03" rms="3.5168302059173584e-01" purity="3.4007173776626587e-01" nType="-99"/>
          <Node pos="r" depth="2" NCoef="0" IVar="-1" Cut="0.0000000000000000e+00" cType="1" res="-8.0844536423683167e-02" rms="3.3700504899024963e-01" purity="1.1061725765466690e-01" nType="-99"/>
        </Node>
      </Node>
    </BinaryTree>
    <BinaryTree type="DecisionTree" boostWeight="1.0000000000000000e+00" itree="20">
      <Node pos="s" depth="0" NCoef="0" IVar="6" Cut="4.7725763320922852e+00" cType="1" res="4.3209148570895195e-03" rms="3.3470904827117920e-01" purity="5.0585609674453735e-01" nType="0">
        <Node pos="l" depth="1" NCoef="0" IVar="5" Cut="4.7325935214757919e-02" cType="1" res="5.4163511842489243e-02" rms="3.2978907227516174e-01" purity="7.1133303642272949e-01" nType="0">
          <Node pos="l" depth="2" NCoef="0" IVar="-1" Cut="0.0000000000000000e+00" cType="1" res="2.2076500579714775e-02" rms="3.1768149137496948e-01" purity="7.5780338048934937e-01" nType="-99"/>
          <Node pos="r" depth="2" NCoef="0" IVar="-1" Cut="0.0000000000000000e+00" cType="1" res="-5.4936323314905167e-02" rms="3.6803731322288513e-01" purity="1.4870427548885345e-01" nType="-99"/>
        </Node>
        <Node pos="r" depth="1" NCoef="0" IVar="4" Cut="5.5136981964111328e+01" cType="1" res="-6.5221786499023438e-02" rms="3.2907333970069885e-01" purity="2.1916516125202179e-01" nType="0">
          <Node pos="l" depth="2" NCoef="0" IVar="-1" Cut="0.0000000000000000e+00" cType="1" res="-3.0723683536052704e-02" rms="3.0346521735191345e-01" purity="1.2384516000747681e-01" nType="-99"/>
          <Node pos="r" depth="2" NCoef="0" IVar="-1" Cut="0.0000000000000000e+00" cType="1" res="8.0506466329097748e-03" rms="4.0343251824378967e-01" purity="6.1092054843902588e-01" nType="-99"/>
        </Node>
      </Node>
    </BinaryTree>
    <BinaryTree type="DecisionTree" boostWeight="1.0000000000000000e+00" itree="21">
      <Node pos="s" depth="0" NCoef="0" IVar="9" Cut="4.7603302001953125e+00" cType="1" res="-3.9822820690460503e-04" rms="3.3244708180427551e-01" purity="5.0017368793487549e-01" nType="0">
        <Node pos="l" depth="1" NCoef="0" IVar="10" Cut="7.1328277587890625e+00" cType="1" res="2.8998885303735733e-02" rms="3.3159509301185608e-01" purity="5.7791161537170410e-01" nType="0">
          <Node pos="l" depth="2" NCoef="0" IVar="-1" Cut="0.0000000000000000e+00" cType="1" res="1.4621973969042301e-02" rms="3.3961778879165649e-01" purity="6.4557790756225586e-01" nType="-99"/>
          <Node pos="r" depth="2" NCoef="0" IVar="-1" Cut="0.0000000000000000e+00" cType="1" res="-4.8307769000530243e-02" rms="1.9792927801609039e-01" purity="3.9693810045719147e-02" nType="-99"/>
        </Node>
        <Node pos="r" depth="1" NCoef="0" IVar="9" Cut="6.9142007827758789e+00" cType="1" res="-1.2151864171028137e-01" rms="3.0760577321052551e-01" purity="1.7988173663616180e-01" nType="0">
          <Node pos="l" depth="2" NCoef="0" IVar="-1" Cut="0.0000000000000000e+00" cType="1" res="-2.3696077987551689e-02" rms="3.4724107384681702e-01" purity="2.7882203459739685e-01" nType="-99"/>
          <Node pos="r" depth="2" NCoef="0" IVar="-1" Cut="0.0000000000000000e+00" cType="1" res="-4.9712747335433960e-02" rms="2.7506652474403381e-01" purity="1.1554421484470367e-01" nType="-99"/>
        </Node>
      </Node>
    </BinaryTree>
    <BinaryTree type="DecisionTree" boostWeight="1.0000000000000000e+00" itree="22">
      <Node pos="s" depth="0" NCoef="0" IVar="10" Cut="4.7546677589416504e+00" cType="1" res="1.7061661928892136e-03" rms="3.2937785983085632e-01" purity="5.0581669807434082e-01" nType="0">
        <Node pos="l" depth="1" NCoef="0" IVar="10" Cut="1.3583790063858032e+00" cType="1" res="3.1307183206081390e-02" rms="3.4464713931083679e-01" purity="6.3457691669464111e-01" nType="0">
          <Node pos="l" depth="2" NCoef="0" IVar="-1" Cut="0.0000000000000000e+00" cType="1" res="-3.8322016596794128e-02" rms="3.3623093366622925e-01" purity="2.3778489232063293e-01" nType="-99"/>
          <Node pos="r" depth="2" NCoef="0" IVar="-1" Cut="0.0000000000000000e+00" cType="1" res="1.7151467502117157e-02" rms="3.3897900581359863e-01" purity="6.9909179210662842e-01" nType="-99"/>
        </Node>
        <Node pos="r" depth="1" NCoef="0" IVar="10" Cut="6.9059753417968750e+00" cType="1" res="-9.4111666083335876e-02" rms="2.5131231546401978e-01" purity="8.9022845029830933e-02" nType="0">
          <Node pos="l" depth="2" NCoef="0" IVar="-1" Cut="0.0000000000000000e+00" cType="1" res="-1.4569979161024094e-02" rms="3.6520451307296753e-01" purity="2.2610384225845337e-01" nType="-99"/>
          <Node pos="r" depth="2" NCoef="0" IVar="-1" Cut="0.0000000000000000e+00" cType="1" res="-4.7197204083204269e-02" rms="1.8163070082664490e-01" purity="3.2134477049112320e-02" nType="-99"/>
        </Node>
      </Node>
    </BinaryTree>
    <BinaryTree type="DecisionTree" boostWeight="1.0000000000000000e+00" itree="23">
      <Node pos="s" depth="0" NCoef="0" IVar="6" Cut="4.7686095237731934e+00" cType="1" res="-7.7958405017852783e-04" rms="3.2939553260803223e-01" purity="4.9844378232955933e-01" nType="0">
        <Node pos="l" depth="1" NCoef="0" IVar="5" Cut="4.6859551221132278e-02" cType="1" res="4.1062679141759872e-02" rms="3.2540848851203918e-01" purity="7.0418071746826172e-01" nType="0">
          <Node pos="l" depth="2" NCoef="0" IVar="-1" Cut="0.0000000000000000e+00" cType="1" res="1.8090231344103813e-02" rms="3.1555345654487610e-01" purity="7.5085693597793579e-01" nType="-99"/>
          <Node pos="r" depth="2" NCoef="0" IVar="-1" Cut="0.0000000000000000e+00" cType="1" res="-5.0677217543125153e-02" rms="3.6399066448211670e-01" purity="1.4682431519031525e-01" nType="-99"/>
        </Node>
        <Node pos="r" depth="1" NCoef="0" IVar="10" Cut="2.3773338794708252e+00" cType="1" res="-5.8919902890920639e-02" rms="3.2606139779090881e-01" purity="2.1256986260414124e-01" nType="0">
          <Node pos="l" depth="2" NCoef="0" IVar="-1" Cut="0.0000000000000000e+00" cType="1" res="-1.7788751283660531e-03" rms="3.9298328757286072e-01" purity="3.4025955200195312e-01" nType="-99"/>
          <Node pos="r" depth="2" NCoef="0" IVar="-1" Cut="0.0000000000000000e+00" cType="1" res="-3.5147275775671005e-02" rms="2.6804140210151672e-01" purity="1.2908178567886353e-01" nType="-99"/>
        </Node>
      </Node>
    </BinaryTree>
    <BinaryTree type="DecisionTree" boostWeight="1.0000000000000000e+00" itree="24">
      <Node pos="s" depth="0" NCoef="0" IVar="3" Cut="3.2380015850067139e+00" cType="1" res="-2.4036227259784937e-03" rms="3.2744109630584717e-01" purity="4.9718365073204041e-01" nType="0">
        <Node pos="l" depth="1" NCoef="0" IVar="6" Cut="4.7686095237731934e+00" cType="1" res="7.0260241627693176e-02" rms="2.6104289293289185e-01" purity="8.5012429952621460e-01" nType="0">
          <Node pos="l" depth="2" NCoef="0" IVar="-1" Cut="0.0000000000000000e+00" cType="1" res="4.0041588246822357e-02" rms="1.9605137407779694e-01" purity="9.4298595190048218e-01" nType="-99"/>
          <Node pos="r" depth="2" NCoef="0" IVar="-1" Cut="0.0000000000000000e+00" cType="1" res="-1.6911018639802933e-02" rms="4.1240155696868896e-01" purity="4.5581948757171631e-01" nType="-99"/>
        </Node>
        <Node pos="r" depth="1" NCoef="0" IVar="0" Cut="6.6000000000000000e+01" cType="1" res="-3.6258775740861893e-02" rms="3.4902253746986389e-01" purity="3.3274343609809875e-01" nType="0">
          <Node pos="l" depth="2" NCoef="0" IVar="-1" Cut="0.0000000000000000e+00" cType="1" res="-8.4032006561756134e-03" rms="3.4573617577552795e-01" purity="3.4082260727882385e-01" nType="-99"/>
          <Node pos="r" depth="2" NCoef="0" IVar="-1" Cut="0.0000000000000000e+00" cType="1" res="-7.5591824948787689e-02" rms="3.4808886051177979e-01" purity="1.3282749056816101e-01" nType="-99"/>
        </Node>
      </Node>
    </BinaryTree>
    <BinaryTree type="DecisionTree" boostWeight="1.0000000000000000e+00" itree="25">
      <Node pos="s" depth="0" NCoef="0" IVar="9" Cut="4.7603302001953125e+00" cType="1" res="1.1927762534469366e-03" rms="3.2489618659019470e-01" purity="5.0588941574096680e-01" nType="0">
        <Node pos="l" depth="1" NCoef="0" IVar="3" Cut="6.4371061325073242e+00" cType="1" res="2.5554858148097992e-02" rms="3.2327023148536682e-01" purity="5.8343195915222168e-01" nType="0">
          <Node pos="l" depth="2" NCoef="0" IVar="-1" Cut="0.0000000000000000e+00" cType="1" res="2.0375091582536697e-02" rms="3.0143955349922180e-01" purity="8.2647556066513062e-01" nType="-99"/>
          <Node pos="r" depth="2" NCoef="0" IVar="-1" Cut="0.0000000000000000e+00" cType="1" res="-1.2427675537765026e-02" rms="3.4767299890518188e-01" purity="1.7711022496223450e-01" nType="-99"/>
        </Node>
        <Node pos="r" depth="1" NCoef="0" IVar="3" Cut="6.6757454872131348e+00" cType="1" res="-1.0104791820049286e-01" rms="3.1150674819946289e-01" purity="1.8046528100967407e-01" nType="0">
          <Node pos="l" depth="2" NCoef="0" IVar="-1" Cut="0.0000000000000000e+00" cType="1" res="-3.7428166717290878e-02" rms="4.0592491626739502e-01" purity="3.9134871959686279e-01" nType="-99"/>
          <Node pos="r" depth="2" NCoef="0" IVar="-1" Cut="0.0000000000000000e+00" cType="1" res="-3.2875336706638336e-02" rms="2.4600112438201904e-01" purity="7.1570716798305511e-02" nType="-99"/>
        </Node>
      </Node>
    </BinaryTree>
    <BinaryTree type="DecisionTree" boostWeight="1.0000000000000000e+00" itree="26">
      <Node pos="s" depth="0" NCoef="0" IVar="9" Cut="4.7581577301025391e+00" cType="1" res="3.8942585233598948e-03" rms="3.2678008079528809e-01" purity="5.0334262847900391e-01" nType="0">
        <Node pos="l" depth="1" NCoef="0" IVar="9" Cut="1.3593819141387939e+00" cType="1" res="2.5504756718873978e-02" rms="3.2803937792778015e-01" purity="5.7909858226776123e-01" nType="0">
          <Node pos="l" depth="2" NCoef="0" IVar="-1" Cut="0.0000000000000000e+00" cType="1" res="-2.9017904773354530e-02" rms="3.4063398838043213e-01" purity="2.8402805328369141e-01" nType="-99"/>
          <Node pos="r" depth="2" NCoef="0" IVar="-1" Cut="0.0000000000000000e+00" cType="1" res="1.5397558920085430e-02" rms="3.2123097777366638e-01" purity="6.3176971673965454e-01" nType="-99"/>
        </Node>
        <Node pos="r" depth="1" NCoef="0" IVar="9" Cut="9.0631599426269531e+00" cType="1" res="-8.5018254816532135e-02" rms="3.0588498711585999e-01" purity="1.9165872037410736e-01" nType="0">
          <Node pos="l" depth="2" NCoef="0" IVar="-1" Cut="0.0000000000000000e+00" cType="1" res="-2.1414367482066154e-02" rms="3.2993727922439575e-01" purity="2.5279828906059265e-01" nType="-99"/>
          <Node pos="r" depth="2" NCoef="0" IVar="-1" Cut="0.0000000000000000e+00" cType="1" res="-4.3863199651241302e-02" rms="2.6459762454032898e-01" purity="1.0339851677417755e-01" nType="-99"/>
        </Node>
      </Node>
    </BinaryTree>
    <BinaryTree type="DecisionTree" boostWeight="1.0000000000000000e+00" itree="27">
      <Node pos="s" depth="0" NCoef="0" IVar="10" Cut="4.7206864356994629e+00" cType="1" res="-3.7483137566596270e-03" rms="3.2414379715919495e-01" purity="4.9542939662933350e-01" nType="0">
        <Node pos="l" depth="1" NCoef="0" IVar="5" Cut="4.7323565930128098e-02" cType="1" res="2.1286206319928169e-02" rms="3.4326419234275818e-01" purity="6.2547153234481812e-01" nType="0">
          <Node pos="l" depth="2" NCoef="0" IVar="-1" Cut="0.0000000000000000e+00" cType="1" res="1.1243757791817188e-02" rms="3.3868274092674255e-01" purity="6.5986943244934082e-01" nType="-99"/>
          <Node pos="r" depth="2" NCoef="0" IVar="-1" Cut="0.0000000000000000e+00" cType="1" res="-5.6259825825691223e-02" rms="3.4549909830093384e-01" purity="1.2646670639514923e-01" nType="-99"/>
        </Node>
        <Node pos="r" depth="1" NCoef="0" IVar="10" Cut="6.8562884330749512e+00" cType="1" res="-8.3430707454681396e-02" rms="2.3687079548835754e-01" purity="8.1517942249774933e-02" nType="0">
          <Node pos="l" depth="2" NCoef="0" IVar="-1" Cut="0.0000000000000000e+00" cType="1" res="-1.2583422474563122e-02" rms="3.5895961523056030e-01" purity="2.2325704991817474e-01" nType="-99"/>
          <Node pos="r" depth="2" NCoef="0" IVar="-1" Cut="0.0000000000000000e+00" cType="1" res="-4.8554852604866028e-02" rms="1.5966707468032837e-01" purity="2.3721029981970787e-02" nType="-99"/>
        </Node>
      </Node>
    </BinaryTree>
    <BinaryTree type="DecisionTree" boostWeight="1.0000000000000000e+00" itree="28">
      <Node pos="s" depth="0" NCoef="0" IVar="5" Cut="4.6241946518421173e-02" cType="1" res="6.3099851831793785e-04" rms="3.2460486888885498e-01" purity="5.0024676322937012e-01" nType="0">
        <Node pos="l" depth="1" NCoef="0" IVar="4" Cut="4.4100271606445312e+02" cType="1" res="1.1497215367853642e-02" rms="3.2226261496543884e-01" purity="5.2752333879470825e-01" nType="0">
          <Node pos="l" depth="2" NCoef="0" IVar="-1" Cut="0.0000000000000000e+00" cType="1" res="-6.1552356928586960e-03" rms="3.5438299179077148e-01" purity="4.0275394916534424e-01" nType="-99"/>
          <Node pos="r" depth="2" NCoef="0" IVar="-1" Cut="0.0000000000000000e+00" cType="1" res="5.6084536015987396e-02" rms="7.5938217341899872e-02" purity="9.9450552463531494e-01" nType="-99"/>
        </Node>
        <Node pos="r" depth="1" NCoef="0" IVar="3" Cut="1.1582386970520020e+01" cType="1" res="-1.6064146161079407e-01" rms="3.1637659668922424e-01" purity="9.5417067408561707e-02" nType="0">
          <Node pos="l" depth="2" NCoef="0" IVar="-1" Cut="0.0000000000000000e+00" cType="1" res="-6.1441652476787567e-02" rms="3.9954262971878052e-01" purity="1.5986880660057068e-01" nType="-99"/>
          <Node pos="r" depth="2" NCoef="0" IVar="-1" Cut="0.0000000000000000e+00" cType="1" res="-4.1133061051368713e-02" rms="1.7194977402687073e-01" purity="3.2090950757265091e-02" nType="-99"/>
        </Node>
      </Node>
    </BinaryTree>
    <BinaryTree type="DecisionTree" boostWeight="1.0000000000000000e+00" itree="29">
      <Node pos="s" depth="0" NCoef="0" IVar="0" Cut="8.0571426391601562e+01" cType="1" res="-3.2421774230897427e-03" rms="3.1997439265251160e-01" purity="4.9579450488090515e-01" nType="0">
        <Node pos="l" depth="1" NCoef="0" IVar="2" Cut="-1.8902379274368286e+00" cType="1" res="4.2713601142168045e-03" rms="3.1686693429946899e-01" purity="5.0581854581832886e-01" nType="0">
          <Node pos="l" depth="2" NCoef="0" IVar="-1" Cut="0.0000000000000000e+00" cType="1" res="-5.6530744768679142e-03" rms="3.1950566172599792e-01" purity="4.4862395524978638e-01" nType="-99"/>
          <Node pos="r" depth="2" NCoef="0" IVar="-1" Cut="0.0000000000000000e+00" cType="1" res="4.6008285135030746e-02" rms="2.6864895224571228e-01" purity="8.5123080015182495e-01" nType="-99"/>
        </Node>
        <Node pos="r" depth="1" NCoef="0" IVar="-1" Cut="0.0000000000000000e+00" cType="1" res="-8.7529964745044708e-02" rms="3.0500736832618713e-01" purity="1.1114465445280075e-01" nType="-99"/>
      </Node>
    </BinaryTree>
    <BinaryTree type="DecisionTree" boostWeight="1.0000000000000000e+00" itree="30">
      <Node pos="s" depth="0" NCoef="0" IVar="0" Cut="8.0571426391601562e+01" cType="1" res="-8.8385719573125243e-04" rms="3.1900909543037415e-01" purity="4.9958881735801697e-01" nType="0">
        <Node pos="l" depth="1" NCoef="0" IVar="2" Cut="-1.8884296417236328e+00" cType="1" res="5.2986186929047108e-03" rms="3.1665676832199097e-01" purity="5.0881910324096680e-01" nType="0">
          <Node pos="l" depth="2" NCoef="0" IVar="-1" Cut="0.0000000000000000e+00" cType="1" res="-4.4726431369781494e-03" rms="3.2036325335502625e-01" purity="4.5236808061599731e-01" nType="-99"/>
          <Node pos="r" depth="2" NCoef="0" IVar="-1" Cut="0.0000000000000000e+00" cType="1" res="4.3556600809097290e-02" rms="2.6724854111671448e-01" purity="8.5315579175949097e-01" nType="-99"/>
        </Node>
        <Node pos="r" depth="1" NCoef="0" IVar="-1" Cut="0.0000000000000000e+00" cType="1" res="-7.1872495114803314e-02" rms="3.1949868798255920e-01" purity="1.4972004294395447e-01" nType="-99"/>
      </Node>
    </BinaryTree>
    <BinaryTree type="DecisionTree" boostWeight="1.0000000000000000e+00" itree="31">
      <Node pos="s" depth="0" NCoef="0" IVar="10" Cut="4.7552185058593750e+00" cType="1" res="-1.1106991441920400e-03" rms="3.2018384337425232e-01" purity="4.9815693497657776e-01" nType="0">
        <Node pos="l" depth="1" NCoef="0" IVar="10" Cut="1.1321889162063599e+00" cType="1" res="1.8974373117089272e-02" rms="3.3714690804481506e-01" purity="6.2642937898635864e-01" nType="0">
          <Node pos="l" depth="2" NCoef="0" IVar="-1" Cut="0.0000000000000000e+00" cType="1" res="-3.8234721869230270e-02" rms="3.1750160455703735e-01" purity="1.9881205260753632e-01" nType="-99"/>
          <Node pos="r" depth="2" NCoef="0" IVar="-1" Cut="0.0000000000000000e+00" cType="1" res="1.2027599848806858e-02" rms="3.3563876152038574e-01" purity="6.8234568834304810e-01" nType="-99"/>
        </Node>
        <Node pos="r" depth="1" NCoef="0" IVar="10" Cut="9.0576276779174805e+00" cType="1" res="-6.5800458192825317e-02" rms="2.4722611904144287e-01" purity="8.5018783807754517e-02" nType="0">
          <Node pos="l" depth="2" NCoef="0" IVar="-1" Cut="0.0000000000000000e+00" cType="1" res="-1.4772946015000343e-02" rms="3.3031469583511353e-01" purity="1.6410841047763824e-01" nType="-99"/>
          <Node pos="r" depth="2" NCoef="0" IVar="-1" Cut="0.0000000000000000e+00" cType="1" res="-4.8495519906282425e-02" rms="1.3772951066493988e-01" purity="1.7003541812300682e-02" nType="-99"/>
        </Node>
      </Node>
    </BinaryTree>
    <BinaryTree type="DecisionTree" boostWeight="1.0000000000000000e+00" itree="32">
      <Node pos="s" depth="0" NCoef="0" IVar="0" Cut="8.0571426391601562e+01" cType="1" res="-1.5120779862627387e-03" rms="3.1647545099258423e-01" purity="5.0005066394805908e-01" nType="0">
        <Node pos="l" depth="1" NCoef="0" IVar="10" Cut="4.6961212158203125e+00" cType="1" res="4.5625697821378708e-03" rms="3.1441783905029297e-01" purity="5.0976818799972534e-01" nType="0">
          <Node pos="l" depth="2" NCoef="0" IVar="-1" Cut="0.0000000000000000e+00" cType="1" res="8.2277571782469749e-03" rms="3.3047363162040710e-01" purity="6.4158791303634644e-01" nType="-99"/>
          <Node pos="r" depth="2" NCoef="0" IVar="-1" Cut="0.0000000000000000e+00" cType="1" res="-2.7088459581136703e-02" rms="2.4540141224861145e-01" purity="8.7956614792346954e-02" nType="-99"/>
        </Node>
        <Node pos="r" depth="1" NCoef="0" IVar="-1" Cut="0.0000000000000000e+00" cType="1" res="-6.8909525871276855e-02" rms="3.1206601858139038e-01" purity="1.4778600633144379e-01" nType="-99"/>
      </Node>
    </BinaryTree>
    <BinaryTree type="DecisionTree" boostWeight="1.0000000000000000e+00" itree="33">
      <Node pos="s" depth="0" NCoef="0" IVar="9" Cut="4.7603302001953125e+00" cType="1" res="-1.5980637399479747e-03" rms="3.1790173053741455e-01" purity="4.9580058455467224e-01" nType="0">
        <Node pos="l" depth="1" NCoef="0" IVar="9" Cut="1.3600838184356689e+00" cType="1" res="1.5352963469922543e-02" rms="3.1888669729232788e-01" purity="5.7247465848922729e-01" nType="0">
          <Node pos="l" depth="2" NCoef="0" IVar="-1" Cut="0.0000000000000000e+00" cType="1" res="-2.3812131956219673e-02" rms="3.3726063370704651e-01" purity="2.9423886537551880e-01" nType="-99"/>
          <Node pos="r" depth="2" NCoef="0" IVar="-1" Cut="0.0000000000000000e+00" cType="1" res="1.1253464035689831e-02" rms="3.1262162327766418e-01" purity="6.2444430589675903e-01" nType="-99"/>
        </Node>
        <Node pos="r" depth="1" NCoef="0" IVar="3" Cut="6.4598293304443359e+00" cType="1" res="-7.1158923208713531e-02" rms="3.0408841371536255e-01" purity="1.8115800619125366e-01" nType="0">
          <Node pos="l" depth="2" NCoef="0" IVar="-1" Cut="0.0000000000000000e+00" cType="1" res="-3.0972965061664581e-02" rms="3.9019447565078735e-01" purity="3.9505264163017273e-01" nType="-99"/>
          <Node pos="r" depth="2" NCoef="0" IVar="-1" Cut="0.0000000000000000e+00" cType="1" res="-2.4503689259290695e-02" rms="2.5031024217605591e-01" purity="7.9419724643230438e-02" nType="-99"/>
        </Node>
      </Node>
    </BinaryTree>
    <BinaryTree type="DecisionTree" boostWeight="1.0000000000000000e+00" itree="34">
      <Node pos="s" depth="0" NCoef="0" IVar="3" Cut="3.2380015850067139e+00" cType="1" res="-1.7902866238728166e-04" rms="3.1319814920425415e-01" purity="5.0132817029953003e-01" nType="0">
        <Node pos="l" depth="1" NCoef="0" IVar="6" Cut="1.4292273521423340e+01" cType="1" res="5.1981166005134583e-02" rms="2.4321307241916656e-01" purity="8.5574448108673096e-01" nType="0">
          <Node pos="l" depth="2" NCoef="0" IVar="-1" Cut="0.0000000000000000e+00" cType="1" res="3.0974153429269791e-02" rms="2.0921352505683899e-01" purity="9.1386622190475464e-01" nType="-99"/>
          <Node pos="r" depth="2" NCoef="0" IVar="-1" Cut="0.0000000000000000e+00" cType="1" res="-2.3868642747402191e-02" rms="4.0569108724594116e-01" purity="3.6521738767623901e-01" nType="-99"/>
        </Node>
        <Node pos="r" depth="1" NCoef="0" IVar="0" Cut="6.6000000000000000e+01" cType="1" res="-2.5935791432857513e-02" rms="3.3958068490028381e-01" purity="3.2631701231002808e-01" nType="0">
          <Node pos="l" depth="2" NCoef="0" IVar="-1" Cut="0.0000000000000000e+00" cType="1" res="-6.6979569382965565e-03" rms="3.3850926160812378e-01" purity="3.3412295579910278e-01" nType="-99"/>
          <Node pos="r" depth="2" NCoef="0" IVar="-1" Cut="0.0000000000000000e+00" cType="1" res="-5.4991390556097031e-02" rms="3.3114409446716309e-01" purity="1.4361670613288879e-01" nType="-99"/>
        </Node>
      </Node>
    </BinaryTree>
    <BinaryTree type="DecisionTree" boostWeight="1.0000000000000000e+00" itree="35">
      <Node pos="s" depth="0" NCoef="0" IVar="5" Cut="4.7323565930128098e-02" cType="1" res="2.0855016191489995e-04" rms="3.1457674503326416e-01" purity="4.9961227178573608e-01" nType="0">
        <Node pos="l" depth="1" NCoef="0" IVar="5" Cut="4.5052198693156242e-03" cType="1" res="9.2719225212931633e-03" rms="3.1261673569679260e-01" purity="5.2642863988876343e-01" nType="0">
          <Node pos="l" depth="2" NCoef="0" IVar="-1" Cut="0.0000000000000000e+00" cType="1" res="8.8653173297643661e-03" rms="3.0452308058738708e-01" purity="5.5392163991928101e-01" nType="-99"/>
          <Node pos="r" depth="2" NCoef="0" IVar="-1" Cut="0.0000000000000000e+00" cType="1" res="-4.0093459188938141e-02" rms="3.5150346159934998e-01" purity="2.6874977350234985e-01" nType="-99"/>
        </Node>
        <Node pos="r" depth="1" NCoef="0" IVar="3" Cut="1.1154980659484863e+01" cType="1" res="-1.3710388541221619e-01" rms="3.1222382187843323e-01" purity="9.3337163329124451e-02" nType="0">
          <Node pos="l" depth="2" NCoef="0" IVar="-1" Cut="0.0000000000000000e+00" cType="1" res="-5.5825095623731613e-02" rms="3.9735791087150574e-01" purity="1.5727792680263519e-01" nType="-99"/>
          <Node pos="r" depth="2" NCoef="0" IVar="-1" Cut="0.0000000000000000e+00" cType="1" res="-3.7812259048223495e-02" rms="1.7286737263202667e-01" purity="3.2375566661357880e-02" nType="-99"/>
        </Node>
      </Node>
    </BinaryTree>
    <BinaryTree type="DecisionTree" boostWeight="1.0000000000000000e+00" itree="36">
      <Node pos="s" depth="0" NCoef="0" IVar="5" Cut="4.7323565930128098e-02" cType="1" res="2.9758610762655735e-03" rms="3.1582450866699219e-01" purity="5.0133496522903442e-01" nType="0">
        <Node pos="l" depth="1" NCoef="0" IVar="5" Cut="6.7577851004898548e-03" cType="1" res="1.1475883424282074e-02" rms="3.1498655676841736e-01" purity="5.2801889181137085e-01" nType="0">
          <Node pos="l" depth="2" NCoef="0" IVar="-1" Cut="0.0000000000000000e+00" cType="1" res="8.3155371248722076e-03" rms="3.0922341346740723e-01" purity="5.5065643787384033e-01" nType="-99"/>
          <Node pos="r" depth="2" NCoef="0" IVar="-1" Cut="0.0000000000000000e+00" cType="1" res="-4.2220357805490494e-02" rms="3.5115715861320496e-01" purity="2.2930932044982910e-01" nType="-99"/>
        </Node>
        <Node pos="r" depth="1" NCoef="0" IVar="3" Cut="1.1006244659423828e+01" cType="1" res="-1.2703254818916321e-01" rms="2.9970398545265198e-01" purity="9.3202501535415649e-02" nType="0">
          <Node pos="l" depth="2" NCoef="0" IVar="-1" Cut="0.0000000000000000e+00" cType="1" res="-5.2549291402101517e-02" rms="3.8205838203430176e-01" purity="1.5872432291507721e-01" nType="-99"/>
          <Node pos="r" depth="2" NCoef="0" IVar="-1" Cut="0.0000000000000000e+00" cType="1" res="-3.7333797663450241e-02" rms="1.6727891564369202e-01" purity="3.0880710110068321e-02" nType="-99"/>
        </Node>
      </Node>
    </BinaryTree>
    <BinaryTree type="DecisionTree" boostWeight="1.0000000000000000e+00" itree="37">
      <Node pos="s" depth="0" NCoef="0" IVar="10" Cut="4.7206864356994629e+00" cType="1" res="1.2204597005620599e-03" rms="3.1563925743103027e-01" purity="5.0038111209869385e-01" nType="0">
        <Node pos="l" depth="1" NCoef="0" IVar="0" Cut="7.0857139587402344e+01" cType="1" res="1.8121417611837387e-02" rms="3.3323574066162109e-01" purity="6.3058519363403320e-01" nType="0">
          <Node pos="l" depth="2" NCoef="0" IVar="-1" Cut="0.0000000000000000e+00" cType="1" res="8.4754331037402153e-03" rms="3.3175972104072571e-01" purity="6.4331251382827759e-01" nType="-99"/>
          <Node pos="r" depth="2" NCoef="0" IVar="-1" Cut="0.0000000000000000e+00" cType="1" res="-5.1160562783479691e-02" rms="3.2132607698440552e-01" purity="2.8311601281166077e-01" nType="-99"/>
        </Node>
        <Node pos="r" depth="1" NCoef="0" IVar="10" Cut="8.9918346405029297e+00" cType="1" res="-5.2872475236654282e-02" rms="2.4340055882930756e-01" purity="8.3651810884475708e-02" nType="0">
          <Node pos="l" depth="2" NCoef="0" IVar="-1" Cut="0.0000000000000000e+00" cType="1" res="-1.2041447684168816e-02" rms="3.2411774992942810e-01" purity="1.6027422249317169e-01" nType="-99"/>
          <Node pos="r" depth="2" NCoef="0" IVar="-1" Cut="0.0000000000000000e+00" cType="1" res="-4.5213855803012848e-02" rms="1.3985416293144226e-01" purity="1.8373163416981697e-02" nType="-99"/>
        </Node>
      </Node>
    </BinaryTree>
    <BinaryTree type="DecisionTree" boostWeight="1.0000000000000000e+00" itree="38">
      <Node pos="s" depth="0" NCoef="0" IVar="6" Cut="4.7691926956176758e+00" cType="1" res="2.5941574131138623e-04" rms="3.1463089585304260e-01" purity="4.9864721298217773e-01" nType="0">
        <Node pos="l" depth="1" NCoef="0" IVar="3" Cut="3.4524772167205811e+00" cType="1" res="2.5814531370997429e-02" rms="3.0899700522422791e-01" purity="7.0545613765716553e-01" nType="0">
          <Node pos="l" depth="2" NCoef="0" IVar="-1" Cut="0.0000000000000000e+00" cType="1" res="3.2518856227397919e-02" rms="1.8951316177845001e-01" purity="9.3834912776947021e-01" nType="-99"/>
          <Node pos="r" depth="2" NCoef="0" IVar="-1" Cut="0.0000000000000000e+00" cType="1" res="-3.8823736831545830e-03" rms="3.8881874084472656e-01" purity="4.7555467486381531e-01" nType="-99"/>
        </Node>
        <Node pos="r" depth="1" NCoef="0" IVar="4" Cut="4.4125175476074219e+01" cType="1" res="-3.4625370055437088e-02" rms="3.1887349486351013e-01" purity="2.1633636951446533e-01" nType="0">
          <Node pos="l" depth="2" NCoef="0" IVar="-1" Cut="0.0000000000000000e+00" cType="1" res="-2.7038644999265671e-02" rms="2.8509134054183960e-01" purity="1.0455168783664703e-01" nType="-99"/>
          <Node pos="r" depth="2" NCoef="0" IVar="-1" Cut="0.0000000000000000e+00" cType="1" res="1.2545697391033173e-02" rms="3.8928779959678650e-01" purity="5.3718817234039307e-01" nType="-99"/>
        </Node>
      </Node>
    </BinaryTree>
    <BinaryTree type="DecisionTree" boostWeight="1.0000000000000000e+00" itree="39">
      <Node pos="s" depth="0" NCoef="0" IVar="0" Cut="8.0571426391601562e+01" cType="1" res="-2.0050858147442341e-03" rms="3.1169965863227844e-01" purity="4.9787789583206177e-01" nType="0">
        <Node pos="l" depth="1" NCoef="0" IVar="2" Cut="-1.8902379274368286e+00" cType="1" res="2.8926709201186895e-03" rms="3.1083545088768005e-01" purity="5.0750064849853516e-01" nType="0">
          <Node pos="l" depth="2" NCoef="0" IVar="-1" Cut="0.0000000000000000e+00" cType="1" res="-4.5539666898548603e-03" rms="3.1441497802734375e-01" purity="4.5055550336837769e-01" nType="-99"/>
          <Node pos="r" depth="2" NCoef="0" IVar="-1" Cut="0.0000000000000000e+00" cType="1" res="3.9009388536214828e-02" rms="2.7089259028434753e-01" purity="8.5067170858383179e-01" nType="-99"/>
        </Node>
        <Node pos="r" depth="1" NCoef="0" IVar="-1" Cut="0.0000000000000000e+00" cType="1" res="-6.2862828373908997e-02" rms="2.8584051132202148e-01" purity="1.2968258559703827e-01" nType="-99"/>
      </Node>
    </BinaryTree>
    <BinaryTree type="DecisionTree" boostWeight="1.0000000000000000e+00" itree="40">
      <Node pos="s" depth="0" NCoef="0" IVar="6" Cut="4.7691926956176758e+00" cType="1" res="1.1466229334473610e-03" rms="3.1334584951400757e-01" purity="4.9992281198501587e-01" nType="0">
        <Node pos="l" depth="1" NCoef="0" IVar="5" Cut="4.6610884368419647e-02" cType="1" res="2.5158433243632317e-02" rms="3.0720773339271545e-01" purity="7.0737475156784058e-01" nType="0">
          <Node pos="l" depth="2" NCoef="0" IVar="-1" Cut="0.0000000000000000e+00" cType="1" res="1.3091682456433773e-02" rms="3.0042946338653564e-01" purity="7.5463992357254028e-01" nType="-99"/>
          <Node pos="r" depth="2" NCoef="0" IVar="-1" Cut="0.0000000000000000e+00" cType="1" res="-3.2928198575973511e-02" rms="3.5829922556877136e-01" purity="1.4604021608829498e-01" nType="-99"/>
        </Node>
        <Node pos="r" depth="1" NCoef="0" IVar="10" Cut="2.3773338794708252e+00" cType="1" res="-3.1763762235641479e-02" rms="3.1864231824874878e-01" purity="2.1559092402458191e-01" nType="0">
          <Node pos="l" depth="2" NCoef="0" IVar="-1" Cut="0.0000000000000000e+00" cType="1" res="1.0774600086733699e-03" rms="3.7957972288131714e-01" purity="3.3703342080116272e-01" nType="-99"/>
          <Node pos="r" depth="2" NCoef="0" IVar="-1" Cut="0.0000000000000000e+00" cType="1" res="-2.4792637676000595e-02" rms="2.7037456631660461e-01" purity="1.3814345002174377e-01" nType="-99"/>
        </Node>
      </Node>
    </BinaryTree>
    <BinaryTree type="DecisionTree" boostWeight="1.0000000000000000e+00" itree="41">
      <Node pos="s" depth="0" NCoef="0" IVar="9" Cut="4.7603302001953125e+00" cType="1" res="-2.0814852323383093e-03" rms="3.0675533413887024e-01" purity="4.9706307053565979e-01" nType="0">
        <Node pos="l" depth="1" NCoef="0" IVar="9" Cut="1.5867644548416138e+00" cType="1" res="1.1178481392562389e-02" rms="3.0752077698707581e-01" purity="5.7350039482116699e-01" nType="0">
          <Node pos="l" depth="2" NCoef="0" IVar="-1" Cut="0.0000000000000000e+00" cType="1" res="-2.2506542503833771e-02" rms="3.3084511756896973e-01" purity="3.1375187635421753e-01" nType="-99"/>
          <Node pos="r" depth="2" NCoef="0" IVar="-1" Cut="0.0000000000000000e+00" cType="1" res="1.1437633074820042e-02" rms="2.9848259687423706e-01" purity="6.3801121711730957e-01" nType="-99"/>
        </Node>
        <Node pos="r" depth="1" NCoef="0" IVar="9" Cut="6.9140920639038086e+00" cType="1" res="-5.6066103279590607e-02" rms="2.9758092761039734e-01" purity="1.8586787581443787e-01" nType="0">
          <Node pos="l" depth="2" NCoef="0" IVar="-1" Cut="0.0000000000000000e+00" cType="1" res="-9.8355626687407494e-03" rms="3.3272227644920349e-01" purity="2.7627953886985779e-01" nType="-99"/>
          <Node pos="r" depth="2" NCoef="0" IVar="-1" Cut="0.0000000000000000e+00" cType="1" res="-3.3855699002742767e-02" rms="2.7002584934234619e-01" purity="1.2611983716487885e-01" nType="-99"/>
        </Node>
      </Node>
    </BinaryTree>
    <BinaryTree type="DecisionTree" boostWeight="1.0000000000000000e+00" itree="42">
      <Node pos="s" depth="0" NCoef="0" IVar="5" Cut="4.6241946518421173e-02" cType="1" res="2.6671339583117515e-05" rms="3.1048282980918884e-01" purity="4.9973833560943604e-01" nType="0">
        <Node pos="l" depth="1" NCoef="0" IVar="5" Cut="8.8048176839947701e-03" cType="1" res="7.1530509740114212e-03" rms="3.1007802486419678e-01" purity="5.2672630548477173e-01" nType="0">
          <Node pos="l" depth="2" NCoef="0" IVar="-1" Cut="0.0000000000000000e+00" cType="1" res="6.3727125525474548e-03" rms="3.0587738752365112e-01" purity="5.4777836799621582e-01" nType="-99"/>
          <Node pos="r" depth="2" NCoef="0" IVar="-1" Cut="0.0000000000000000e+00" cType="1" res="-4.5884449034929276e-02" rms="3.3740442991256714e-01" purity="1.9139091670513153e-01" nType="-99"/>
        </Node>
        <Node pos="r" depth="1" NCoef="0" IVar="3" Cut="1.1582407951354980e+01" cType="1" res="-1.0745736956596375e-01" rms="2.9642835259437561e-01" purity="9.2691726982593536e-02" nType="0">
          <Node pos="l" depth="2" NCoef="0" IVar="-1" Cut="0.0000000000000000e+00" cType="1" res="-4.5235604047775269e-02" rms="3.8343214988708496e-01" purity="1.6033723950386047e-01" nType="-99"/>
          <Node pos="r" depth="2" NCoef="0" IVar="-1" Cut="0.0000000000000000e+00" cType="1" res="-3.8961943238973618e-02" rms="1.4798006415367126e-01" purity="2.3068126291036606e-02" nType="-99"/>
        </Node>
      </Node>
    </BinaryTree>
    <BinaryTree type="DecisionTree" boostWeight="1.0000000000000000e+00" itree="43">
      <Node pos="s" depth="0" NCoef="0" IVar="10" Cut="4.7552185058593750e+00" cType="1" res="3.0055399984121323e-03" rms="3.0895391106605530e-01" purity="5.0478082895278931e-01" nType="0">
        <Node pos="l" depth="1" NCoef="0" IVar="11" Cut="7.0746541023254395e-01" cType="1" res="1.7592832446098328e-02" rms="3.2634925842285156e-01" purity="6.3402909040451050e-01" nType="0">
          <Node pos="l" depth="2" NCoef="0" IVar="-1" Cut="0.0000000000000000e+00" cType="1" res="-2.9305528849363327e-02" rms="3.3417400717735291e-01" purity="2.3102127015590668e-01" nType="-99"/>
          <Node pos="r" depth="2" NCoef="0" IVar="-1" Cut="0.0000000000000000e+00" cType="1" res="1.0551679879426956e-02" rms="3.2335779070854187e-01" purity="6.7941498756408691e-01" nType="-99"/>
        </Node>
        <Node pos="r" depth="1" NCoef="0" IVar="9" Cut="2.3801651000976562e+00" cType="1" res="-4.4110044836997986e-02" rms="2.3843371868133545e-01" purity="8.7321296334266663e-02" nType="0">
          <Node pos="l" depth="2" NCoef="0" IVar="-1" Cut="0.0000000000000000e+00" cType="1" res="-3.2657361589372158e-03" rms="3.1241884827613831e-01" purity="1.7527087032794952e-01" nType="-99"/>
          <Node pos="r" depth="2" NCoef="0" IVar="-1" Cut="0.0000000000000000e+00" cType="1" res="-3.0653230845928192e-02" rms="2.0942859351634979e-01" purity="6.0420855879783630e-02" nType="-99"/>
        </Node>
      </Node>
    </BinaryTree>
    <BinaryTree type="DecisionTree" boostWeight="1.0000000000000000e+00" itree="44">
      <Node pos="s" depth="0" NCoef="0" IVar="0" Cut="7.5714286804199219e+01" cType="1" res="-1.4011086896061897e-03" rms="3.0942267179489136e-01" purity="4.9748736619949341e-01" nType="0">
        <Node pos="l" depth="1" NCoef="0" IVar="2" Cut="-1.8915582895278931e+00" cType="1" res="2.9871393926441669e-03" rms="3.0874618887901306e-01" purity="5.0669080018997192e-01" nType="0">
          <Node pos="l" depth="2" NCoef="0" IVar="-1" Cut="0.0000000000000000e+00" cType="1" res="-3.1058795284479856e-03" rms="3.1307584047317505e-01" purity="4.5345434546470642e-01" nType="-99"/>
          <Node pos="r" depth="2" NCoef="0" IVar="-1" Cut="0.0000000000000000e+00" cType="1" res="3.3134568482637405e-02" rms="2.6861438155174255e-01" purity="8.4888303279876709e-01" nType="-99"/>
        </Node>
        <Node pos="r" depth="1" NCoef="0" IVar="-1" Cut="0.0000000000000000e+00" cType="1" res="-5.4787300527095795e-02" rms="2.9275330901145935e-01" purity="1.7141756415367126e-01" nType="-99"/>
      </Node>
    </BinaryTree>
    <BinaryTree type="DecisionTree" boostWeight="1.0000000000000000e+00" itree="45">
      <Node pos="s" depth="0" NCoef="0" IVar="5" Cut="4.7323565930128098e-02" cType="1" res="1.3278537662699819e-03" rms="3.0941629409790039e-01" purity="4.9991804361343384e-01" nType="0">
        <Node pos="l" depth="1" NCoef="0" IVar="5" Cut="6.7578298039734364e-03" cType="1" res="7.7563361264765263e-03" rms="3.0931937694549561e-01" purity="5.2704983949661255e-01" nType="0">
          <Node pos="l" depth="2" NCoef="0" IVar="-1" Cut="0.0000000000000000e+00" cType="1" res="6.7184171639382839e-03" rms="3.0520910024642944e-01" purity="5.4993623495101929e-01" nType="-99"/>
          <Node pos="r" depth="2" NCoef="0" IVar="-1" Cut="0.0000000000000000e+00" cType="1" res="-3.8335140794515610e-02" rms="3.3597019314765930e-01" purity="2.2440302371978760e-01" nType="-99"/>
        </Node>
        <Node pos="r" depth="1" NCoef="0" IVar="3" Cut="1.0772845268249512e+01" cType="1" res="-9.6788950264453888e-02" rms="2.9393213987350464e-01" purity="8.5810206830501556e-02" nType="0">
          <Node pos="l" depth="2" NCoef="0" IVar="-1" Cut="0.0000000000000000e+00" cType="1" res="-4.8146542161703110e-02" rms="3.6966124176979065e-01" purity="1.4135318994522095e-01" nType="-99"/>
          <Node pos="r" depth="2" NCoef="0" IVar="-1" Cut="0.0000000000000000e+00" cType="1" res="-2.6680057868361473e-02" rms="1.8675114214420319e-01" purity="3.7614312022924423e-02" nType="-99"/>
        </Node>
      </Node>
    </BinaryTree>
    <BinaryTree type="DecisionTree" boostWeight="1.0000000000000000e+00" itree="46">
      <Node pos="s" depth="0" NCoef="0" IVar="10" Cut="7.1320013999938965e+00" cType="1" res="-1.0957925042021088e-05" rms="3.0878296494483948e-01" purity="4.9955943226814270e-01" nType="0">
        <Node pos="l" depth="1" NCoef="0" IVar="10" Cut="1.6979347467422485e+00" cType="1" res="1.0446851141750813e-02" rms="3.2845652103424072e-01" purity="5.9151852130889893e-01" nType="0">
          <Node pos="l" depth="2" NCoef="0" IVar="-1" Cut="0.0000000000000000e+00" cType="1" res="-1.8015112727880478e-02" rms="3.3700272440910339e-01" purity="3.0851277709007263e-01" nType="-99"/>
          <Node pos="r" depth="2" NCoef="0" IVar="-1" Cut="0.0000000000000000e+00" cType="1" res="8.8576870039105415e-03" rms="3.2491546869277954e-01" purity="6.5307748317718506e-01" nType="-99"/>
        </Node>
        <Node pos="r" depth="1" NCoef="0" IVar="3" Cut="8.1224298477172852e+00" cType="1" res="-5.3659245371818542e-02" rms="1.6611555218696594e-01" purity="2.7811877429485321e-02" nType="0">
          <Node pos="l" depth="2" NCoef="0" IVar="-1" Cut="0.0000000000000000e+00" cType="1" res="-4.5708198100328445e-02" rms="1.8427614867687225e-01" purity="3.6245219409465790e-02" nType="-99"/>
          <Node pos="r" depth="2" NCoef="0" IVar="-1" Cut="0.0000000000000000e+00" cType="1" res="-2.9771225526928902e-02" rms="1.5148958563804626e-01" purity="2.4012627080082893e-02" nType="-99"/>
        </Node>
      </Node>
    </BinaryTree>
    <BinaryTree type="DecisionTree" boostWeight="1.0000000000000000e+00" itree="47">
      <Node pos="s" depth="0" NCoef="0" IVar="9" Cut="4.7603302001953125e+00" cType="1" res="-3.9634617860428989e-04" rms="3.0793777108192444e-01" purity="4.9664217233657837e-01" nType="0">
        <Node pos="l" depth="1" NCoef="0" IVar="9" Cut="1.1332701444625854e+00" cType="1" res="1.1297683231532574e-02" rms="3.1020697951316833e-01" purity="5.7278078794479370e-01" nType="0">
          <Node pos="l" depth="2" NCoef="0" IVar="-1" Cut="0.0000000000000000e+00" cType="1" res="-2.2584881633520126e-02" rms="3.2046228647232056e-01" purity="2.5081226229667664e-01" nType="-99"/>
          <Node pos="r" depth="2" NCoef="0" IVar="-1" Cut="0.0000000000000000e+00" cType="1" res="8.2765864208340645e-03" rms="3.0743214488029480e-01" purity="6.1679607629776001e-01" nType="-99"/>
        </Node>
        <Node pos="r" depth="1" NCoef="0" IVar="3" Cut="6.4598293304443359e+00" cType="1" res="-4.7651033848524094e-02" rms="2.9389089345932007e-01" purity="1.8897183239459991e-01" nType="0">
          <Node pos="l" depth="2" NCoef="0" IVar="-1" Cut="0.0000000000000000e+00" cType="1" res="-2.0809760317206383e-02" rms="3.7815985083580017e-01" purity="4.1859212517738342e-01" nType="-99"/>
          <Node pos="r" depth="2" NCoef="0" IVar="-1" Cut="0.0000000000000000e+00" cType="1" res="-2.0320130512118340e-02" rms="2.3973268270492554e-01" purity="7.3719821870326996e-02" nType="-99"/>
        </Node>
      </Node>
    </BinaryTree>
    <BinaryTree type="DecisionTree" boostWeight="1.0000000000000000e+00" itree="48">
      <Node pos="s" depth="0" NCoef="0" IVar="6" Cut="4.7691926956176758e+00" cType="1" res="-1.6383322654291987e-03" rms="3.0419528484344482e-01" purity="4.9814882874488831e-01" nType="0">
        <Node pos="l" depth="1" NCoef="0" IVar="3" Cut="3.4524676799774170e+00" cType="1" res="1.9463883712887764e-02" rms="2.9830452799797058e-01" purity="7.0502299070358276e-01" nType="0">
          <Node pos="l" depth="2" NCoef="0" IVar="-1" Cut="0.0000000000000000e+00" cType="1" res="2.9958050698041916e-02" rms="1.7752744257450104e-01" purity="9.4085156917572021e-01" nType="-99"/>
          <Node pos="r" depth="2" NCoef="0" IVar="-1" Cut="0.0000000000000000e+00" cType="1" res="-3.6717434413731098e-03" rms="3.7661665678024292e-01" purity="4.7979065775871277e-01" nType="-99"/>
        </Node>
        <Node pos="r" depth="1" NCoef="0" IVar="4" Cut="5.6274013519287109e+01" cType="1" res="-3.0598431825637817e-02" rms="3.0976724624633789e-01" purity="2.1424046158790588e-01" nType="0">
          <Node pos="l" depth="2" NCoef="0" IVar="-1" Cut="0.0000000000000000e+00" cType="1" res="-2.1230682730674744e-02" rms="2.8713753819465637e-01" purity="1.1456093192100525e-01" nType="-99"/>
          <Node pos="r" depth="2" NCoef="0" IVar="-1" Cut="0.0000000000000000e+00" cType="1" res="9.3589359894394875e-03" rms="3.8196280598640442e-01" purity="6.2239575386047363e-01" nType="-99"/>
        </Node>
      </Node>
    </BinaryTree>
    <BinaryTree type="DecisionTree" boostWeight="1.0000000000000000e+00" itree="49">
      <Node pos="s" depth="0" NCoef="0" IVar="6" Cut="4.7623054504394531e+01" cType="1" res="1.8840519478544593e-03" rms="3.0670079588890076e-01" purity="5.0279295444488525e-01" nType="0">
        <Node pos="l" depth="1" NCoef="0" IVar="6" Cut="2.2746682167053223e+00" cType="1" res="1.0765137150883675e-02" rms="3.1167718768119812e-01" purity="5.5548352003097534e-01" nType="0">
          <Node pos="l" depth="2" NCoef="0" IVar="-1" Cut="0.0000000000000000e+00" cType="1" res="1.6214847564697266e-02" rms="2.7502948045730591e-01" purity="7.8478550910949707e-01" nType="-99"/>
          <Node pos="r" depth="2" NCoef="0" IVar="-1" Cut="0.0000000000000000e+00" cType="1" res="-5.3529082797467709e-03" rms="3.4075012803077698e-01" purity="3.3900812268257141e-01" nType="-99"/>
        </Node>
        <Node pos="r" depth="1" NCoef="0" IVar="3" Cut="1.5351490974426270e+01" cType="1" res="-6.9368898868560791e-02" rms="2.5232207775115967e-01" purity="8.0056592822074890e-02" nType="0">
          <Node pos="l" depth="2" NCoef="0" IVar="-1" Cut="0.0000000000000000e+00" cType="1" res="-4.2415112257003784e-02" rms="3.0279338359832764e-01" purity="1.3449914753437042e-01" nType="-99"/>
          <Node pos="r" depth="2" NCoef="0" IVar="-1" Cut="0.0000000000000000e+00" cType="1" res="-2.6021284982562065e-02" rms="2.1847262978553772e-01" purity="5.2818983793258667e-02" nType="-99"/>
        </Node>
      </Node>
    </BinaryTree>
    <BinaryTree type="DecisionTree" boostWeight="1.0000000000000000e+00" itree="50">
      <Node pos="s" depth="0" NCoef="0" IVar="0" Cut="8.0571426391601562e+01" cType="1" res="2.2522248327732086e-03" rms="3.0889952182769775e-01" purity="5.0334161520004272e-01" nType="0">
        <Node pos="l" depth="1" NCoef="0" IVar="2" Cut="-1.8884296417236328e+00" cType="1" res="6.1211837455630302e-03" rms="3.0831626057624817e-01" purity="5.1286220550537109e-01" nType="0">
          <Node pos="l" depth="2" NCoef="0" IVar="-1" Cut="0.0000000000000000e+00" cType="1" res="-1.9466269295662642e-03" rms="3.1301304697990417e-01" purity="4.5609170198440552e-01" nType="-99"/>
          <Node pos="r" depth="2" NCoef="0" IVar="-1" Cut="0.0000000000000000e+00" cType="1" res="3.4521918743848801e-02" rms="2.6891845464706421e-01" purity="8.5557919740676880e-01" nType="-99"/>
        </Node>
        <Node pos="r" depth="1" NCoef="0" IVar="-1" Cut="0.0000000000000000e+00" cType="1" res="-5.3321145474910736e-02" rms="2.9334619641304016e-01" purity="1.3140366971492767e-01" nType="-99"/>
      </Node>
    </BinaryTree>
    <BinaryTree type="DecisionTree" boostWeight="1.0000000000000000e+00" itree="51">
      <Node pos="s" depth="0" NCoef="0" IVar="0" Cut="8.0571426391601562e+01" cType="1" res="7.1360950823873281e-04" rms="3.0578643083572388e-01" purity="4.9945667386054993e-01" nType="0">
        <Node pos="l" depth="1" NCoef="0" IVar="10" Cut="7.1320013999938965e+00" cType="1" res="4.2577106505632401e-03" rms="3.0569821596145630e-01" purity="5.0888174772262573e-01" nType="0">
          <Node pos="l" depth="2" NCoef="0" IVar="-1" Cut="0.0000000000000000e+00" cType="1" res="5.4013906046748161e-03" rms="3.2572767138481140e-01" purity="6.0503399372100830e-01" nType="-99"/>
          <Node pos="r" depth="2" NCoef="0" IVar="-1" Cut="0.0000000000000000e+00" cType="1" res="-3.5362239927053452e-02" rms="1.6497184336185455e-01" purity="2.8900453820824623e-02" nType="-99"/>
        </Node>
        <Node pos="r" depth="1" NCoef="0" IVar="-1" Cut="0.0000000000000000e+00" cType="1" res="-4.8475112766027451e-02" rms="2.7762359380722046e-01" purity="1.4269842207431793e-01" nType="-99"/>
      </Node>
    </BinaryTree>
    <BinaryTree type="DecisionTree" boostWeight="1.0000000000000000e+00" itree="52">
      <Node pos="s" depth="0" NCoef="0" IVar="5" Cut="9.4647131860256195e-02" cType="1" res="1.2822789140045643e-03" rms="3.0646845698356628e-01" purity="5.0092113018035889e-01" nType="0">
        <Node pos="l" depth="1" NCoef="0" IVar="5" Cut="9.0103838592767715e-03" cType="1" res="5.6287678889930248e-03" rms="3.0610135197639465e-01" purity="5.1865071058273315e-01" nType="0">
          <Node pos="l" depth="2" NCoef="0" IVar="-1" Cut="0.0000000000000000e+00" cType="1" res="5.3799203597009182e-03" rms="3.0181211233139038e-01" purity="5.4784101247787476e-01" nType="-99"/>
          <Node pos="r" depth="2" NCoef="0" IVar="-1" Cut="0.0000000000000000e+00" cType="1" res="-3.1791258603334427e-02" rms="3.4093421697616577e-01" purity="1.7072772979736328e-01" nType="-99"/>
        </Node>
        <Node pos="r" depth="1" NCoef="0" IVar="-1" Cut="0.0000000000000000e+00" cType="1" res="-4.3266572058200836e-02" rms="2.9729086160659790e-01" purity="8.5620924830436707e-02" nType="-99"/>
      </Node>
    </BinaryTree>
    <BinaryTree type="DecisionTree" boostWeight="1.0000000000000000e+00" itree="53">
      <Node pos="s" depth="0" NCoef="0" IVar="5" Cut="9.3217186629772186e-02" cType="1" res="1.0237168753519654e-03" rms="3.0779176950454712e-01" purity="5.0217640399932861e-01" nType="0">
        <Node pos="l" depth="1" NCoef="0" IVar="5" Cut="4.4370046816766262e-03" cType="1" res="4.9696722999215126e-03" rms="3.0752500891685486e-01" purity="5.1993620395660400e-01" nType="0">
          <Node pos="l" depth="2" NCoef="0" IVar="-1" Cut="0.0000000000000000e+00" cType="1" res="5.7733505964279175e-03" rms="3.0037295818328857e-01" purity="5.5480414628982544e-01" nType="-99"/>
          <Node pos="r" depth="2" NCoef="0" IVar="-1" Cut="0.0000000000000000e+00" cType="1" res="-2.3148253560066223e-02" rms="3.4945359826087952e-01" purity="2.5845324993133545e-01" nType="-99"/>
        </Node>
        <Node pos="r" depth="1" NCoef="0" IVar="-1" Cut="0.0000000000000000e+00" cType="1" res="-3.9289280772209167e-02" rms="2.9961162805557251e-01" purity="8.9071117341518402e-02" nType="-99"/>
      </Node>
    </BinaryTree>
    <BinaryTree type="DecisionTree" boostWeight="1.0000000000000000e+00" itree="54">
      <Node pos="s" depth="0" NCoef="0" IVar="3" Cut="3.2380015850067139e+00" cType="1" res="6.4845575252547860e-05" rms="3.0495864152908325e-01" purity="5.0099915266036987e-01" nType="0">
        <Node pos="l" depth="1" NCoef="0" IVar="6" Cut="2.3814888000488281e+01" cType="1" res="2.8257852420210838e-02" rms="2.2485819458961487e-01" purity="8.5088896751403809e-01" nType="0">
          <Node pos="l" depth="2" NCoef="0" IVar="-1" Cut="0.0000000000000000e+00" cType="1" res="2.1641980856657028e-02" rms="2.0107118785381317e-01" purity="8.9605540037155151e-01" nType="-99"/>
          <Node pos="r" depth="2" NCoef="0" IVar="-1" Cut="0.0000000000000000e+00" cType="1" res="-2.3093212395906448e-02" rms="3.8938111066818237e-01" purity="3.3479121327400208e-01" nType="-99"/>
        </Node>
        <Node pos="r" depth="1" NCoef="0" IVar="0" Cut="1.7428571701049805e+01" cType="1" res="-1.3517142273485661e-02" rms="3.3597198128700256e-01" purity="3.3243963122367859e-01" nType="0">
          <Node pos="l" depth="2" NCoef="0" IVar="-1" Cut="0.0000000000000000e+00" cType="1" res="-1.9441397162154317e-03" rms="3.3284705877304077e-01" purity="3.3710300922393799e-01" nType="-99"/>
          <Node pos="r" depth="2" NCoef="0" IVar="-1" Cut="0.0000000000000000e+00" cType="1" res="-3.8516841828823090e-02" rms="3.5612049698829651e-01" purity="2.7737939357757568e-01" nType="-99"/>
        </Node>
      </Node>
    </BinaryTree>
    <BinaryTree type="DecisionTree" boostWeight="1.0000000000000000e+00" itree="55">
      <Node pos="s" depth="0" NCoef="0" IVar="9" Cut="4.7581577301025391e+00" cType="1" res="6.3574075466021895e-04" rms="3.0413174629211426e-01" purity="4.9954861402511597e-01" nType="0">
        <Node pos="l" depth="1" NCoef="0" IVar="9" Cut="1.5859657526016235e+00" cType="1" res="1.0918636806309223e-02" rms="3.0595186352729797e-01" purity="5.7614892721176147e-01" nType="0">
          <Node pos="l" depth="2" NCoef="0" IVar="-1" Cut="0.0000000000000000e+00" cType="1" res="-1.5512589365243912e-02" rms="3.3578062057495117e-01" purity="3.1266057491302490e-01" nType="-99"/>
          <Node pos="r" depth="2" NCoef="0" IVar="-1" Cut="0.0000000000000000e+00" cType="1" res="9.8931090906262398e-03" rms="2.9671978950500488e-01" purity="6.4105296134948730e-01" nType="-99"/>
        </Node>
        <Node pos="r" depth="1" NCoef="0" IVar="3" Cut="6.6757454872131348e+00" cType="1" res="-4.1908815503120422e-02" rms="2.9266762733459473e-01" purity="1.8262155354022980e-01" nType="0">
          <Node pos="l" depth="2" NCoef="0" IVar="-1" Cut="0.0000000000000000e+00" cType="1" res="-2.0131777971982956e-02" rms="3.8478925824165344e-01" purity="4.0235021710395813e-01" nType="-99"/>
          <Node pos="r" depth="2" NCoef="0" IVar="-1" Cut="0.0000000000000000e+00" cType="1" res="-1.8206555396318436e-02" rms="2.2959145903587341e-01" purity="6.8522259593009949e-02" nType="-99"/>
        </Node>
      </Node>
    </BinaryTree>
    <BinaryTree type="DecisionTree" boostWeight="1.0000000000000000e+00" itree="56">
      <Node pos="s" depth="0" NCoef="0" IVar="9" Cut="7.1404523849487305e+00" cType="1" res="5.7666451903060079e-04" rms="3.0474743247032166e-01" purity="4.9962583184242249e-01" nType="0">
        <Node pos="l" depth="1" NCoef="0" IVar="6" Cut="4.7622734069824219e+01" cType="1" res="8.4194662049412727e-03" rms="3.0938047170639038e-01" purity="5.4974913597106934e-01" nType="0">
          <Node pos="l" depth="2" NCoef="0" IVar="-1" Cut="0.0000000000000000e+00" cType="1" res="6.2851053662598133e-03" rms="3.1059563159942627e-01" purity="5.9662264585494995e-01" nType="-99"/>
          <Node pos="r" depth="2" NCoef="0" IVar="-1" Cut="0.0000000000000000e+00" cType="1" res="-2.5825599208474159e-02" rms="2.8908735513687134e-01" purity="1.0537429153919220e-01" nType="-99"/>
        </Node>
        <Node pos="r" depth="1" NCoef="0" IVar="3" Cut="6.4598293304443359e+00" cType="1" res="-6.0787178575992584e-02" rms="2.5760850310325623e-01" purity="1.0745006054639816e-01" nType="0">
          <Node pos="l" depth="2" NCoef="0" IVar="-1" Cut="0.0000000000000000e+00" cType="1" res="-3.8870461285114288e-02" rms="3.5448414087295532e-01" purity="2.6088753342628479e-01" nType="-99"/>
          <Node pos="r" depth="2" NCoef="0" IVar="-1" Cut="0.0000000000000000e+00" cType="1" res="-2.5225991383194923e-02" rms="2.0561167597770691e-01" purity="5.1145490258932114e-02" nType="-99"/>
        </Node>
      </Node>
    </BinaryTree>
    <BinaryTree type="DecisionTree" boostWeight="1.0000000000000000e+00" itree="57">
      <Node pos="s" depth="0" NCoef="0" IVar="10" Cut="2.3587169647216797e+00" cType="1" res="1.6536121256649494e-03" rms="3.0745443701744080e-01" purity="4.9622729420661926e-01" nType="0">
        <Node pos="l" depth="1" NCoef="0" IVar="10" Cut="1.5724225044250488e+00" cType="1" res="2.6194585487246513e-02" rms="3.3881315588951111e-01" purity="5.6134855747222900e-01" nType="0">
          <Node pos="l" depth="2" NCoef="0" IVar="-1" Cut="0.0000000000000000e+00" cType="1" res="-1.5326469205319881e-02" rms="3.2719990611076355e-01" purity="2.8935545682907104e-01" nType="-99"/>
          <Node pos="r" depth="2" NCoef="0" IVar="-1" Cut="0.0000000000000000e+00" cType="1" res="2.2920602932572365e-02" rms="3.3927100896835327e-01" purity="7.1759623289108276e-01" nType="-99"/>
        </Node>
        <Node pos="r" depth="1" NCoef="0" IVar="3" Cut="4.0690250396728516e+00" cType="1" res="-1.2728800065815449e-02" rms="2.8651583194732666e-01" purity="4.5806249976158142e-01" nType="0">
          <Node pos="l" depth="2" NCoef="0" IVar="-1" Cut="0.0000000000000000e+00" cType="1" res="1.4093250967562199e-02" rms="2.2620670497417450e-01" purity="8.3860456943511963e-01" nType="-99"/>
          <Node pos="r" depth="2" NCoef="0" IVar="-1" Cut="0.0000000000000000e+00" cType="1" res="-1.6683397814631462e-02" rms="3.1761005520820618e-01" purity="2.0578166842460632e-01" nType="-99"/>
        </Node>
      </Node>
    </BinaryTree>
    <BinaryTree type="DecisionTree" boostWeight="1.0000000000000000e+00" itree="58">
      <Node pos="s" depth="0" NCoef="0" IVar="0" Cut="8.0571426391601562e+01" cType="1" res="2.1364117856137455e-04" rms="3.0341449379920959e-01" purity="5.0070422887802124e-01" nType="0">
        <Node pos="l" depth="1" NCoef="0" IVar="2" Cut="-1.8938506841659546e+00" cType="1" res="3.2710055820643902e-03" rms="3.0349445343017578e-01" purity="5.1037442684173584e-01" nType="0">
          <Node pos="l" depth="2" NCoef="0" IVar="-1" Cut="0.0000000000000000e+00" cType="1" res="-2.5544499512761831e-03" rms="3.0899858474731445e-01" purity="4.5251169800758362e-01" nType="-99"/>
          <Node pos="r" depth="2" NCoef="0" IVar="-1" Cut="0.0000000000000000e+00" cType="1" res="3.0726186931133270e-02" rms="2.6122084259986877e-01" purity="8.5642963647842407e-01" nType="-99"/>
        </Node>
        <Node pos="r" depth="1" NCoef="0" IVar="-1" Cut="0.0000000000000000e+00" cType="1" res="-4.6078890562057495e-02" rms="2.7509522438049316e-01" purity="1.2469132989645004e-01" nType="-99"/>
      </Node>
    </BinaryTree>
    <BinaryTree type="DecisionTree" boostWeight="1.0000000000000000e+00" itree="59">
      <Node pos="s" depth="0" NCoef="0" IVar="10" Cut="9.5104370117187500e+00" cType="1" res="1.3939675409346819e-03" rms="3.0229648947715759e-01" purity="5.0181013345718384e-01" nType="0">
        <Node pos="l" depth="1" NCoef="0" IVar="10" Cut="3.1700832843780518e+00" cType="1" res="8.1647075712680817e-03" rms="3.1894353032112122e-01" purity="5.6807309389114380e-01" nType="0">
          <Node pos="l" depth="2" NCoef="0" IVar="-1" Cut="0.0000000000000000e+00" cType="1" res="9.4717750325798988e-03" rms="3.1242600083351135e-01" purity="6.4992535114288330e-01" nType="-99"/>
          <Node pos="r" depth="2" NCoef="0" IVar="-1" Cut="0.0000000000000000e+00" cType="1" res="-1.1590187437832355e-02" rms="3.3101180195808411e-01" purity="3.7274911999702454e-01" nType="-99"/>
        </Node>
        <Node pos="r" depth="1" NCoef="0" IVar="3" Cut="8.1224279403686523e+00" cType="1" res="-4.8862755298614502e-02" rms="1.0841471701860428e-01" purity="9.9640348926186562e-03" nType="0">
          <Node pos="l" depth="2" NCoef="0" IVar="-1" Cut="0.0000000000000000e+00" cType="1" res="-5.0834875553846359e-02" rms="1.3365411758422852e-01" purity="1.4474241062998772e-02" nType="-99"/>
          <Node pos="r" depth="2" NCoef="0" IVar="-1" Cut="0.0000000000000000e+00" cType="1" res="-4.1792478412389755e-02" rms="9.1082006692886353e-02" purity="8.1959646195173264e-03" nType="-99"/>
        </Node>
      </Node>
    </BinaryTree>
    <BinaryTree type="DecisionTree" boostWeight="1.0000000000000000e+00" itree="60">
      <Node pos="s" depth="0" NCoef="0" IVar="6" Cut="4.2863544464111328e+01" cType="1" res="4.3829972855746746e-04" rms="3.0351334810256958e-01" purity="5.0081944465637207e-01" nType="0">
        <Node pos="l" depth="1" NCoef="0" IVar="6" Cut="2.0516216754913330e+00" cType="1" res="6.6436831839382648e-03" rms="3.0823576450347900e-01" purity="5.5761677026748657e-01" nType="0">
          <Node pos="l" depth="2" NCoef="0" IVar="-1" Cut="0.0000000000000000e+00" cType="1" res="1.4954712241888046e-02" rms="2.7084535360336304e-01" purity="7.9227870702743530e-01" nType="-99"/>
          <Node pos="r" depth="2" NCoef="0" IVar="-1" Cut="0.0000000000000000e+00" cType="1" res="-5.6335804983973503e-03" rms="3.3588287234306335e-01" purity="3.5377383232116699e-01" nType="-99"/>
        </Node>
        <Node pos="r" depth="1" NCoef="0" IVar="4" Cut="1.2630630493164062e+01" cType="1" res="-4.4293366372585297e-02" rms="2.6271063089370728e-01" purity="9.1394759714603424e-02" nType="0">
          <Node pos="l" depth="2" NCoef="0" IVar="-1" Cut="0.0000000000000000e+00" cType="1" res="-3.3072046935558319e-02" rms="2.4443222582340240e-01" purity="5.9399504214525223e-02" nType="-99"/>
          <Node pos="r" depth="2" NCoef="0" IVar="-1" Cut="0.0000000000000000e+00" cType="1" res="5.0049349665641785e-03" rms="3.1420338153839111e-01" purity="2.0770487189292908e-01" nType="-99"/>
        </Node>
      </Node>
    </BinaryTree>
    <BinaryTree type="DecisionTree" boostWeight="1.0000000000000000e+00" itree="61">
      <Node pos="s" depth="0" NCoef="0" IVar="5" Cut="4.6857260167598724e-02" cType="1" res="-2.3450462613254786e-03" rms="3.0311670899391174e-01" purity="4.9686911702156067e-01" nType="0">
        <Node pos="l" depth="1" NCoef="0" IVar="5" Cut="6.6929319873452187e-03" cType="1" res="1.9684561993926764e-03" rms="3.0320346355438232e-01" purity="5.2342903614044189e-01" nType="0">
          <Node pos="l" depth="2" NCoef="0" IVar="-1" Cut="0.0000000000000000e+00" cType="1" res="4.2740316130220890e-03" rms="2.9906728863716125e-01" purity="5.4788446426391602e-01" nType="-99"/>
          <Node pos="r" depth="2" NCoef="0" IVar="-1" Cut="0.0000000000000000e+00" cType="1" res="-3.7529624998569489e-02" rms="3.3662107586860657e-01" purity="2.0087032020092010e-01" nType="-99"/>
        </Node>
        <Node pos="r" depth="1" NCoef="0" IVar="3" Cut="1.0772845268249512e+01" cType="1" res="-6.7918524146080017e-02" rms="2.9410412907600403e-01" purity="9.3106850981712341e-02" nType="0">
          <Node pos="l" depth="2" NCoef="0" IVar="-1" Cut="0.0000000000000000e+00" cType="1" res="-3.8294799625873566e-02" rms="3.6612483859062195e-01" purity="1.4983956515789032e-01" nType="-99"/>
          <Node pos="r" depth="2" NCoef="0" IVar="-1" Cut="0.0000000000000000e+00" cType="1" res="-1.6301807016134262e-02" rms="1.9295935332775116e-01" purity="4.0593679994344711e-02" nType="-99"/>
        </Node>
      </Node>
    </BinaryTree>
    <BinaryTree type="DecisionTree" boostWeight="1.0000000000000000e+00" itree="62">
      <Node pos="s" depth="0" NCoef="0" IVar="3" Cut="3.2380015850067139e+00" cType="1" res="6.3816522015258670e-04" rms="3.0356422066688538e-01" purity="4.9897375702857971e-01" nType="0">
        <Node pos="l" depth="1" NCoef="0" IVar="6" Cut="4.7686095237731934e+00" cType="1" res="2.3740585893392563e-02" rms="2.2294159233570099e-01" purity="8.5037004947662354e-01" nType="0">
          <Node pos="l" depth="2" NCoef="0" IVar="-1" Cut="0.0000000000000000e+00" cType="1" res="2.5551067665219307e-02" rms="1.7043177783489227e-01" purity="9.4350957870483398e-01" nType="-99"/>
          <Node pos="r" depth="2" NCoef="0" IVar="-1" Cut="0.0000000000000000e+00" cType="1" res="-7.8811347484588623e-03" rms="3.6631667613983154e-01" purity="4.5436966419219971e-01" nType="-99"/>
        </Node>
        <Node pos="r" depth="1" NCoef="0" IVar="9" Cut="2.3702788352966309e+00" cType="1" res="-1.0215230286121368e-02" rms="3.3425241708755493e-01" purity="3.3388963341712952e-01" nType="0">
          <Node pos="l" depth="2" NCoef="0" IVar="-1" Cut="0.0000000000000000e+00" cType="1" res="4.5685316435992718e-03" rms="3.5204657912254333e-01" purity="4.2124038934707642e-01" nType="-99"/>
          <Node pos="r" depth="2" NCoef="0" IVar="-1" Cut="0.0000000000000000e+00" cType="1" res="-1.1926173232495785e-02" rms="3.1851196289062500e-01" purity="2.6559883356094360e-01" nType="-99"/>
        </Node>
      </Node>
    </BinaryTree>
    <BinaryTree type="DecisionTree" boostWeight="1.0000000000000000e+00" itree="63">
      <Node pos="s" depth="0" NCoef="0" IVar="10" Cut="7.1328277587890625e+00" cType="1" res="2.7895378298126161e-04" rms="3.0135622620582581e-01" purity="5.0017338991165161e-01" nType="0">
        <Node pos="l" depth="1" NCoef="0" IVar="10" Cut="6.7924255132675171e-01" cType="1" res="7.4203945696353912e-03" rms="3.2143348455429077e-01" purity="5.9298330545425415e-01" nType="0">
          <Node pos="l" depth="2" NCoef="0" IVar="-1" Cut="0.0000000000000000e+00" cType="1" res="-3.0070725828409195e-02" rms="2.6882639527320862e-01" purity="1.3822829723358154e-01" nType="-99"/>
          <Node pos="r" depth="2" NCoef="0" IVar="-1" Cut="0.0000000000000000e+00" cType="1" res="5.0638238899409771e-03" rms="3.2420223951339722e-01" purity="6.2563610076904297e-01" nType="-99"/>
        </Node>
        <Node pos="r" depth="1" NCoef="0" IVar="3" Cut="7.9262547492980957e+00" cType="1" res="-3.6125011742115021e-02" rms="1.5965846180915833e-01" purity="2.7068605646491051e-02" nType="0">
          <Node pos="l" depth="2" NCoef="0" IVar="-1" Cut="0.0000000000000000e+00" cType="1" res="-4.0230233222246170e-02" rms="1.8993653357028961e-01" purity="4.0304034948348999e-02" nType="-99"/>
          <Node pos="r" depth="2" NCoef="0" IVar="-1" Cut="0.0000000000000000e+00" cType="1" res="-2.4511206895112991e-02" rms="1.4150682091712952e-01" purity="2.1534284576773643e-02" nType="-99"/>
        </Node>
      </Node>
    </BinaryTree>
    <BinaryTree type="DecisionTree" boostWeight="1.0000000000000000e+00" itree="64">
      <Node pos="s" depth="0" NCoef="0" IVar="10" Cut="2.3603432178497314e+00" cType="1" res="1.7279010498896241e-03" rms="3.0566260218620300e-01" purity="4.9777188897132874e-01" nType="0">
        <Node pos="l" depth="1" NCoef="0" IVar="10" Cut="1.4611481428146362e+00" cType="1" res="2.5320265442132950e-02" rms="3.4183904528617859e-01" purity="5.6041812896728516e-01" nType="0">
          <Node pos="l" depth="2" NCoef="0" IVar="-1" Cut="0.0000000000000000e+00" cType="1" res="-1.4182376675307751e-02" rms="3.2802486419677734e-01" purity="2.6805704832077026e-01" nType="-99"/>
          <Node pos="r" depth="2" NCoef="0" IVar="-1" Cut="0.0000000000000000e+00" cType="1" res="2.0232019945979118e-02" rms="3.4441688656806946e-01" purity="7.0376265048980713e-01" nType="-99"/>
        </Node>
