<?xml version="1.0"?>
<MethodSetup Method="BDT::BDTG">
  <GeneralInfo>
    <Info name="TMVA Release" value="4.2.1 [262657]"/>
    <Info name="ROOT Release" value="6.22/06 [398854]"/>
    <Info name="Creator" value="imawby"/>
    <Info name="Date" value="Thu Jul  8 11:51:29 2021"/>
    <Info name="Host" value="Linux buildservice004.fnal.gov 3.10.0-1160.11.1.el7.x86_64 #1 SMP Tue Dec 15 08:51:23 CST 2020 x86_64 x86_64 x86_64 GNU/Linux"/>
    <Info name="Dir" value="/dune/app/users/imawby/selection/trainings/pandizzle"/>
    <Info name="Training events" value="209228"/>
    <Info name="TrainingTime" value="1.66918222e+02"/>
    <Info name="AnalysisType" value="Classification"/>
  </GeneralInfo>
  <Options>
    <Option name="V" modified="Yes">False</Option>
    <Option name="VerbosityLevel" modified="No">Default</Option>
    <Option name="VarTransform" modified="No">None</Option>
    <Option name="H" modified="Yes">False</Option>
    <Option name="CreateMVAPdfs" modified="No">False</Option>
    <Option name="IgnoreNegWeightsInTraining" modified="No">False</Option>
    <Option name="NTrees" modified="Yes">1000</Option>
    <Option name="MaxDepth" modified="Yes">2</Option>
    <Option name="MinNodeSize" modified="Yes">2.5%</Option>
    <Option name="nCuts" modified="Yes">20</Option>
    <Option name="BoostType" modified="Yes">Grad</Option>
    <Option name="AdaBoostR2Loss" modified="No">quadratic</Option>
    <Option name="UseBaggedBoost" modified="Yes">True</Option>
    <Option name="Shrinkage" modified="Yes">1.000000e-01</Option>
    <Option name="AdaBoostBeta" modified="No">5.000000e-01</Option>
    <Option name="UseRandomisedTrees" modified="No">False</Option>
    <Option name="UseNvars" modified="No">4</Option>
    <Option name="UsePoissonNvars" modified="No">True</Option>
    <Option name="BaggedSampleFraction" modified="Yes">5.000000e-01</Option>
    <Option name="UseYesNoLeaf" modified="No">True</Option>
    <Option name="NegWeightTreatment" modified="No">pray</Option>
    <Option name="Css" modified="No">1.000000e+00</Option>
    <Option name="Cts_sb" modified="No">1.000000e+00</Option>
    <Option name="Ctb_ss" modified="No">1.000000e+00</Option>
    <Option name="Cbb" modified="No">1.000000e+00</Option>
    <Option name="NodePurityLimit" modified="No">5.000000e-01</Option>
    <Option name="SeparationType" modified="No">giniindex</Option>
    <Option name="RegressionLossFunctionBDTG" modified="No">huber</Option>
    <Option name="HuberQuantile" modified="No">7.000000e-01</Option>
    <Option name="DoBoostMonitor" modified="No">False</Option>
    <Option name="UseFisherCuts" modified="No">False</Option>
    <Option name="MinLinCorrForFisher" modified="No">8.000000e-01</Option>
    <Option name="UseExclusiveVars" modified="No">False</Option>
    <Option name="DoPreselection" modified="No">False</Option>
    <Option name="SigToBkgFraction" modified="No">1.000000e+00</Option>
    <Option name="PruneMethod" modified="No">nopruning</Option>
    <Option name="PruneStrength" modified="No">0.000000e+00</Option>
    <Option name="PruningValFraction" modified="No">5.000000e-01</Option>
    <Option name="SkipNormalization" modified="No">False</Option>
    <Option name="nEventsMin" modified="No">0</Option>
    <Option name="UseBaggedGrad" modified="No">False</Option>
    <Option name="GradBaggingFraction" modified="No">5.000000e-01</Option>
    <Option name="UseNTrainEvents" modified="No">0</Option>
    <Option name="NNodesMax" modified="No">0</Option>
  </Options>
  <Variables NVar="12">
    <Variable VarIndex="0" Expression="PFPMichelNHits" Label="PFPMichelNHits" Title="NHits in Michel candidate" Unit="" Internal="PFPMichelNHits" Type="F" Min="-2.00000000e+00" Max="1.00000000e+02"/>
    <Variable VarIndex="1" Expression="PFPMichelElectronMVA" Label="PFPMichelElectronMVA" Title="Electron-like MVA for Michel candidate" Unit="" Internal="PFPMichelElectronMVA" Type="F" Min="-2.00000000e+00" Max="1.37629479e-01"/>
    <Variable VarIndex="2" Expression="PFPMichelRecoEnergyPlane2" Label="PFPMichelRecoEnergyPlane2" Title="Reco energy (col. plane) for Michel candidate" Unit="" Internal="PFPMichelRecoEnergyPlane2" Type="F" Min="-2.00000000e+00" Max="2.48733120e+01"/>
    <Variable VarIndex="3" Expression="PFPTrackDeflecAngleSD" Label="PFPTrackDeflecAngleSD" Title="Track candidate scattering SD" Unit="" Internal="PFPTrackDeflecAngleSD" Type="F" Min="-2.00000000e+00" Max="8.94042816e+01"/>
    <Variable VarIndex="4" Expression="PFPTrackLength" Label="PFPTrackLength" Title="Candidate track length" Unit="" Internal="PFPTrackLength" Type="F" Min="4.36249897e-02" Max="3.48168531e+05"/>
    <Variable VarIndex="5" Expression="PFPTrackEvalRatio" Label="PFPTrackEvalRatio" Title="EvalRatio" Unit="" Internal="PFPTrackEvalRatio" Type="F" Min="0.00000000e+00" Max="9.91043866e-01"/>
    <Variable VarIndex="6" Expression="PFPTrackConcentration" Label="PFPTrackConcentration" Title="Concentration" Unit="" Internal="PFPTrackConcentration" Type="F" Min="4.75704437e-03" Max="1.00000000e+02"/>
    <Variable VarIndex="7" Expression="PFPTrackCoreHaloRatio" Label="PFPTrackCoreHaloRatio" Title="Core halo ratio" Unit="" Internal="PFPTrackCoreHaloRatio" Type="F" Min="0.00000000e+00" Max="1.00000000e+02"/>
    <Variable VarIndex="8" Expression="PFPTrackConicalness" Label="PFPTrackConicalness" Title="Conicalness" Unit="" Internal="PFPTrackConicalness" Type="F" Min="2.54810392e-03" Max="4.28540344e+02"/>
    <Variable VarIndex="9" Expression="PFPTrackdEdxStart" Label="PFPTrackdEdxStart" Title="dEdx (start)" Unit="" Internal="PFPTrackdEdxStart" Type="F" Min="0.00000000e+00" Max="4.99438400e+01"/>
    <Variable VarIndex="10" Expression="PFPTrackdEdxEnd" Label="PFPTrackdEdxEnd" Title="dEdx (end)" Unit="" Internal="PFPTrackdEdxEnd" Type="F" Min="0.00000000e+00" Max="4.99656334e+01"/>
    <Variable VarIndex="11" Expression="PFPTrackdEdxEndRatio" Label="PFPTrackdEdxEndRatio" Title="dEdx (end/start ratio)" Unit="" Internal="PFPTrackdEdxEndRatio" Type="F" Min="0.00000000e+00" Max="1.78729248e+02"/>
  </Variables>
  <Spectators NSpec="0"/>
  <Classes NClass="2">
    <Class Name="Signal" Index="0"/>
    <Class Name="Background" Index="1"/>
  </Classes>
  <Transformations NTransformations="0"/>
  <MVAPdfs/>
  <Weights NTrees="1000" AnalysisType="1">
    <BinaryTree type="DecisionTree" boostWeight="1.0000000000000000e+00" itree="0">
      <Node pos="s" depth="0" NCoef="0" IVar="3" Cut="6.5786800384521484e+00" cType="1" res="-2.6506438734941185e-04" rms="4.9999994039535522e-01" purity="4.9973493814468384e-01" nType="0">
        <Node pos="l" depth="1" NCoef="0" IVar="10" Cut="4.7586317062377930e+00" cType="1" res="2.3256735503673553e-01" rms="4.4261994957923889e-01" purity="7.3256736993789673e-01" nType="0">
          <Node pos="l" depth="2" NCoef="0" IVar="-1" Cut="0.0000000000000000e+00" cType="1" res="6.1202257871627808e-02" rms="3.9542013406753540e-01" purity="8.0601125955581665e-01" nType="-99"/>
          <Node pos="r" depth="2" NCoef="0" IVar="-1" Cut="0.0000000000000000e+00" cType="1" res="-7.1746714413166046e-02" rms="3.4829616546630859e-01" purity="1.4126642048358917e-01" nType="-99"/>
        </Node>
        <Node pos="r" depth="1" NCoef="0" IVar="10" Cut="7.0240602493286133e+00" cType="1" res="-2.3539915680885315e-01" rms="4.4112044572830200e-01" purity="2.6460084319114685e-01" nType="0">
          <Node pos="l" depth="2" NCoef="0" IVar="-1" Cut="0.0000000000000000e+00" cType="1" res="-3.2900504767894745e-02" rms="4.7216409444808960e-01" purity="3.3549746870994568e-01" nType="-99"/>
          <Node pos="r" depth="2" NCoef="0" IVar="-1" Cut="0.0000000000000000e+00" cType="1" res="-9.1661311686038971e-02" rms="1.9988767802715302e-01" purity="4.1693430393934250e-02" nType="-99"/>
        </Node>
      </Node>
    </BinaryTree>
    <BinaryTree type="DecisionTree" boostWeight="1.0000000000000000e+00" itree="1">
      <Node pos="s" depth="0" NCoef="0" IVar="3" Cut="6.4209208488464355e+00" cType="1" res="3.0641562771052122e-03" rms="4.8397913575172424e-01" purity="5.0278538465499878e-01" nType="0">
        <Node pos="l" depth="1" NCoef="0" IVar="10" Cut="4.6699500083923340e+00" cType="1" res="2.1500426530838013e-01" rms="4.3038862943649292e-01" purity="7.3815476894378662e-01" nType="0">
          <Node pos="l" depth="2" NCoef="0" IVar="-1" Cut="0.0000000000000000e+00" cType="1" res="5.6385569274425507e-02" rms="3.9116075634956360e-01" purity="8.1143742799758911e-01" nType="-99"/>
          <Node pos="r" depth="2" NCoef="0" IVar="-1" Cut="0.0000000000000000e+00" cType="1" res="-5.9518855065107346e-02" rms="3.7472262978553772e-01" purity="1.6956093907356262e-01" nType="-99"/>
        </Node>
        <Node pos="r" depth="1" NCoef="0" IVar="10" Cut="4.7425818443298340e+00" cType="1" res="-2.0145216584205627e-01" rms="4.4311249256134033e-01" purity="2.7566045522689819e-01" nType="0">
          <Node pos="l" depth="2" NCoef="0" IVar="-1" Cut="0.0000000000000000e+00" cType="1" res="-2.3394413292407990e-02" rms="4.8193365335464478e-01" purity="3.6749777197837830e-01" nType="-99"/>
          <Node pos="r" depth="2" NCoef="0" IVar="-1" Cut="0.0000000000000000e+00" cType="1" res="-7.4079513549804688e-02" rms="2.8939631581306458e-01" purity="9.4785310328006744e-02" nType="-99"/>
        </Node>
      </Node>
    </BinaryTree>
    <BinaryTree type="DecisionTree" boostWeight="1.0000000000000000e+00" itree="2">
      <Node pos="s" depth="0" NCoef="0" IVar="3" Cut="6.7051696777343750e+00" cType="1" res="3.0103260651230812e-03" rms="4.7051727771759033e-01" purity="5.0336611270904541e-01" nType="0">
        <Node pos="l" depth="1" NCoef="0" IVar="10" Cut="4.7586317062377930e+00" cType="1" res="1.8702062964439392e-01" rms="4.2639681696891785e-01" purity="7.2990447282791138e-01" nType="0">
          <Node pos="l" depth="2" NCoef="0" IVar="-1" Cut="0.0000000000000000e+00" cType="1" res="4.9997083842754364e-02" rms="3.9613273739814758e-01" purity="8.0353850126266479e-01" nType="-99"/>
          <Node pos="r" depth="2" NCoef="0" IVar="-1" Cut="0.0000000000000000e+00" cType="1" res="-5.5922050029039383e-02" rms="3.6584436893463135e-01" purity="1.5955366194248199e-01" nType="-99"/>
        </Node>
        <Node pos="r" depth="1" NCoef="0" IVar="10" Cut="4.7278099060058594e+00" cType="1" res="-1.8713015317916870e-01" rms="4.3719092011451721e-01" purity="2.6928076148033142e-01" nType="0">
          <Node pos="l" depth="2" NCoef="0" IVar="-1" Cut="0.0000000000000000e+00" cType="1" res="-2.2368563339114189e-02" rms="4.8011448979377747e-01" purity="3.6039310693740845e-01" nType="-99"/>
          <Node pos="r" depth="2" NCoef="0" IVar="-1" Cut="0.0000000000000000e+00" cType="1" res="-6.8452142179012299e-02" rms="2.8546515107154846e-01" purity="9.1675356030464172e-02" nType="-99"/>
        </Node>
      </Node>
    </BinaryTree>
    <BinaryTree type="DecisionTree" boostWeight="1.0000000000000000e+00" itree="3">
      <Node pos="s" depth="0" NCoef="0" IVar="3" Cut="6.7051696777343750e+00" cType="1" res="-1.1286543449386954e-03" rms="4.5947101712226868e-01" purity="4.9938610196113586e-01" nType="0">
        <Node pos="l" depth="1" NCoef="0" IVar="10" Cut="4.7393841743469238e+00" cType="1" res="1.6659349203109741e-01" rms="4.2147657275199890e-01" purity="7.2776079177856445e-01" nType="0">
          <Node pos="l" depth="2" NCoef="0" IVar="-1" Cut="0.0000000000000000e+00" cType="1" res="4.5308381319046021e-02" rms="3.9736270904541016e-01" purity="8.0201715230941772e-01" nType="-99"/>
          <Node pos="r" depth="2" NCoef="0" IVar="-1" Cut="0.0000000000000000e+00" cType="1" res="-4.9478769302368164e-02" rms="3.7437775731086731e-01" purity="1.6846050322055817e-01" nType="-99"/>
        </Node>
        <Node pos="r" depth="1" NCoef="0" IVar="10" Cut="7.1138725280761719e+00" cType="1" res="-1.7477472126483917e-01" rms="4.3184447288513184e-01" purity="2.6294517517089844e-01" nType="0">
          <Node pos="l" depth="2" NCoef="0" IVar="-1" Cut="0.0000000000000000e+00" cType="1" res="-2.4921471253037453e-02" rms="4.6909528970718384e-01" purity="3.3088496327400208e-01" nType="-99"/>
          <Node pos="r" depth="2" NCoef="0" IVar="-1" Cut="0.0000000000000000e+00" cType="1" res="-7.1350499987602234e-02" rms="2.1189248561859131e-01" purity="4.7118581831455231e-02" nType="-99"/>
        </Node>
      </Node>
    </BinaryTree>
    <BinaryTree type="DecisionTree" boostWeight="1.0000000000000000e+00" itree="4">
      <Node pos="s" depth="0" NCoef="0" IVar="3" Cut="6.6501641273498535e+00" cType="1" res="-8.8158150902017951e-04" rms="4.5069769024848938e-01" purity="4.9902123212814331e-01" nType="0">
        <Node pos="l" depth="1" NCoef="0" IVar="10" Cut="4.7586317062377930e+00" cType="1" res="1.4961667358875275e-01" rms="4.1696387529373169e-01" purity="7.2739136219024658e-01" nType="0">
          <Node pos="l" depth="2" NCoef="0" IVar="-1" Cut="0.0000000000000000e+00" cType="1" res="4.1361343115568161e-02" rms="3.9793822169303894e-01" purity="8.0150222778320312e-01" nType="-99"/>
          <Node pos="r" depth="2" NCoef="0" IVar="-1" Cut="0.0000000000000000e+00" cType="1" res="-4.4969271868467331e-02" rms="3.7627753615379333e-01" purity="1.7086133360862732e-01" nType="-99"/>
        </Node>
        <Node pos="r" depth="1" NCoef="0" IVar="10" Cut="7.1138725280761719e+00" cType="1" res="-1.5379694104194641e-01" rms="4.3182337284088135e-01" purity="2.6698336005210876e-01" nType="0">
          <Node pos="l" depth="2" NCoef="0" IVar="-1" Cut="0.0000000000000000e+00" cType="1" res="-2.1364768967032433e-02" rms="4.7116193175315857e-01" purity="3.3690431714057922e-01" nType="-99"/>
          <Node pos="r" depth="2" NCoef="0" IVar="-1" Cut="0.0000000000000000e+00" cType="1" res="-6.7980550229549408e-02" rms="2.0017544925212860e-01" purity="4.1811052709817886e-02" nType="-99"/>
        </Node>
      </Node>
    </BinaryTree>
    <BinaryTree type="DecisionTree" boostWeight="1.0000000000000000e+00" itree="5">
      <Node pos="s" depth="0" NCoef="0" IVar="3" Cut="6.5786800384521484e+00" cType="1" res="4.2238668538630009e-03" rms="4.4285687804222107e-01" purity="5.0479722023010254e-01" nType="0">
        <Node pos="l" depth="1" NCoef="0" IVar="10" Cut="4.7586317062377930e+00" cType="1" res="1.4022806286811829e-01" rms="4.0870612859725952e-01" purity="7.3505789041519165e-01" nType="0">
          <Node pos="l" depth="2" NCoef="0" IVar="-1" Cut="0.0000000000000000e+00" cType="1" res="3.9279531687498093e-02" rms="3.9309275150299072e-01" purity="8.0809438228607178e-01" nType="-99"/>
          <Node pos="r" depth="2" NCoef="0" IVar="-1" Cut="0.0000000000000000e+00" cType="1" res="-4.6313412487506866e-02" rms="3.5557943582534790e-01" purity="1.4846628904342651e-01" nType="-99"/>
        </Node>
        <Node pos="r" depth="1" NCoef="0" IVar="10" Cut="7.1020708084106445e+00" cType="1" res="-1.3216046988964081e-01" rms="4.3374586105346680e-01" purity="2.7389296889305115e-01" nType="0">
          <Node pos="l" depth="2" NCoef="0" IVar="-1" Cut="0.0000000000000000e+00" cType="1" res="-1.7988439649343491e-02" rms="4.7362121939659119e-01" purity="3.4428855776786804e-01" nType="-99"/>
          <Node pos="r" depth="2" NCoef="0" IVar="-1" Cut="0.0000000000000000e+00" cType="1" res="-6.2474321573972702e-02" rms="2.1602660417556763e-01" purity="4.9081724137067795e-02" nType="-99"/>
        </Node>
      </Node>
    </BinaryTree>
    <BinaryTree type="DecisionTree" boostWeight="1.0000000000000000e+00" itree="6">
      <Node pos="s" depth="0" NCoef="0" IVar="3" Cut="6.7051696777343750e+00" cType="1" res="-7.3158217128366232e-04" rms="4.3686789274215698e-01" purity="4.9925556778907776e-01" nType="0">
        <Node pos="l" depth="1" NCoef="0" IVar="3" Cut="4.6324853897094727e+00" cType="1" res="1.2290164828300476e-01" rms="4.0931010246276855e-01" purity="7.2792142629623413e-01" nType="0">
          <Node pos="l" depth="2" NCoef="0" IVar="-1" Cut="0.0000000000000000e+00" cType="1" res="4.1295614093542099e-02" rms="3.6354184150695801e-01" purity="8.0689495801925659e-01" nType="-99"/>
          <Node pos="r" depth="2" NCoef="0" IVar="-1" Cut="0.0000000000000000e+00" cType="1" res="-2.0432498306035995e-02" rms="4.7063115239143372e-01" purity="4.7041386365890503e-01" nType="-99"/>
        </Node>
        <Node pos="r" depth="1" NCoef="0" IVar="10" Cut="7.1077079772949219e+00" cType="1" res="-1.2794186174869537e-01" rms="4.2771154642105103e-01" purity="2.6397374272346497e-01" nType="0">
          <Node pos="l" depth="2" NCoef="0" IVar="-1" Cut="0.0000000000000000e+00" cType="1" res="-1.8315006047487259e-02" rms="4.7015589475631714e-01" purity="3.3325570821762085e-01" nType="-99"/>
          <Node pos="r" depth="2" NCoef="0" IVar="-1" Cut="0.0000000000000000e+00" cType="1" res="-6.0232315212488174e-02" rms="2.0593266189098358e-01" purity="4.4403292238712311e-02" nType="-99"/>
        </Node>
      </Node>
    </BinaryTree>
    <BinaryTree type="DecisionTree" boostWeight="1.0000000000000000e+00" itree="7">
      <Node pos="s" depth="0" NCoef="0" IVar="3" Cut="6.7051696777343750e+00" cType="1" res="9.4403768889605999e-04" rms="4.3112036585807800e-01" purity="5.0194299221038818e-01" nType="0">
        <Node pos="l" depth="1" NCoef="0" IVar="3" Cut="1.3161764144897461e+00" cType="1" res="1.0860494524240494e-01" rms="4.0458887815475464e-01" purity="7.2747480869293213e-01" nType="0">
          <Node pos="l" depth="2" NCoef="0" IVar="-1" Cut="0.0000000000000000e+00" cType="1" res="-5.8191213756799698e-02" rms="4.3858307600021362e-01" purity="3.1610187888145447e-01" nType="-99"/>
          <Node pos="r" depth="2" NCoef="0" IVar="-1" Cut="0.0000000000000000e+00" cType="1" res="3.3063046634197235e-02" rms="3.7909218668937683e-01" purity="7.7268475294113159e-01" nType="-99"/>
        </Node>
        <Node pos="r" depth="1" NCoef="0" IVar="10" Cut="4.7425818443298340e+00" cType="1" res="-1.0997971892356873e-01" rms="4.2949169874191284e-01" purity="2.6957607269287109e-01" nType="0">
          <Node pos="l" depth="2" NCoef="0" IVar="-1" Cut="0.0000000000000000e+00" cType="1" res="-1.2904392555356026e-02" rms="4.7915282845497131e-01" purity="3.5717386007308960e-01" nType="-99"/>
          <Node pos="r" depth="2" NCoef="0" IVar="-1" Cut="0.0000000000000000e+00" cType="1" res="-4.8288125544786453e-02" rms="2.9076340794563293e-01" purity="1.0007227212190628e-01" nType="-99"/>
        </Node>
      </Node>
    </BinaryTree>
    <BinaryTree type="DecisionTree" boostWeight="1.0000000000000000e+00" itree="8">
      <Node pos="s" depth="0" NCoef="0" IVar="3" Cut="6.5502805709838867e+00" cType="1" res="-7.7875860733911395e-04" rms="4.2612454295158386e-01" purity="4.9970987439155579e-01" nType="0">
        <Node pos="l" depth="1" NCoef="0" IVar="3" Cut="1.2572237253189087e+00" cType="1" res="1.0347194969654083e-01" rms="3.9955517649650574e-01" purity="7.3412233591079712e-01" nType="0">
          <Node pos="l" depth="2" NCoef="0" IVar="-1" Cut="0.0000000000000000e+00" cType="1" res="-4.9419246613979340e-02" rms="4.4585525989532471e-01" purity="3.2428655028343201e-01" nType="-99"/>
          <Node pos="r" depth="2" NCoef="0" IVar="-1" Cut="0.0000000000000000e+00" cType="1" res="3.1413238495588303e-02" rms="3.7710553407669067e-01" purity="7.7879154682159424e-01" nType="-99"/>
        </Node>
        <Node pos="r" depth="1" NCoef="0" IVar="10" Cut="7.0917143821716309e+00" cType="1" res="-1.0528746247291565e-01" rms="4.2632970213890076e-01" purity="2.6471725106239319e-01" nType="0">
          <Node pos="l" depth="2" NCoef="0" IVar="-1" Cut="0.0000000000000000e+00" cType="1" res="-1.5175542794167995e-02" rms="4.7020673751831055e-01" purity="3.3396586775779724e-01" nType="-99"/>
          <Node pos="r" depth="2" NCoef="0" IVar="-1" Cut="0.0000000000000000e+00" cType="1" res="-5.4935406893491745e-02" rms="2.0831865072250366e-01" purity="4.5321460813283920e-02" nType="-99"/>
        </Node>
      </Node>
    </BinaryTree>
    <BinaryTree type="DecisionTree" boostWeight="1.0000000000000000e+00" itree="9">
      <Node pos="s" depth="0" NCoef="0" IVar="10" Cut="4.7425818443298340e+00" cType="1" res="-4.0333364158868790e-03" rms="4.2232048511505127e-01" purity="4.9605780839920044e-01" nType="0">
        <Node pos="l" depth="1" NCoef="0" IVar="10" Cut="1.8066600561141968e+00" cType="1" res="4.8137456178665161e-02" rms="4.3829178810119629e-01" purity="6.1040520668029785e-01" nType="0">
          <Node pos="l" depth="2" NCoef="0" IVar="-1" Cut="0.0000000000000000e+00" cType="1" res="-3.2469518482685089e-02" rms="4.5958665013313293e-01" purity="3.1240031123161316e-01" nType="-99"/>
          <Node pos="r" depth="2" NCoef="0" IVar="-1" Cut="0.0000000000000000e+00" cType="1" res="2.3790506646037102e-02" rms="4.1364195942878723e-01" purity="6.9721698760986328e-01" nType="-99"/>
        </Node>
        <Node pos="r" depth="1" NCoef="0" IVar="10" Cut="6.8882617950439453e+00" cType="1" res="-1.8092504143714905e-01" rms="3.0204442143440247e-01" purity="1.0834838449954987e-01" nType="0">
          <Node pos="l" depth="2" NCoef="0" IVar="-1" Cut="0.0000000000000000e+00" cType="1" res="-2.4095399305224419e-02" rms="4.2639249563217163e-01" purity="2.4211955070495605e-01" nType="-99"/>
          <Node pos="r" depth="2" NCoef="0" IVar="-1" Cut="0.0000000000000000e+00" cType="1" res="-5.5799338966608047e-02" rms="2.1914649009704590e-01" purity="4.9314618110656738e-02" nType="-99"/>
        </Node>
      </Node>
    </BinaryTree>
    <BinaryTree type="DecisionTree" boostWeight="1.0000000000000000e+00" itree="10">
      <Node pos="s" depth="0" NCoef="0" IVar="3" Cut="6.7051696777343750e+00" cType="1" res="1.0713181691244245e-03" rms="4.1791707277297974e-01" purity="5.0188308954238892e-01" nType="0">
        <Node pos="l" depth="1" NCoef="0" IVar="3" Cut="4.2179551124572754e+00" cType="1" res="8.7117962539196014e-02" rms="3.9400404691696167e-01" purity="7.2990727424621582e-01" nType="0">
          <Node pos="l" depth="2" NCoef="0" IVar="-1" Cut="0.0000000000000000e+00" cType="1" res="3.6901883780956268e-02" rms="3.3638295531272888e-01" purity="8.1883800029754639e-01" nType="-99"/>
          <Node pos="r" depth="2" NCoef="0" IVar="-1" Cut="0.0000000000000000e+00" cType="1" res="-1.7751161009073257e-02" rms="4.6316057443618774e-01" purity="5.2180033922195435e-01" nType="-99"/>
        </Node>
        <Node pos="r" depth="1" NCoef="0" IVar="10" Cut="4.7425818443298340e+00" cType="1" res="-8.8640555739402771e-02" rms="4.2323699593544006e-01" purity="2.6414602994918823e-01" nType="0">
          <Node pos="l" depth="2" NCoef="0" IVar="-1" Cut="0.0000000000000000e+00" cType="1" res="-1.1575554497539997e-02" rms="4.7597190737724304e-01" purity="3.5118645429611206e-01" nType="-99"/>
          <Node pos="r" depth="2" NCoef="0" IVar="-1" Cut="0.0000000000000000e+00" cType="1" res="-4.1554149240255356e-02" rms="2.8451204299926758e-01" purity="9.5204740762710571e-02" nType="-99"/>
        </Node>
      </Node>
    </BinaryTree>
    <BinaryTree type="DecisionTree" boostWeight="1.0000000000000000e+00" itree="11">
      <Node pos="s" depth="0" NCoef="0" IVar="6" Cut="4.7673311233520508e+00" cType="1" res="9.3137100338935852e-04" rms="4.1508564352989197e-01" purity="5.0111877918243408e-01" nType="0">
        <Node pos="l" depth="1" NCoef="0" IVar="3" Cut="4.2733831405639648e+00" cType="1" res="7.9618200659751892e-02" rms="4.0032032132148743e-01" purity="6.5828293561935425e-01" nType="0">
          <Node pos="l" depth="2" NCoef="0" IVar="-1" Cut="0.0000000000000000e+00" cType="1" res="4.5703373849391937e-02" rms="2.9052293300628662e-01" purity="8.8403958082199097e-01" nType="-99"/>
          <Node pos="r" depth="2" NCoef="0" IVar="-1" Cut="0.0000000000000000e+00" cType="1" res="-1.1077131144702435e-02" rms="4.6799084544181824e-01" purity="3.9188313484191895e-01" nType="-99"/>
        </Node>
        <Node pos="r" depth="1" NCoef="0" IVar="4" Cut="6.7211700439453125e+01" cType="1" res="-8.7898120284080505e-02" rms="4.1353034973144531e-01" purity="3.2369631528854370e-01" nType="0">
          <Node pos="l" depth="2" NCoef="0" IVar="-1" Cut="0.0000000000000000e+00" cType="1" res="-3.4499928355216980e-02" rms="3.9985811710357666e-01" purity="2.1513551473617554e-01" nType="-99"/>
          <Node pos="r" depth="2" NCoef="0" IVar="-1" Cut="0.0000000000000000e+00" cType="1" res="3.8653351366519928e-02" rms="3.6774814128875732e-01" purity="7.7451443672180176e-01" nType="-99"/>
        </Node>
      </Node>
    </BinaryTree>
    <BinaryTree type="DecisionTree" boostWeight="1.0000000000000000e+00" itree="12">
      <Node pos="s" depth="0" NCoef="0" IVar="10" Cut="4.7586317062377930e+00" cType="1" res="-5.4885732242837548e-04" rms="4.0927129983901978e-01" purity="5.0219339132308960e-01" nType="0">
        <Node pos="l" depth="1" NCoef="0" IVar="10" Cut="1.5860968828201294e+00" cType="1" res="4.1254546493291855e-02" rms="4.2638334631919861e-01" purity="6.1511099338531494e-01" nType="0">
          <Node pos="l" depth="2" NCoef="0" IVar="-1" Cut="0.0000000000000000e+00" cType="1" res="-3.2304868102073669e-02" rms="4.4892287254333496e-01" purity="2.8318724036216736e-01" nType="-99"/>
          <Node pos="r" depth="2" NCoef="0" IVar="-1" Cut="0.0000000000000000e+00" cType="1" res="1.9484611228108406e-02" rms="4.0899309515953064e-01" purity="6.8957871198654175e-01" nType="-99"/>
        </Node>
        <Node pos="r" depth="1" NCoef="0" IVar="10" Cut="6.9114637374877930e+00" cType="1" res="-1.4642381668090820e-01" rms="3.0037611722946167e-01" purity="1.0816211998462677e-01" nType="0">
          <Node pos="l" depth="2" NCoef="0" IVar="-1" Cut="0.0000000000000000e+00" cType="1" res="-1.8577245995402336e-02" rms="4.2199686169624329e-01" purity="2.4205926060676575e-01" nType="-99"/>
          <Node pos="r" depth="2" NCoef="0" IVar="-1" Cut="0.0000000000000000e+00" cType="1" res="-5.1690090447664261e-02" rms="2.1945652365684509e-01" purity="4.8303946852684021e-02" nType="-99"/>
        </Node>
      </Node>
    </BinaryTree>
    <BinaryTree type="DecisionTree" boostWeight="1.0000000000000000e+00" itree="13">
      <Node pos="s" depth="0" NCoef="0" IVar="6" Cut="4.7664351463317871e+00" cType="1" res="-1.2139404425397515e-03" rms="4.0788909792900085e-01" purity="4.9686905741691589e-01" nType="0">
        <Node pos="l" depth="1" NCoef="0" IVar="3" Cut="4.8263339996337891e+00" cType="1" res="6.5018005669116974e-02" rms="3.9550545811653137e-01" purity="6.5320140123367310e-01" nType="0">
          <Node pos="l" depth="2" NCoef="0" IVar="-1" Cut="0.0000000000000000e+00" cType="1" res="3.7670053541660309e-02" rms="3.1218978762626648e-01" purity="8.5876756906509399e-01" nType="-99"/>
          <Node pos="r" depth="2" NCoef="0" IVar="-1" Cut="0.0000000000000000e+00" cType="1" res="-1.3269585557281971e-02" rms="4.6594846248626709e-01" purity="3.5238415002822876e-01" nType="-99"/>
        </Node>
        <Node pos="r" depth="1" NCoef="0" IVar="10" Cut="4.7586317062377930e+00" cType="1" res="-7.4170932173728943e-02" rms="4.0887388586997986e-01" purity="3.2466310262680054e-01" nType="0">
          <Node pos="l" depth="2" NCoef="0" IVar="-1" Cut="0.0000000000000000e+00" cType="1" res="-8.9047886431217194e-03" rms="4.5911660790443420e-01" purity="4.4005322456359863e-01" nType="-99"/>
          <Node pos="r" depth="2" NCoef="0" IVar="-1" Cut="0.0000000000000000e+00" cType="1" res="-4.3717160820960999e-02" rms="2.5385639071464539e-01" purity="7.3106005787849426e-02" nType="-99"/>
        </Node>
      </Node>
    </BinaryTree>
    <BinaryTree type="DecisionTree" boostWeight="1.0000000000000000e+00" itree="14">
      <Node pos="s" depth="0" NCoef="0" IVar="10" Cut="4.7586317062377930e+00" cType="1" res="3.1948750256560743e-04" rms="4.0569868683815002e-01" purity="5.0066149234771729e-01" nType="0">
        <Node pos="l" depth="1" NCoef="0" IVar="10" Cut="1.5861233472824097e+00" cType="1" res="3.5476054996252060e-02" rms="4.2484888434410095e-01" purity="6.1400383710861206e-01" nType="0">
          <Node pos="l" depth="2" NCoef="0" IVar="-1" Cut="0.0000000000000000e+00" cType="1" res="-2.8533384203910828e-02" rms="4.5054215192794800e-01" purity="2.8629174828529358e-01" nType="-99"/>
          <Node pos="r" depth="2" NCoef="0" IVar="-1" Cut="0.0000000000000000e+00" cType="1" res="1.7293700948357582e-02" rms="4.0946069359779358e-01" purity="6.8850219249725342e-01" nType="-99"/>
        </Node>
        <Node pos="r" depth="1" NCoef="0" IVar="10" Cut="9.0640926361083984e+00" cType="1" res="-1.2115309387445450e-01" rms="3.0101484060287476e-01" purity="1.0904209315776825e-01" nType="0">
          <Node pos="l" depth="2" NCoef="0" IVar="-1" Cut="0.0000000000000000e+00" cType="1" res="-2.0572975277900696e-02" rms="3.8644766807556152e-01" purity="1.9100435078144073e-01" nType="-99"/>
          <Node pos="r" depth="2" NCoef="0" IVar="-1" Cut="0.0000000000000000e+00" cType="1" res="-5.3304169327020645e-02" rms="1.7540003359317780e-01" purity="3.0198356136679649e-02" nType="-99"/>
        </Node>
      </Node>
    </BinaryTree>
    <BinaryTree type="DecisionTree" boostWeight="1.0000000000000000e+00" itree="15">
      <Node pos="s" depth="0" NCoef="0" IVar="6" Cut="4.7673311233520508e+00" cType="1" res="2.9958691447973251e-03" rms="4.0376618504524231e-01" purity="5.0301688909530640e-01" nType="0">
        <Node pos="l" depth="1" NCoef="0" IVar="3" Cut="3.3179302215576172e+00" cType="1" res="5.9432972222566605e-02" rms="3.9178127050399780e-01" purity="6.5701258182525635e-01" nType="0">
          <Node pos="l" depth="2" NCoef="0" IVar="-1" Cut="0.0000000000000000e+00" cType="1" res="4.6696372330188751e-02" rms="2.4459326267242432e-01" purity="9.1736143827438354e-01" nType="-99"/>
          <Node pos="r" depth="2" NCoef="0" IVar="-1" Cut="0.0000000000000000e+00" cType="1" res="-5.3967251442372799e-03" rms="4.5266628265380859e-01" purity="4.6930366754531860e-01" nType="-99"/>
        </Node>
        <Node pos="r" depth="1" NCoef="0" IVar="6" Cut="7.2790802001953125e+01" cType="1" res="-6.0107316821813583e-02" rms="4.0760830044746399e-01" purity="3.3083197474479675e-01" nType="0">
          <Node pos="l" depth="2" NCoef="0" IVar="-1" Cut="0.0000000000000000e+00" cType="1" res="-1.0401643812656403e-02" rms="4.1335991024971008e-01" purity="3.5985380411148071e-01" nType="-99"/>
          <Node pos="r" depth="2" NCoef="0" IVar="-1" Cut="0.0000000000000000e+00" cType="1" res="-4.2734239250421524e-02" rms="3.4906521439552307e-01" purity="1.4545002579689026e-01" nType="-99"/>
        </Node>
      </Node>
    </BinaryTree>
    <BinaryTree type="DecisionTree" boostWeight="1.0000000000000000e+00" itree="16">
      <Node pos="s" depth="0" NCoef="0" IVar="10" Cut="4.7347140312194824e+00" cType="1" res="-1.9859201274812222e-03" rms="3.9934286475181580e-01" purity="4.9953958392143250e-01" nType="0">
        <Node pos="l" depth="1" NCoef="0" IVar="10" Cut="1.8036973476409912e+00" cType="1" res="2.9111176729202271e-02" rms="4.1942992806434631e-01" purity="6.1449307203292847e-01" nType="0">
          <Node pos="l" depth="2" NCoef="0" IVar="-1" Cut="0.0000000000000000e+00" cType="1" res="-2.1308295428752899e-02" rms="4.6008142828941345e-01" purity="3.1440052390098572e-01" nType="-99"/>
          <Node pos="r" depth="2" NCoef="0" IVar="-1" Cut="0.0000000000000000e+00" cType="1" res="1.5733214095234871e-02" rms="3.9998722076416016e-01" purity="6.9993203878402710e-01" nType="-99"/>
        </Node>
        <Node pos="r" depth="1" NCoef="0" IVar="9" Cut="2.3782780170440674e+00" cType="1" res="-1.0802342742681503e-01" rms="2.9808023571968079e-01" purity="1.0756156593561172e-01" nType="0">
          <Node pos="l" depth="2" NCoef="0" IVar="-1" Cut="0.0000000000000000e+00" cType="1" res="-1.0535827837884426e-02" rms="3.8549965620040894e-01" purity="1.9636280834674835e-01" nType="-99"/>
          <Node pos="r" depth="2" NCoef="0" IVar="-1" Cut="0.0000000000000000e+00" cType="1" res="-4.1585702449083328e-02" rms="2.5701811909675598e-01" purity="7.7195331454277039e-02" nType="-99"/>
        </Node>
      </Node>
    </BinaryTree>
    <BinaryTree type="DecisionTree" boostWeight="1.0000000000000000e+00" itree="17">
      <Node pos="s" depth="0" NCoef="0" IVar="6" Cut="4.7686715126037598e+00" cType="1" res="-1.2745683779940009e-03" rms="3.9988145232200623e-01" purity="4.9838778376579285e-01" nType="0">
        <Node pos="l" depth="1" NCoef="0" IVar="3" Cut="2.9839498996734619e+00" cType="1" res="5.1236402243375778e-02" rms="3.8840132951736450e-01" purity="6.5534073114395142e-01" nType="0">
          <Node pos="l" depth="2" NCoef="0" IVar="-1" Cut="0.0000000000000000e+00" cType="1" res="4.4183790683746338e-02" rms="2.4053134024143219e-01" purity="9.1831660270690918e-01" nType="-99"/>
          <Node pos="r" depth="2" NCoef="0" IVar="-1" Cut="0.0000000000000000e+00" cType="1" res="-1.5172609128057957e-03" rms="4.3974280357360840e-01" purity="5.0901293754577637e-01" nType="-99"/>
        </Node>
        <Node pos="r" depth="1" NCoef="0" IVar="4" Cut="6.4889831542968750e+01" cType="1" res="-6.0014173388481140e-02" rms="4.0434309840202332e-01" purity="3.2281774282455444e-01" nType="0">
          <Node pos="l" depth="2" NCoef="0" IVar="-1" Cut="0.0000000000000000e+00" cType="1" res="-2.6772147044539452e-02" rms="3.9837014675140381e-01" purity="2.1699540317058563e-01" nType="-99"/>
          <Node pos="r" depth="2" NCoef="0" IVar="-1" Cut="0.0000000000000000e+00" cType="1" res="3.1244562938809395e-02" rms="3.7119713425636292e-01" purity="7.5210970640182495e-01" nType="-99"/>
        </Node>
      </Node>
    </BinaryTree>
    <BinaryTree type="DecisionTree" boostWeight="1.0000000000000000e+00" itree="18">
      <Node pos="s" depth="0" NCoef="0" IVar="6" Cut="4.7673311233520508e+00" cType="1" res="-1.7672296380624175e-03" rms="3.9642295241355896e-01" purity="4.9794286489486694e-01" nType="0">
        <Node pos="l" depth="1" NCoef="0" IVar="3" Cut="4.8263339996337891e+00" cType="1" res="4.6959266066551208e-02" rms="3.8542875647544861e-01" purity="6.5708279609680176e-01" nType="0">
          <Node pos="l" depth="2" NCoef="0" IVar="-1" Cut="0.0000000000000000e+00" cType="1" res="3.0251223593950272e-02" rms="3.0340945720672607e-01" purity="8.5953688621520996e-01" nType="-99"/>
          <Node pos="r" depth="2" NCoef="0" IVar="-1" Cut="0.0000000000000000e+00" cType="1" res="-9.3649867922067642e-03" rms="4.6804371476173401e-01" purity="3.5872802138328552e-01" nType="-99"/>
        </Node>
        <Node pos="r" depth="1" NCoef="0" IVar="4" Cut="6.7038543701171875e+01" cType="1" res="-5.6997925043106079e-02" rms="4.0143835544586182e-01" purity="3.1756034493446350e-01" nType="0">
          <Node pos="l" depth="2" NCoef="0" IVar="-1" Cut="0.0000000000000000e+00" cType="1" res="-2.4300616234540939e-02" rms="3.9918684959411621e-01" purity="2.1698766946792603e-01" nType="-99"/>
          <Node pos="r" depth="2" NCoef="0" IVar="-1" Cut="0.0000000000000000e+00" cType="1" res="2.6831328868865967e-02" rms="3.6711567640304565e-01" purity="7.5417715311050415e-01" nType="-99"/>
        </Node>
      </Node>
    </BinaryTree>
    <BinaryTree type="DecisionTree" boostWeight="1.0000000000000000e+00" itree="19">
      <Node pos="s" depth="0" NCoef="0" IVar="0" Cut="6.1142856597900391e+01" cType="1" res="1.1628487845882773e-03" rms="3.9635694026947021e-01" purity="4.9933022260665894e-01" nType="0">
        <Node pos="l" depth="1" NCoef="0" IVar="10" Cut="4.7586317062377930e+00" cType="1" res="9.4825932756066322e-03" rms="3.9360803365707397e-01" purity="5.0680261850357056e-01" nType="0">
          <Node pos="l" depth="2" NCoef="0" IVar="-1" Cut="0.0000000000000000e+00" cType="1" res="9.1581381857395172e-03" rms="4.1191366314888000e-01" purity="6.2394863367080688e-01" nType="-99"/>
          <Node pos="r" depth="2" NCoef="0" IVar="-1" Cut="0.0000000000000000e+00" cType="1" res="-2.7404006570577621e-02" rms="3.0719310045242310e-01" purity="1.1409927904605865e-01" nType="-99"/>
        </Node>
        <Node pos="r" depth="1" NCoef="0" IVar="-1" Cut="0.0000000000000000e+00" cType="1" res="-7.6316393911838531e-02" rms="3.7124204635620117e-01" purity="2.1724466979503632e-01" nType="-99"/>
      </Node>
    </BinaryTree>
    <BinaryTree type="DecisionTree" boostWeight="1.0000000000000000e+00" itree="20">
      <Node pos="s" depth="0" NCoef="0" IVar="9" Cut="4.7565560340881348e+00" cType="1" res="-1.2483332538977265e-03" rms="3.9328449964523315e-01" purity="4.9871453642845154e-01" nType="0">
        <Node pos="l" depth="1" NCoef="0" IVar="9" Cut="1.5853942632675171e+00" cType="1" res="2.4461546912789345e-02" rms="3.9505082368850708e-01" purity="5.4712927341461182e-01" nType="0">
          <Node pos="l" depth="2" NCoef="0" IVar="-1" Cut="0.0000000000000000e+00" cType="1" res="-2.0219922065734863e-02" rms="4.5172843337059021e-01" purity="3.0505594611167908e-01" nType="-99"/>
          <Node pos="r" depth="2" NCoef="0" IVar="-1" Cut="0.0000000000000000e+00" cType="1" res="1.4647251926362514e-02" rms="3.7266507744789124e-01" purity="6.1232000589370728e-01" nType="-99"/>
        </Node>
        <Node pos="r" depth="1" NCoef="0" IVar="6" Cut="4.7629531860351562e+01" cType="1" res="-9.0694256126880646e-02" rms="3.7353459000587463e-01" purity="3.3027726411819458e-01" nType="0">
          <Node pos="l" depth="2" NCoef="0" IVar="-1" Cut="0.0000000000000000e+00" cType="1" res="-2.0340651273727417e-02" rms="3.9447471499443054e-01" purity="3.8468560576438904e-01" nType="-99"/>
          <Node pos="r" depth="2" NCoef="0" IVar="-1" Cut="0.0000000000000000e+00" cType="1" res="-5.4474126547574997e-02" rms="2.2189225256443024e-01" purity="5.0537548959255219e-02" nType="-99"/>
        </Node>
      </Node>
    </BinaryTree>
    <BinaryTree type="DecisionTree" boostWeight="1.0000000000000000e+00" itree="21">
      <Node pos="s" depth="0" NCoef="0" IVar="0" Cut="6.1142856597900391e+01" cType="1" res="-1.7081790138036013e-03" rms="3.9288502931594849e-01" purity="4.9743056297302246e-01" nType="0">
        <Node pos="l" depth="1" NCoef="0" IVar="10" Cut="7.1138725280761719e+00" cType="1" res="6.1132400296628475e-03" rms="3.9033409953117371e-01" purity="5.0541025400161743e-01" nType="0">
          <Node pos="l" depth="2" NCoef="0" IVar="-1" Cut="0.0000000000000000e+00" cType="1" res="6.6615603864192963e-03" rms="4.1090324521064758e-01" purity="5.8981645107269287e-01" nType="-99"/>
          <Node pos="r" depth="2" NCoef="0" IVar="-1" Cut="0.0000000000000000e+00" cType="1" res="-4.1657138615846634e-02" rms="2.2056180238723755e-01" purity="4.8876881599426270e-02" nType="-99"/>
        </Node>
        <Node pos="r" depth="1" NCoef="0" IVar="-1" Cut="0.0000000000000000e+00" cType="1" res="-7.2380445897579193e-02" rms="3.7398111820220947e-01" purity="1.9491724669933319e-01" nType="-99"/>
      </Node>
    </BinaryTree>
    <BinaryTree type="DecisionTree" boostWeight="1.0000000000000000e+00" itree="22">
      <Node pos="s" depth="0" NCoef="0" IVar="0" Cut="6.1142856597900391e+01" cType="1" res="-4.4936442282050848e-04" rms="3.9140799641609192e-01" purity="4.9835774302482605e-01" nType="0">
        <Node pos="l" depth="1" NCoef="0" IVar="10" Cut="7.1379475593566895e+00" cType="1" res="6.4026918262243271e-03" rms="3.8988870382308960e-01" purity="5.0611770153045654e-01" nType="0">
          <Node pos="l" depth="2" NCoef="0" IVar="-1" Cut="0.0000000000000000e+00" cType="1" res="6.1693969182670116e-03" rms="4.1085684299468994e-01" purity="5.8981394767761230e-01" nType="-99"/>
          <Node pos="r" depth="2" NCoef="0" IVar="-1" Cut="0.0000000000000000e+00" cType="1" res="-3.9016373455524445e-02" rms="2.2128731012344360e-01" purity="5.0562914460897446e-02" nType="-99"/>
        </Node>
        <Node pos="r" depth="1" NCoef="0" IVar="-1" Cut="0.0000000000000000e+00" cType="1" res="-6.3620753586292267e-02" rms="3.5925784707069397e-01" purity="2.0456938445568085e-01" nType="-99"/>
      </Node>
    </BinaryTree>
    <BinaryTree type="DecisionTree" boostWeight="1.0000000000000000e+00" itree="23">
      <Node pos="s" depth="0" NCoef="0" IVar="6" Cut="4.7664351463317871e+00" cType="1" res="-2.6892318855971098e-03" rms="3.8918936252593994e-01" purity="4.9686157703399658e-01" nType="0">
        <Node pos="l" depth="1" NCoef="0" IVar="3" Cut="2.9839653968811035e+00" cType="1" res="3.9770476520061493e-02" rms="3.8074827194213867e-01" purity="6.5589088201522827e-01" nType="0">
          <Node pos="l" depth="2" NCoef="0" IVar="-1" Cut="0.0000000000000000e+00" cType="1" res="4.0380042046308517e-02" rms="2.3826712369918823e-01" purity="9.1994649171829224e-01" nType="-99"/>
          <Node pos="r" depth="2" NCoef="0" IVar="-1" Cut="0.0000000000000000e+00" cType="1" res="-2.6327685918658972e-03" rms="4.3489822745323181e-01" purity="5.0305718183517456e-01" nType="-99"/>
        </Node>
        <Node pos="r" depth="1" NCoef="0" IVar="3" Cut="2.2893400192260742e+00" cType="1" res="-5.0813864916563034e-02" rms="3.9303335547447205e-01" purity="3.1661477684974670e-01" nType="0">
          <Node pos="l" depth="2" NCoef="0" IVar="-1" Cut="0.0000000000000000e+00" cType="1" res="-4.0123514831066132e-02" rms="4.1551262140274048e-01" purity="3.1519019603729248e-01" nType="-99"/>
          <Node pos="r" depth="2" NCoef="0" IVar="-1" Cut="0.0000000000000000e+00" cType="1" res="-1.0522520169615746e-02" rms="3.8892978429794312e-01" purity="3.1675297021865845e-01" nType="-99"/>
        </Node>
      </Node>
    </BinaryTree>
    <BinaryTree type="DecisionTree" boostWeight="1.0000000000000000e+00" itree="24">
      <Node pos="s" depth="0" NCoef="0" IVar="9" Cut="4.7555360794067383e+00" cType="1" res="2.8861186001449823e-03" rms="3.9051523804664612e-01" purity="5.0259453058242798e-01" nType="0">
        <Node pos="l" depth="1" NCoef="0" IVar="9" Cut="1.3584969043731689e+00" cType="1" res="2.4619609117507935e-02" rms="3.9423462748527527e-01" purity="5.4833656549453735e-01" nType="0">
          <Node pos="l" depth="2" NCoef="0" IVar="-1" Cut="0.0000000000000000e+00" cType="1" res="-2.2829551249742508e-02" rms="4.4417974352836609e-01" purity="2.7848958969116211e-01" nType="-99"/>
          <Node pos="r" depth="2" NCoef="0" IVar="-1" Cut="0.0000000000000000e+00" cType="1" res="1.3423965312540531e-02" rms="3.7862464785575867e-01" purity="6.0287714004516602e-01" nType="-99"/>
        </Node>
        <Node pos="r" depth="1" NCoef="0" IVar="9" Cut="6.9070377349853516e+00" cType="1" res="-7.1683682501316071e-02" rms="3.6783978343009949e-01" purity="3.4564885497093201e-01" nType="0">
          <Node pos="l" depth="2" NCoef="0" IVar="-1" Cut="0.0000000000000000e+00" cType="1" res="-9.4229057431221008e-03" rms="3.7430068850517273e-01" purity="4.2993506789207458e-01" nType="-99"/>
          <Node pos="r" depth="2" NCoef="0" IVar="-1" Cut="0.0000000000000000e+00" cType="1" res="-2.8766982257366180e-02" rms="3.6059558391571045e-01" purity="2.8534024953842163e-01" nType="-99"/>
        </Node>
      </Node>
    </BinaryTree>
    <BinaryTree type="DecisionTree" boostWeight="1.0000000000000000e+00" itree="25">
      <Node pos="s" depth="0" NCoef="0" IVar="10" Cut="7.0917143821716309e+00" cType="1" res="2.4177220184355974e-03" rms="3.8871520757675171e-01" purity="5.0248742103576660e-01" nType="0">
        <Node pos="l" depth="1" NCoef="0" IVar="10" Cut="1.6884545087814331e+00" cType="1" res="1.7838027328252792e-02" rms="4.0992173552513123e-01" purity="5.8422517776489258e-01" nType="0">
          <Node pos="l" depth="2" NCoef="0" IVar="-1" Cut="0.0000000000000000e+00" cType="1" res="-1.7971422523260117e-02" rms="4.5311382412910461e-01" purity="2.9996648430824280e-01" nType="-99"/>
          <Node pos="r" depth="2" NCoef="0" IVar="-1" Cut="0.0000000000000000e+00" cType="1" res="1.0152617469429970e-02" rms="3.9659944176673889e-01" purity="6.4721721410751343e-01" nType="-99"/>
        </Node>
        <Node pos="r" depth="1" NCoef="0" IVar="3" Cut="8.0295534133911133e+00" cType="1" res="-8.3049543201923370e-02" rms="2.2047010064125061e-01" purity="4.9454849213361740e-02" nType="0">
          <Node pos="l" depth="2" NCoef="0" IVar="-1" Cut="0.0000000000000000e+00" cType="1" res="-4.4487081468105316e-02" rms="2.4487614631652832e-01" purity="6.0568146407604218e-02" nType="-99"/>
          <Node pos="r" depth="2" NCoef="0" IVar="-1" Cut="0.0000000000000000e+00" cType="1" res="-3.1840458512306213e-02" rms="2.0363676548004150e-01" purity="4.4301841408014297e-02" nType="-99"/>
        </Node>
      </Node>
    </BinaryTree>
    <BinaryTree type="DecisionTree" boostWeight="1.0000000000000000e+00" itree="26">
      <Node pos="s" depth="0" NCoef="0" IVar="0" Cut="6.6000000000000000e+01" cType="1" res="7.1492785355076194e-04" rms="3.8692852854728699e-01" purity="5.0166201591491699e-01" nType="0">
        <Node pos="l" depth="1" NCoef="0" IVar="6" Cut="4.7664351463317871e+00" cType="1" res="6.7641637288033962e-03" rms="3.8567110896110535e-01" purity="5.0894850492477417e-01" nType="0">
          <Node pos="l" depth="2" NCoef="0" IVar="-1" Cut="0.0000000000000000e+00" cType="1" res="1.1604698374867439e-02" rms="3.7417575716972351e-01" purity="6.6715234518051147e-01" nType="-99"/>
          <Node pos="r" depth="2" NCoef="0" IVar="-1" Cut="0.0000000000000000e+00" cType="1" res="-8.7414756417274475e-03" rms="3.9475992321968079e-01" purity="3.2783159613609314e-01" nType="-99"/>
        </Node>
        <Node pos="r" depth="1" NCoef="0" IVar="-1" Cut="0.0000000000000000e+00" cType="1" res="-5.7915017008781433e-02" rms="3.6184108257293701e-01" purity="2.1906360983848572e-01" nType="-99"/>
      </Node>
    </BinaryTree>
    <BinaryTree type="DecisionTree" boostWeight="1.0000000000000000e+00" itree="27">
      <Node pos="s" depth="0" NCoef="0" IVar="9" Cut="4.7543859481811523e+00" cType="1" res="-1.7846277914941311e-03" rms="3.8794764876365662e-01" purity="4.9875402450561523e-01" nType="0">
        <Node pos="l" depth="1" NCoef="0" IVar="9" Cut="6.7915868759155273e-01" cType="1" res="1.7985220998525620e-02" rms="3.9138361811637878e-01" purity="5.4488134384155273e-01" nType="0">
          <Node pos="l" depth="2" NCoef="0" IVar="-1" Cut="0.0000000000000000e+00" cType="1" res="-3.8070905953645706e-02" rms="3.8430544734001160e-01" purity="1.8612308800220490e-01" nType="-99"/>
          <Node pos="r" depth="2" NCoef="0" IVar="-1" Cut="0.0000000000000000e+00" cType="1" res="8.1247733905911446e-03" rms="3.8903301954269409e-01" purity="5.6938570737838745e-01" nType="-99"/>
        </Node>
        <Node pos="r" depth="1" NCoef="0" IVar="3" Cut="4.1799354553222656e+00" cType="1" res="-7.0459760725498199e-02" rms="3.6759695410728455e-01" purity="3.3852022886276245e-01" nType="0">
          <Node pos="l" depth="2" NCoef="0" IVar="-1" Cut="0.0000000000000000e+00" cType="1" res="-5.2896467968821526e-03" rms="3.7480196356773376e-01" purity="6.7642652988433838e-01" nType="-99"/>
          <Node pos="r" depth="2" NCoef="0" IVar="-1" Cut="0.0000000000000000e+00" cType="1" res="-2.6251167058944702e-02" rms="3.6315533518791199e-01" purity="2.1783503890037537e-01" nType="-99"/>
        </Node>
      </Node>
    </BinaryTree>
    <BinaryTree type="DecisionTree" boostWeight="1.0000000000000000e+00" itree="28">
      <Node pos="s" depth="0" NCoef="0" IVar="9" Cut="4.7565560340881348e+00" cType="1" res="1.9025092478841543e-03" rms="3.8851365447044373e-01" purity="5.0044614076614380e-01" nType="0">
        <Node pos="l" depth="1" NCoef="0" IVar="9" Cut="1.3589471578598022e+00" cType="1" res="1.8891051411628723e-02" rms="3.9186006784439087e-01" purity="5.4727667570114136e-01" nType="0">
          <Node pos="l" depth="2" NCoef="0" IVar="-1" Cut="0.0000000000000000e+00" cType="1" res="-1.8652308732271194e-02" rms="4.4507700204849243e-01" purity="2.7870815992355347e-01" nType="-99"/>
          <Node pos="r" depth="2" NCoef="0" IVar="-1" Cut="0.0000000000000000e+00" cType="1" res="1.0533710010349751e-02" rms="3.7753039598464966e-01" purity="6.0052043199539185e-01" nType="-99"/>
        </Node>
        <Node pos="r" depth="1" NCoef="0" IVar="6" Cut="4.2863124847412109e+01" cType="1" res="-5.7091634720563889e-02" rms="3.7066406011581421e-01" purity="3.3782333135604858e-01" nType="0">
          <Node pos="l" depth="2" NCoef="0" IVar="-1" Cut="0.0000000000000000e+00" cType="1" res="-1.2372677214443684e-02" rms="3.9216804504394531e-01" purity="3.9747747778892517e-01" nType="-99"/>
          <Node pos="r" depth="2" NCoef="0" IVar="-1" Cut="0.0000000000000000e+00" cType="1" res="-4.6075899153947830e-02" rms="2.3455320298671722e-01" purity="5.6084252893924713e-02" nType="-99"/>
        </Node>
      </Node>
    </BinaryTree>
    <BinaryTree type="DecisionTree" boostWeight="1.0000000000000000e+00" itree="29">
      <Node pos="s" depth="0" NCoef="0" IVar="0" Cut="5.6285713195800781e+01" cType="1" res="3.0581149621866643e-04" rms="3.8608503341674805e-01" purity="5.0034922361373901e-01" nType="0">
        <Node pos="l" depth="1" NCoef="0" IVar="10" Cut="4.7425818443298340e+00" cType="1" res="6.0894829221069813e-03" rms="3.8508912920951843e-01" purity="5.0750738382339478e-01" nType="0">
          <Node pos="l" depth="2" NCoef="0" IVar="-1" Cut="0.0000000000000000e+00" cType="1" res="6.7825783044099808e-03" rms="4.0598112344741821e-01" purity="6.2631893157958984e-01" nType="-99"/>
          <Node pos="r" depth="2" NCoef="0" IVar="-1" Cut="0.0000000000000000e+00" cType="1" res="-2.3496286943554878e-02" rms="2.9440918564796448e-01" purity="1.0777894407510757e-01" nType="-99"/>
        </Node>
        <Node pos="r" depth="1" NCoef="0" IVar="-1" Cut="0.0000000000000000e+00" cType="1" res="-5.1712933927774429e-02" rms="3.6523360013961792e-01" purity="2.4804779887199402e-01" nType="-99"/>
      </Node>
    </BinaryTree>
    <BinaryTree type="DecisionTree" boostWeight="1.0000000000000000e+00" itree="30">
      <Node pos="s" depth="0" NCoef="0" IVar="10" Cut="7.1379475593566895e+00" cType="1" res="4.0030819363892078e-03" rms="3.8546407222747803e-01" purity="5.0520604848861694e-01" nType="0">
        <Node pos="l" depth="1" NCoef="0" IVar="10" Cut="3.3989696502685547e+00" cType="1" res="1.6908220946788788e-02" rms="4.0667521953582764e-01" purity="5.8600479364395142e-01" nType="0">
          <Node pos="l" depth="2" NCoef="0" IVar="-1" Cut="0.0000000000000000e+00" cType="1" res="9.6990074962377548e-03" rms="3.9608383178710938e-01" purity="6.3909274339675903e-01" nType="-99"/>
          <Node pos="r" depth="2" NCoef="0" IVar="-1" Cut="0.0000000000000000e+00" cType="1" res="-1.5011742711067200e-02" rms="4.3607512116432190e-01" purity="3.8491865992546082e-01" nType="-99"/>
        </Node>
        <Node pos="r" depth="1" NCoef="0" IVar="3" Cut="8.0606250762939453e+00" cType="1" res="-6.8923018872737885e-02" rms="2.1765834093093872e-01" purity="4.8617374151945114e-02" nType="0">
          <Node pos="l" depth="2" NCoef="0" IVar="-1" Cut="0.0000000000000000e+00" cType="1" res="-4.1802968829870224e-02" rms="2.4190695583820343e-01" purity="5.9344831854104996e-02" nType="-99"/>
          <Node pos="r" depth="2" NCoef="0" IVar="-1" Cut="0.0000000000000000e+00" cType="1" res="-2.8384393081068993e-02" rms="2.0132230222225189e-01" purity="4.3583925813436508e-02" nType="-99"/>
        </Node>
      </Node>
    </BinaryTree>
    <BinaryTree type="DecisionTree" boostWeight="1.0000000000000000e+00" itree="31">
      <Node pos="s" depth="0" NCoef="0" IVar="0" Cut="5.6285713195800781e+01" cType="1" res="6.7237135954201221e-04" rms="3.8556963205337524e-01" purity="5.0164216756820679e-01" nType="0">
        <Node pos="l" depth="1" NCoef="0" IVar="6" Cut="6.1906932830810547e+01" cType="1" res="5.9728673659265041e-03" rms="3.8474225997924805e-01" purity="5.0933045148849487e-01" nType="0">
          <Node pos="l" depth="2" NCoef="0" IVar="-1" Cut="0.0000000000000000e+00" cType="1" res="4.4068954885005951e-03" rms="3.8620319962501526e-01" purity="5.4274183511734009e-01" nType="-99"/>
          <Node pos="r" depth="2" NCoef="0" IVar="-1" Cut="0.0000000000000000e+00" cType="1" res="-2.8371093794703484e-02" rms="3.5345330834388733e-01" purity="1.6001830995082855e-01" nType="-99"/>
        </Node>
        <Node pos="r" depth="1" NCoef="0" IVar="-1" Cut="0.0000000000000000e+00" cType="1" res="-4.9686159938573837e-02" rms="3.6507275700569153e-01" purity="2.1999129652976990e-01" nType="-99"/>
      </Node>
    </BinaryTree>
    <BinaryTree type="DecisionTree" boostWeight="1.0000000000000000e+00" itree="32">
      <Node pos="s" depth="0" NCoef="0" IVar="6" Cut="4.7664351463317871e+00" cType="1" res="8.5290946299210191e-04" rms="3.8706710934638977e-01" purity="4.9959084391593933e-01" nType="0">
        <Node pos="l" depth="1" NCoef="0" IVar="3" Cut="4.1177506446838379e+00" cType="1" res="3.1524147838354111e-02" rms="3.7960916757583618e-01" purity="6.5806126594543457e-01" nType="0">
          <Node pos="l" depth="2" NCoef="0" IVar="-1" Cut="0.0000000000000000e+00" cType="1" res="2.9449783265590668e-02" rms="2.7050113677978516e-01" purity="8.9028275012969971e-01" nType="-99"/>
          <Node pos="r" depth="2" NCoef="0" IVar="-1" Cut="0.0000000000000000e+00" cType="1" res="-6.9566997699439526e-03" rms="4.6336787939071655e-01" purity="4.0437993407249451e-01" nType="-99"/>
        </Node>
        <Node pos="r" depth="1" NCoef="0" IVar="4" Cut="6.7309265136718750e+01" cType="1" res="-3.3748280256986618e-02" rms="3.9244478940963745e-01" purity="3.2081535458564758e-01" nType="0">
          <Node pos="l" depth="2" NCoef="0" IVar="-1" Cut="0.0000000000000000e+00" cType="1" res="-1.8935140222311020e-02" rms="3.9391094446182251e-01" purity="2.1503232419490814e-01" nType="-99"/>
          <Node pos="r" depth="2" NCoef="0" IVar="-1" Cut="0.0000000000000000e+00" cType="1" res="2.8531517833471298e-02" rms="3.5122156143188477e-01" purity="7.7000641822814941e-01" nType="-99"/>
        </Node>
      </Node>
    </BinaryTree>
    <BinaryTree type="DecisionTree" boostWeight="1.0000000000000000e+00" itree="33">
      <Node pos="s" depth="0" NCoef="0" IVar="9" Cut="7.1348342895507812e+00" cType="1" res="-5.9294846141710877e-04" rms="3.8487952947616577e-01" purity="4.9965763092041016e-01" nType="0">
        <Node pos="l" depth="1" NCoef="0" IVar="9" Cut="1.0192227363586426e+00" cType="1" res="9.4988588243722916e-03" rms="3.8681960105895996e-01" purity="5.3126275539398193e-01" nType="0">
          <Node pos="l" depth="2" NCoef="0" IVar="-1" Cut="0.0000000000000000e+00" cType="1" res="-2.4675419554114342e-02" rms="4.2308840155601501e-01" purity="2.3558200895786285e-01" nType="-99"/>
          <Node pos="r" depth="2" NCoef="0" IVar="-1" Cut="0.0000000000000000e+00" cType="1" res="6.0730115510523319e-03" rms="3.8087704777717590e-01" purity="5.6300127506256104e-01" nType="-99"/>
        </Node>
        <Node pos="r" depth="1" NCoef="0" IVar="3" Cut="6.2511010169982910e+00" cType="1" res="-7.1318924427032471e-02" rms="3.6321341991424561e-01" purity="2.7816057205200195e-01" nType="0">
          <Node pos="l" depth="2" NCoef="0" IVar="-1" Cut="0.0000000000000000e+00" cType="1" res="-2.6118645444512367e-02" rms="4.1783922910690308e-01" purity="5.0984638929367065e-01" nType="-99"/>
          <Node pos="r" depth="2" NCoef="0" IVar="-1" Cut="0.0000000000000000e+00" cType="1" res="-2.0102752372622490e-02" rms="3.2869461178779602e-01" purity="1.5099734067916870e-01" nType="-99"/>
        </Node>
      </Node>
    </BinaryTree>
    <BinaryTree type="DecisionTree" boostWeight="1.0000000000000000e+00" itree="34">
      <Node pos="s" depth="0" NCoef="0" IVar="0" Cut="6.1142856597900391e+01" cType="1" res="-2.9537945520132780e-03" rms="3.8089221715927124e-01" purity="4.9972009658813477e-01" nType="0">
        <Node pos="l" depth="1" NCoef="0" IVar="10" Cut="4.7393841743469238e+00" cType="1" res="1.4423590619117022e-03" rms="3.8052508234977722e-01" purity="5.0701653957366943e-01" nType="0">
          <Node pos="l" depth="2" NCoef="0" IVar="-1" Cut="0.0000000000000000e+00" cType="1" res="4.2382818646728992e-03" rms="4.0133494138717651e-01" purity="6.2529933452606201e-01" nType="-99"/>
          <Node pos="r" depth="2" NCoef="0" IVar="-1" Cut="0.0000000000000000e+00" cType="1" res="-1.9655365496873856e-02" rms="2.9414716362953186e-01" purity="1.0614638775587082e-01" nType="-99"/>
        </Node>
        <Node pos="r" depth="1" NCoef="0" IVar="-1" Cut="0.0000000000000000e+00" cType="1" res="-4.5330967754125595e-02" rms="3.5505184531211853e-01" purity="2.1650259196758270e-01" nType="-99"/>
      </Node>
    </BinaryTree>
    <BinaryTree type="DecisionTree" boostWeight="1.0000000000000000e+00" itree="35">
      <Node pos="s" depth="0" NCoef="0" IVar="9" Cut="4.7555360794067383e+00" cType="1" res="2.5122640654444695e-03" rms="3.8343337178230286e-01" purity="5.0120675563812256e-01" nType="0">
        <Node pos="l" depth="1" NCoef="0" IVar="9" Cut="1.1320886611938477e+00" cType="1" res="1.6677604988217354e-02" rms="3.8841351866722107e-01" purity="5.4765254259109497e-01" nType="0">
          <Node pos="l" depth="2" NCoef="0" IVar="-1" Cut="0.0000000000000000e+00" cType="1" res="-2.2324984893202782e-02" rms="4.2417800426483154e-01" purity="2.4840781092643738e-01" nType="-99"/>
          <Node pos="r" depth="2" NCoef="0" IVar="-1" Cut="0.0000000000000000e+00" cType="1" res="9.1477725654840469e-03" rms="3.8052812218666077e-01" purity="5.9101665019989014e-01" nType="-99"/>
        </Node>
        <Node pos="r" depth="1" NCoef="0" IVar="6" Cut="5.7150848388671875e+01" cType="1" res="-4.6381786465644836e-02" rms="3.6148306727409363e-01" purity="3.4089151024818420e-01" nType="0">
          <Node pos="l" depth="2" NCoef="0" IVar="-1" Cut="0.0000000000000000e+00" cType="1" res="-1.1017226614058018e-02" rms="3.7954989075660706e-01" purity="3.8882422447204590e-01" nType="-99"/>
          <Node pos="r" depth="2" NCoef="0" IVar="-1" Cut="0.0000000000000000e+00" cType="1" res="-4.9698445945978165e-02" rms="2.0064623653888702e-01" purity="3.2892383635044098e-02" nType="-99"/>
        </Node>
      </Node>
    </BinaryTree>
    <BinaryTree type="DecisionTree" boostWeight="1.0000000000000000e+00" itree="36">
      <Node pos="s" depth="0" NCoef="0" IVar="0" Cut="6.1142856597900391e+01" cType="1" res="-3.3293766900897026e-03" rms="3.8070341944694519e-01" purity="4.9923551082611084e-01" nType="0">
        <Node pos="l" depth="1" NCoef="0" IVar="10" Cut="7.1138725280761719e+00" cType="1" res="1.3342464808374643e-03" rms="3.8028073310852051e-01" purity="5.0751614570617676e-01" nType="0">
          <Node pos="l" depth="2" NCoef="0" IVar="-1" Cut="0.0000000000000000e+00" cType="1" res="3.5236817784607410e-03" rms="4.0300065279006958e-01" purity="5.9126406908035278e-01" nType="-99"/>
          <Node pos="r" depth="2" NCoef="0" IVar="-1" Cut="0.0000000000000000e+00" cType="1" res="-3.5279665142297745e-02" rms="2.0133149623870850e-01" purity="4.1765008121728897e-02" nType="-99"/>
        </Node>
        <Node pos="r" depth="1" NCoef="0" IVar="-1" Cut="0.0000000000000000e+00" cType="1" res="-4.8729237169027328e-02" rms="3.5230803489685059e-01" purity="1.7969147861003876e-01" nType="-99"/>
      </Node>
    </BinaryTree>
    <BinaryTree type="DecisionTree" boostWeight="1.0000000000000000e+00" itree="37">
      <Node pos="s" depth="0" NCoef="0" IVar="5" Cut="4.7192566096782684e-02" cType="1" res="-3.5125492140650749e-03" rms="3.8109761476516724e-01" purity="4.9663677811622620e-01" nType="0">
        <Node pos="l" depth="1" NCoef="0" IVar="6" Cut="4.7804250717163086e+00" cType="1" res="4.3939305469393730e-03" rms="3.6661243438720703e-01" purity="5.1275026798248291e-01" nType="0">
          <Node pos="l" depth="2" NCoef="0" IVar="-1" Cut="0.0000000000000000e+00" cType="1" res="1.0222921147942543e-02" rms="3.4541216492652893e-01" purity="6.9401413202285767e-01" nType="-99"/>
          <Node pos="r" depth="2" NCoef="0" IVar="-1" Cut="0.0000000000000000e+00" cType="1" res="-7.1201054379343987e-03" rms="3.8480141758918762e-01" purity="3.2830256223678589e-01" nType="-99"/>
        </Node>
        <Node pos="r" depth="1" NCoef="0" IVar="3" Cut="7.1185350418090820e+00" cType="1" res="-7.5577169656753540e-02" rms="4.8804742097854614e-01" purity="3.4976840019226074e-01" nType="0">
          <Node pos="l" depth="2" NCoef="0" IVar="-1" Cut="0.0000000000000000e+00" cType="1" res="-5.9220388531684875e-02" rms="4.9774134159088135e-01" purity="3.5410735011100769e-01" nType="-99"/>
          <Node pos="r" depth="2" NCoef="0" IVar="-1" Cut="0.0000000000000000e+00" cType="1" res="3.9321077056229115e-03" rms="4.5777279138565063e-01" purity="3.4726729989051819e-01" nType="-99"/>
        </Node>
      </Node>
    </BinaryTree>
    <BinaryTree type="DecisionTree" boostWeight="1.0000000000000000e+00" itree="38">
      <Node pos="s" depth="0" NCoef="0" IVar="0" Cut="6.1142856597900391e+01" cType="1" res="3.2021286897361279e-03" rms="3.8145965337753296e-01" purity="5.0297862291336060e-01" nType="0">
        <Node pos="l" depth="1" NCoef="0" IVar="10" Cut="9.5172634124755859e+00" cType="1" res="6.9980239495635033e-03" rms="3.8142445683479309e-01" purity="5.1062238216400146e-01" nType="0">
          <Node pos="l" depth="2" NCoef="0" IVar="-1" Cut="0.0000000000000000e+00" cType="1" res="4.2373202741146088e-03" rms="3.9869019389152527e-01" purity="5.6946510076522827e-01" nType="-99"/>
          <Node pos="r" depth="2" NCoef="0" IVar="-1" Cut="0.0000000000000000e+00" cType="1" res="-3.8159903138875961e-02" rms="1.7366974055767059e-01" purity="2.9993936419487000e-02" nType="-99"/>
        </Node>
        <Node pos="r" depth="1" NCoef="0" IVar="-1" Cut="0.0000000000000000e+00" cType="1" res="-3.9225630462169647e-02" rms="3.5292041301727295e-01" purity="2.0813859999179840e-01" nType="-99"/>
      </Node>
    </BinaryTree>
    <BinaryTree type="DecisionTree" boostWeight="1.0000000000000000e+00" itree="39">
      <Node pos="s" depth="0" NCoef="0" IVar="6" Cut="7.1430603027343750e+01" cType="1" res="1.8690746510401368e-03" rms="3.8238397240638733e-01" purity="5.0275129079818726e-01" nType="0">
        <Node pos="l" depth="1" NCoef="0" IVar="5" Cut="4.6991124749183655e-02" cType="1" res="8.7188743054866791e-03" rms="3.8481807708740234e-01" purity="5.2883225679397583e-01" nType="0">
          <Node pos="l" depth="2" NCoef="0" IVar="-1" Cut="0.0000000000000000e+00" cType="1" res="5.2395481616258621e-03" rms="3.6932429671287537e-01" purity="5.5043774843215942e-01" nType="-99"/>
          <Node pos="r" depth="2" NCoef="0" IVar="-1" Cut="0.0000000000000000e+00" cType="1" res="-1.5971729531884193e-02" rms="4.9041545391082764e-01" purity="3.4638935327529907e-01" nType="-99"/>
        </Node>
        <Node pos="r" depth="1" NCoef="0" IVar="3" Cut="1.9762924194335938e+01" cType="1" res="-9.5489174127578735e-02" rms="3.3095210790634155e-01" purity="1.3205510377883911e-01" nType="0">
          <Node pos="l" depth="2" NCoef="0" IVar="-1" Cut="0.0000000000000000e+00" cType="1" res="-4.6533990651369095e-02" rms="3.2012620568275452e-01" purity="1.0908176749944687e-01" nType="-99"/>
          <Node pos="r" depth="2" NCoef="0" IVar="-1" Cut="0.0000000000000000e+00" cType="1" res="-2.0572101697325706e-02" rms="3.3288916945457458e-01" purity="1.4616401493549347e-01" nType="-99"/>
        </Node>
      </Node>
    </BinaryTree>
    <BinaryTree type="DecisionTree" boostWeight="1.0000000000000000e+00" itree="40">
      <Node pos="s" depth="0" NCoef="0" IVar="6" Cut="4.7664351463317871e+00" cType="1" res="-5.3657515672966838e-04" rms="3.8068842887878418e-01" purity="4.9801331758499146e-01" nType="0">
        <Node pos="l" depth="1" NCoef="0" IVar="3" Cut="4.8263339996337891e+00" cType="1" res="2.1932343021035194e-02" rms="3.7510031461715698e-01" purity="6.5478545427322388e-01" nType="0">
          <Node pos="l" depth="2" NCoef="0" IVar="-1" Cut="0.0000000000000000e+00" cType="1" res="1.9951146095991135e-02" rms="2.9474776983261108e-01" purity="8.5617119073867798e-01" nType="-99"/>
          <Node pos="r" depth="2" NCoef="0" IVar="-1" Cut="0.0000000000000000e+00" cType="1" res="-7.1505215018987656e-03" rms="4.6352827548980713e-01" purity="3.6098521947860718e-01" nType="-99"/>
        </Node>
        <Node pos="r" depth="1" NCoef="0" IVar="3" Cut="2.3525848388671875e+00" cType="1" res="-2.5971723720431328e-02" rms="3.8533911108970642e-01" purity="3.2054486870765686e-01" nType="0">
          <Node pos="l" depth="2" NCoef="0" IVar="-1" Cut="0.0000000000000000e+00" cType="1" res="-2.7749165892601013e-02" rms="4.1645234823226929e-01" purity="3.2006847858428955e-01" nType="-99"/>
          <Node pos="r" depth="2" NCoef="0" IVar="-1" Cut="0.0000000000000000e+00" cType="1" res="-5.1782629452645779e-03" rms="3.8118302822113037e-01" purity="3.2059147953987122e-01" nType="-99"/>
        </Node>
      </Node>
    </BinaryTree>
    <BinaryTree type="DecisionTree" boostWeight="1.0000000000000000e+00" itree="41">
      <Node pos="s" depth="0" NCoef="0" IVar="0" Cut="5.6285713195800781e+01" cType="1" res="3.7546618841588497e-04" rms="3.8055273890495300e-01" purity="5.0074946880340576e-01" nType="0">
        <Node pos="l" depth="1" NCoef="0" IVar="10" Cut="9.4556198120117188e+00" cType="1" res="4.1242819279432297e-03" rms="3.8064473867416382e-01" purity="5.0832355022430420e-01" nType="0">
          <Node pos="l" depth="2" NCoef="0" IVar="-1" Cut="0.0000000000000000e+00" cType="1" res="3.3130785450339317e-03" rms="3.9884302020072937e-01" purity="5.6823325157165527e-01" nType="-99"/>
          <Node pos="r" depth="2" NCoef="0" IVar="-1" Cut="0.0000000000000000e+00" cType="1" res="-3.8389343768358231e-02" rms="1.6325518488883972e-01" purity="2.7601230889558792e-02" nType="-99"/>
        </Node>
        <Node pos="r" depth="1" NCoef="0" IVar="-1" Cut="0.0000000000000000e+00" cType="1" res="-3.6606404930353165e-02" rms="3.5251551866531372e-01" purity="2.3287585377693176e-01" nType="-99"/>
      </Node>
    </BinaryTree>
    <BinaryTree type="DecisionTree" boostWeight="1.0000000000000000e+00" itree="42">
      <Node pos="s" depth="0" NCoef="0" IVar="6" Cut="8.5715103149414062e+01" cType="1" res="-4.1977482032962143e-04" rms="3.8085004687309265e-01" purity="4.9942523241043091e-01" nType="0">
        <Node pos="l" depth="1" NCoef="0" IVar="0" Cut="6.1142856597900391e+01" cType="1" res="4.1162390261888504e-03" rms="3.8290098309516907e-01" purity="5.1582366228103638e-01" nType="0">
          <Node pos="l" depth="2" NCoef="0" IVar="-1" Cut="0.0000000000000000e+00" cType="1" res="2.2887445520609617e-03" rms="3.8347870111465454e-01" purity="5.2425640821456909e-01" nType="-99"/>
          <Node pos="r" depth="2" NCoef="0" IVar="-1" Cut="0.0000000000000000e+00" cType="1" res="-3.5518754273653030e-02" rms="3.3560881018638611e-01" purity="2.0952472090721130e-01" nType="-99"/>
        </Node>
        <Node pos="r" depth="1" NCoef="0" IVar="-1" Cut="0.0000000000000000e+00" cType="1" res="-3.7122160196304321e-02" rms="3.0747041106224060e-01" purity="1.0224293172359467e-01" nType="-99"/>
      </Node>
    </BinaryTree>
    <BinaryTree type="DecisionTree" boostWeight="1.0000000000000000e+00" itree="43">
      <Node pos="s" depth="0" NCoef="0" IVar="9" Cut="7.1333041191101074e+00" cType="1" res="-6.3408154528588057e-04" rms="3.8090613484382629e-01" purity="4.9864360690116882e-01" nType="0">
        <Node pos="l" depth="1" NCoef="0" IVar="9" Cut="1.3587206602096558e+00" cType="1" res="7.2707431390881538e-03" rms="3.8372674584388733e-01" purity="5.2958112955093384e-01" nType="0">
          <Node pos="l" depth="2" NCoef="0" IVar="-1" Cut="0.0000000000000000e+00" cType="1" res="-1.2896327301859856e-02" rms="4.4099703431129456e-01" purity="2.8574767708778381e-01" nType="-99"/>
          <Node pos="r" depth="2" NCoef="0" IVar="-1" Cut="0.0000000000000000e+00" cType="1" res="5.2715498022735119e-03" rms="3.7181043624877930e-01" purity="5.7243520021438599e-01" nType="-99"/>
        </Node>
        <Node pos="r" depth="1" NCoef="0" IVar="3" Cut="1.6059133529663086e+01" cType="1" res="-5.5068552494049072e-02" rms="3.5615202784538269e-01" purity="2.8560024499893188e-01" nType="0">
          <Node pos="l" depth="2" NCoef="0" IVar="-1" Cut="0.0000000000000000e+00" cType="1" res="-1.3856209814548492e-02" rms="3.8663455843925476e-01" purity="3.5825315117835999e-01" nType="-99"/>
          <Node pos="r" depth="2" NCoef="0" IVar="-1" Cut="0.0000000000000000e+00" cType="1" res="-3.8123242557048798e-02" rms="2.3552970588207245e-01" purity="6.0534738004207611e-02" nType="-99"/>
        </Node>
      </Node>
    </BinaryTree>
    <BinaryTree type="DecisionTree" boostWeight="1.0000000000000000e+00" itree="44">
      <Node pos="s" depth="0" NCoef="0" IVar="5" Cut="4.5931518077850342e-02" cType="1" res="-7.8770873369649053e-04" rms="3.7953385710716248e-01" purity="4.9908244609832764e-01" nType="0">
        <Node pos="l" depth="1" NCoef="0" IVar="5" Cut="4.3735662475228310e-03" cType="1" res="5.6965043768286705e-03" rms="3.6494979262351990e-01" purity="5.1545709371566772e-01" nType="0">
          <Node pos="l" depth="2" NCoef="0" IVar="-1" Cut="0.0000000000000000e+00" cType="1" res="4.9613546580076218e-03" rms="3.5068190097808838e-01" purity="5.3883188962936401e-01" nType="-99"/>
          <Node pos="r" depth="2" NCoef="0" IVar="-1" Cut="0.0000000000000000e+00" cType="1" res="-1.8443448469042778e-02" rms="4.5127549767494202e-01" purity="3.3892279863357544e-01" nType="-99"/>
        </Node>
        <Node pos="r" depth="1" NCoef="0" IVar="3" Cut="6.7627472877502441e+00" cType="1" res="-5.9637460857629776e-02" rms="4.8861345648765564e-01" purity="3.5046857595443726e-01" nType="0">
          <Node pos="l" depth="2" NCoef="0" IVar="-1" Cut="0.0000000000000000e+00" cType="1" res="-5.7563476264476776e-02" rms="4.9654096364974976e-01" purity="3.3831635117530823e-01" nType="-99"/>
          <Node pos="r" depth="2" NCoef="0" IVar="-1" Cut="0.0000000000000000e+00" cType="1" res="7.5089344754815102e-03" rms="4.5926424860954285e-01" purity="3.5690143704414368e-01" nType="-99"/>
        </Node>
      </Node>
    </BinaryTree>
    <BinaryTree type="DecisionTree" boostWeight="1.0000000000000000e+00" itree="45">
      <Node pos="s" depth="0" NCoef="0" IVar="2" Cut="2.9003143310546875e-02" cType="1" res="-1.9917851313948631e-03" rms="3.7688899040222168e-01" purity="4.9756067991256714e-01" nType="0">
        <Node pos="l" depth="1" NCoef="0" IVar="10" Cut="7.1138725280761719e+00" cType="1" res="3.9570615626871586e-03" rms="3.7669140100479126e-01" purity="5.0863814353942871e-01" nType="0">
          <Node pos="l" depth="2" NCoef="0" IVar="-1" Cut="0.0000000000000000e+00" cType="1" res="3.5731550306081772e-03" rms="3.9957731962203979e-01" purity="5.9456944465637207e-01" nType="-99"/>
          <Node pos="r" depth="2" NCoef="0" IVar="-1" Cut="0.0000000000000000e+00" cType="1" res="-2.9059370979666710e-02" rms="2.0713590085506439e-01" purity="4.3864633888006210e-02" nType="-99"/>
        </Node>
        <Node pos="r" depth="1" NCoef="0" IVar="-1" Cut="0.0000000000000000e+00" cType="1" res="-6.0404542833566666e-02" rms="3.2027369737625122e-01" purity="1.0942044109106064e-01" nType="-99"/>
      </Node>
    </BinaryTree>
    <BinaryTree type="DecisionTree" boostWeight="1.0000000000000000e+00" itree="46">
      <Node pos="s" depth="0" NCoef="0" IVar="9" Cut="4.7565560340881348e+00" cType="1" res="2.7967656496912241e-03" rms="3.7785404920578003e-01" purity="5.0447863340377808e-01" nType="0">
        <Node pos="l" depth="1" NCoef="0" IVar="9" Cut="9.0598350763320923e-01" cType="1" res="1.3847576454281807e-02" rms="3.8266420364379883e-01" purity="5.5076164007186890e-01" nType="0">
          <Node pos="l" depth="2" NCoef="0" IVar="-1" Cut="0.0000000000000000e+00" cType="1" res="-2.1507453173398972e-02" rms="4.0647694468498230e-01" purity="2.2406268119812012e-01" nType="-99"/>
          <Node pos="r" depth="2" NCoef="0" IVar="-1" Cut="0.0000000000000000e+00" cType="1" res="7.0319385267794132e-03" rms="3.7872064113616943e-01" purity="5.8461457490921021e-01" nType="-99"/>
        </Node>
        <Node pos="r" depth="1" NCoef="0" IVar="9" Cut="1.3363868713378906e+01" cType="1" res="-3.5155810415744781e-02" rms="3.5826006531715393e-01" purity="3.4552556276321411e-01" nType="0">
          <Node pos="l" depth="2" NCoef="0" IVar="-1" Cut="0.0000000000000000e+00" cType="1" res="-8.5587389767169952e-03" rms="3.6530950665473938e-01" purity="3.7826395034790039e-01" nType="-99"/>
          <Node pos="r" depth="2" NCoef="0" IVar="-1" Cut="0.0000000000000000e+00" cType="1" res="-2.8090504929423332e-02" rms="3.1906259059906006e-01" purity="1.8914167582988739e-01" nType="-99"/>
        </Node>
      </Node>
    </BinaryTree>
    <BinaryTree type="DecisionTree" boostWeight="1.0000000000000000e+00" itree="47">
      <Node pos="s" depth="0" NCoef="0" IVar="5" Cut="4.7192566096782684e-02" cType="1" res="-9.4024324789643288e-04" rms="3.7846776843070984e-01" purity="4.9899306893348694e-01" nType="0">
        <Node pos="l" depth="1" NCoef="0" IVar="5" Cut="4.4927033595740795e-03" cType="1" res="5.6439936161041260e-03" rms="3.6447200179100037e-01" purity="5.1598918437957764e-01" nType="0">
          <Node pos="l" depth="2" NCoef="0" IVar="-1" Cut="0.0000000000000000e+00" cType="1" res="4.7701895236968994e-03" rms="3.5081255435943604e-01" purity="5.3933835029602051e-01" nType="-99"/>
          <Node pos="r" depth="2" NCoef="0" IVar="-1" Cut="0.0000000000000000e+00" cType="1" res="-1.7617266625165939e-02" rms="4.4921314716339111e-01" purity="3.3691835403442383e-01" nType="-99"/>
        </Node>
        <Node pos="r" depth="1" NCoef="0" IVar="3" Cut="7.5673041343688965e+00" cType="1" res="-6.0791891068220139e-02" rms="4.8350909352302551e-01" purity="3.4449610114097595e-01" nType="0">
          <Node pos="l" depth="2" NCoef="0" IVar="-1" Cut="0.0000000000000000e+00" cType="1" res="-5.0713751465082169e-02" rms="4.8851624131202698e-01" purity="3.2685652375221252e-01" nType="-99"/>
          <Node pos="r" depth="2" NCoef="0" IVar="-1" Cut="0.0000000000000000e+00" cType="1" res="6.5041631460189819e-03" rms="4.5877566933631897e-01" purity="3.5518547892570496e-01" nType="-99"/>
        </Node>
      </Node>
    </BinaryTree>
    <BinaryTree type="DecisionTree" boostWeight="1.0000000000000000e+00" itree="48">
      <Node pos="s" depth="0" NCoef="0" IVar="6" Cut="4.7736124992370605e+00" cType="1" res="-8.1461528316140175e-04" rms="3.7719139456748962e-01" purity="4.9985787272453308e-01" nType="0">
        <Node pos="l" depth="1" NCoef="0" IVar="3" Cut="4.1583733558654785e+00" cType="1" res="1.8080331385135651e-02" rms="3.6944022774696350e-01" purity="6.5518838167190552e-01" nType="0">
          <Node pos="l" depth="2" NCoef="0" IVar="-1" Cut="0.0000000000000000e+00" cType="1" res="2.4677164852619171e-02" rms="2.6026055216789246e-01" purity="8.8979774713516235e-01" nType="-99"/>
          <Node pos="r" depth="2" NCoef="0" IVar="-1" Cut="0.0000000000000000e+00" cType="1" res="-8.3480505272746086e-03" rms="4.5650541782379150e-01" purity="3.9296206831932068e-01" nType="-99"/>
        </Node>
        <Node pos="r" depth="1" NCoef="0" IVar="4" Cut="6.6225006103515625e+01" cType="1" res="-2.2134171798825264e-02" rms="3.8463732600212097e-01" purity="3.2459533214569092e-01" nType="0">
          <Node pos="l" depth="2" NCoef="0" IVar="-1" Cut="0.0000000000000000e+00" cType="1" res="-1.5169154852628708e-02" rms="3.8956499099731445e-01" purity="2.1419847011566162e-01" nType="-99"/>
          <Node pos="r" depth="2" NCoef="0" IVar="-1" Cut="0.0000000000000000e+00" cType="1" res="2.6371616870164871e-02" rms="3.3882197737693787e-01" purity="7.7451288700103760e-01" nType="-99"/>
        </Node>
      </Node>
    </BinaryTree>
    <BinaryTree type="DecisionTree" boostWeight="1.0000000000000000e+00" itree="49">
      <Node pos="s" depth="0" NCoef="0" IVar="0" Cut="6.6000000000000000e+01" cType="1" res="-4.5330700231716037e-05" rms="3.7697720527648926e-01" purity="5.0012570619583130e-01" nType="0">
        <Node pos="l" depth="1" NCoef="0" IVar="10" Cut="7.1138725280761719e+00" cType="1" res="2.7054562233388424e-03" rms="3.7747585773468018e-01" purity="5.0813728570938110e-01" nType="0">
          <Node pos="l" depth="2" NCoef="0" IVar="-1" Cut="0.0000000000000000e+00" cType="1" res="2.8722076676785946e-03" rms="4.0012964606285095e-01" purity="5.9206646680831909e-01" nType="-99"/>
          <Node pos="r" depth="2" NCoef="0" IVar="-1" Cut="0.0000000000000000e+00" cType="1" res="-2.6605850085616112e-02" rms="2.0777143537998199e-01" purity="4.4980224221944809e-02" nType="-99"/>
        </Node>
        <Node pos="r" depth="1" NCoef="0" IVar="-1" Cut="0.0000000000000000e+00" cType="1" res="-3.1402010470628738e-02" rms="3.4101083874702454e-01" purity="1.9307669997215271e-01" nType="-99"/>
      </Node>
    </BinaryTree>
    <BinaryTree type="DecisionTree" boostWeight="1.0000000000000000e+00" itree="50">
      <Node pos="s" depth="0" NCoef="0" IVar="2" Cut="2.9003143310546875e-02" cType="1" res="3.3657883759588003e-03" rms="3.7836039066314697e-01" purity="5.0328975915908813e-01" nType="0">
        <Node pos="l" depth="1" NCoef="0" IVar="6" Cut="7.1430198669433594e+01" cType="1" res="8.6267450824379921e-03" rms="3.7859749794006348e-01" purity="5.1409995555877686e-01" nType="0">
          <Node pos="l" depth="2" NCoef="0" IVar="-1" Cut="0.0000000000000000e+00" cType="1" res="4.0990966372191906e-03" rms="3.8060438632965088e-01" purity="5.4043585062026978e-01" nType="-99"/>
          <Node pos="r" depth="2" NCoef="0" IVar="-1" Cut="0.0000000000000000e+00" cType="1" res="-2.0853498950600624e-02" rms="3.4203445911407471e-01" purity="1.4636734127998352e-01" nType="-99"/>
        </Node>
        <Node pos="r" depth="1" NCoef="0" IVar="-1" Cut="0.0000000000000000e+00" cType="1" res="-5.4289102554321289e-02" rms="3.1869837641716003e-01" purity="1.2276106327772141e-01" nType="-99"/>
      </Node>
    </BinaryTree>
    <BinaryTree type="DecisionTree" boostWeight="1.0000000000000000e+00" itree="51">
      <Node pos="s" depth="0" NCoef="0" IVar="5" Cut="4.6990998089313507e-02" cType="1" res="2.4173988495022058e-03" rms="3.7958762049674988e-01" purity="5.0150352716445923e-01" nType="0">
        <Node pos="l" depth="1" NCoef="0" IVar="2" Cut="2.9003143310546875e-02" cType="1" res="8.2845306023955345e-03" rms="3.6584582924842834e-01" purity="5.1863807439804077e-01" nType="0">
          <Node pos="l" depth="2" NCoef="0" IVar="-1" Cut="0.0000000000000000e+00" cType="1" res="4.1988370940089226e-03" rms="3.6551699042320251e-01" purity="5.3077352046966553e-01" nType="-99"/>
          <Node pos="r" depth="2" NCoef="0" IVar="-1" Cut="0.0000000000000000e+00" cType="1" res="-4.6458195894956589e-02" rms="3.3923923969268799e-01" purity="1.3719940185546875e-01" nType="-99"/>
        </Node>
        <Node pos="r" depth="1" NCoef="0" IVar="3" Cut="7.1185350418090820e+00" cType="1" res="-5.1281441003084183e-02" rms="4.8439916968345642e-01" purity="3.4468054771423340e-01" nType="0">
          <Node pos="l" depth="2" NCoef="0" IVar="-1" Cut="0.0000000000000000e+00" cType="1" res="-4.3473172932863235e-02" rms="5.0268423557281494e-01" purity="3.3895978331565857e-01" nType="-99"/>
          <Node pos="r" depth="2" NCoef="0" IVar="-1" Cut="0.0000000000000000e+00" cType="1" res="4.9620890058577061e-03" rms="4.5849576592445374e-01" purity="3.4795174002647400e-01" nType="-99"/>
        </Node>
      </Node>
    </BinaryTree>
    <BinaryTree type="DecisionTree" boostWeight="1.0000000000000000e+00" itree="52">
      <Node pos="s" depth="0" NCoef="0" IVar="6" Cut="4.7686715126037598e+00" cType="1" res="-3.5474675241857767e-03" rms="3.7421393394470215e-01" purity="4.9948775768280029e-01" nType="0">
        <Node pos="l" depth="1" NCoef="0" IVar="3" Cut="3.3179302215576172e+00" cType="1" res="1.5381284058094025e-02" rms="3.6703321337699890e-01" purity="6.5875905752182007e-01" nType="0">
          <Node pos="l" depth="2" NCoef="0" IVar="-1" Cut="0.0000000000000000e+00" cType="1" res="3.0760550871491432e-02" rms="2.2773052752017975e-01" purity="9.1894203424453735e-01" nType="-99"/>
          <Node pos="r" depth="2" NCoef="0" IVar="-1" Cut="0.0000000000000000e+00" cType="1" res="-7.6274694874882698e-03" rms="4.3959045410156250e-01" purity="4.6098235249519348e-01" nType="-99"/>
        </Node>
        <Node pos="r" depth="1" NCoef="0" IVar="4" Cut="6.7232582092285156e+01" cType="1" res="-2.5234531611204147e-02" rms="3.8112145662307739e-01" purity="3.1700736284255981e-01" nType="0">
          <Node pos="l" depth="2" NCoef="0" IVar="-1" Cut="0.0000000000000000e+00" cType="1" res="-1.6088783740997314e-02" rms="3.8550412654876709e-01" purity="2.0500481128692627e-01" nType="-99"/>
          <Node pos="r" depth="2" NCoef="0" IVar="-1" Cut="0.0000000000000000e+00" cType="1" res="2.4908367544412613e-02" rms="3.3978229761123657e-01" purity="7.7344864606857300e-01" nType="-99"/>
        </Node>
      </Node>
    </BinaryTree>
    <BinaryTree type="DecisionTree" boostWeight="1.0000000000000000e+00" itree="53">
      <Node pos="s" depth="0" NCoef="0" IVar="9" Cut="7.1348342895507812e+00" cType="1" res="9.4405293930321932e-04" rms="3.7598842382431030e-01" purity="5.0151151418685913e-01" nType="0">
        <Node pos="l" depth="1" NCoef="0" IVar="9" Cut="1.6987046003341675e+00" cType="1" res="7.6895901001989841e-03" rms="3.7918981909751892e-01" purity="5.3370791673660278e-01" nType="0">
          <Node pos="l" depth="2" NCoef="0" IVar="-1" Cut="0.0000000000000000e+00" cType="1" res="-9.2618996277451515e-03" rms="4.4742882251739502e-01" purity="3.1898286938667297e-01" nType="-99"/>
          <Node pos="r" depth="2" NCoef="0" IVar="-1" Cut="0.0000000000000000e+00" cType="1" res="6.2682619318366051e-03" rms="3.5784307122230530e-01" purity="5.9111201763153076e-01" nType="-99"/>
        </Node>
        <Node pos="r" depth="1" NCoef="0" IVar="10" Cut="2.3673570156097412e+00" cType="1" res="-4.7559469938278198e-02" rms="3.4828671813011169e-01" purity="2.7000460028648376e-01" nType="0">
          <Node pos="l" depth="2" NCoef="0" IVar="-1" Cut="0.0000000000000000e+00" cType="1" res="-1.3952873414382339e-03" rms="4.2681249976158142e-01" purity="4.1027972102165222e-01" nType="-99"/>
          <Node pos="r" depth="2" NCoef="0" IVar="-1" Cut="0.0000000000000000e+00" cType="1" res="-2.5211693719029427e-02" rms="3.1464546918869019e-01" purity="2.2056904435157776e-01" nType="-99"/>
        </Node>
      </Node>
    </BinaryTree>
    <BinaryTree type="DecisionTree" boostWeight="1.0000000000000000e+00" itree="54">
      <Node pos="s" depth="0" NCoef="0" IVar="9" Cut="4.7565560340881348e+00" cType="1" res="-4.2172483517788351e-05" rms="3.7518003582954407e-01" purity="4.9987131357192993e-01" nType="0">
        <Node pos="l" depth="1" NCoef="0" IVar="3" Cut="1.5300328254699707e+01" cType="1" res="9.9230334162712097e-03" rms="3.8042944669723511e-01" purity="5.4728251695632935e-01" nType="0">
          <Node pos="l" depth="2" NCoef="0" IVar="-1" Cut="0.0000000000000000e+00" cType="1" res="-6.5148080466315150e-04" rms="3.5923418402671814e-01" purity="6.0077953338623047e-01" nType="-99"/>
          <Node pos="r" depth="2" NCoef="0" IVar="-1" Cut="0.0000000000000000e+00" cType="1" res="1.4417404308915138e-02" rms="4.4846734404563904e-01" purity="3.4606319665908813e-01" nType="-99"/>
        </Node>
        <Node pos="r" depth="1" NCoef="0" IVar="9" Cut="1.1212105751037598e+01" cType="1" res="-3.4596197307109833e-02" rms="3.5421463847160339e-01" purity="3.3547455072402954e-01" nType="0">
          <Node pos="l" depth="2" NCoef="0" IVar="-1" Cut="0.0000000000000000e+00" cType="1" res="-9.0317539870738983e-03" rms="3.5954877734184265e-01" purity="3.7567362189292908e-01" nType="-99"/>
          <Node pos="r" depth="2" NCoef="0" IVar="-1" Cut="0.0000000000000000e+00" cType="1" res="-2.0850356668233871e-02" rms="3.3707529306411743e-01" purity="2.1747800707817078e-01" nType="-99"/>
        </Node>
      </Node>
    </BinaryTree>
    <BinaryTree type="DecisionTree" boostWeight="1.0000000000000000e+00" itree="55">
      <Node pos="s" depth="0" NCoef="0" IVar="6" Cut="4.7664351463317871e+00" cType="1" res="-4.3469353113323450e-04" rms="3.7391948699951172e-01" purity="5.0223612785339355e-01" nType="0">
        <Node pos="l" depth="1" NCoef="0" IVar="3" Cut="4.8263339996337891e+00" cType="1" res="1.4725295826792717e-02" rms="3.6666879057884216e-01" purity="6.5874326229095459e-01" nType="0">
          <Node pos="l" depth="2" NCoef="0" IVar="-1" Cut="0.0000000000000000e+00" cType="1" res="1.5043945983052254e-02" rms="2.8597301244735718e-01" purity="8.5689616203308105e-01" nType="-99"/>
          <Node pos="r" depth="2" NCoef="0" IVar="-1" Cut="0.0000000000000000e+00" cType="1" res="-5.1360293291509151e-03" rms="4.5883134007453918e-01" purity="3.6475306749343872e-01" nType="-99"/>
        </Node>
        <Node pos="r" depth="1" NCoef="0" IVar="4" Cut="6.4591842651367188e+01" cType="1" res="-1.7612205818295479e-02" rms="3.8124102354049683e-01" purity="3.2490074634552002e-01" nType="0">
          <Node pos="l" depth="2" NCoef="0" IVar="-1" Cut="0.0000000000000000e+00" cType="1" res="-1.2488106265664101e-02" rms="3.8812273740768433e-01" purity="2.1324563026428223e-01" nType="-99"/>
          <Node pos="r" depth="2" NCoef="0" IVar="-1" Cut="0.0000000000000000e+00" cType="1" res="2.1306511014699936e-02" rms="3.3742690086364746e-01" purity="7.6507329940795898e-01" nType="-99"/>
        </Node>
      </Node>
    </BinaryTree>
    <BinaryTree type="DecisionTree" boostWeight="1.0000000000000000e+00" itree="56">
      <Node pos="s" depth="0" NCoef="0" IVar="9" Cut="4.7565560340881348e+00" cType="1" res="1.5979348681867123e-03" rms="3.7300318479537964e-01" purity="5.0624275207519531e-01" nType="0">
        <Node pos="l" depth="1" NCoef="0" IVar="9" Cut="6.7947053909301758e-01" cType="1" res="9.2704128473997116e-03" rms="3.7723940610885620e-01" purity="5.5257683992385864e-01" nType="0">
          <Node pos="l" depth="2" NCoef="0" IVar="-1" Cut="0.0000000000000000e+00" cType="1" res="-2.6324056088924408e-02" rms="3.7464600801467896e-01" purity="1.7668208479881287e-01" nType="-99"/>
          <Node pos="r" depth="2" NCoef="0" IVar="-1" Cut="0.0000000000000000e+00" cType="1" res="4.9428390339016914e-03" rms="3.7642166018486023e-01" purity="5.7724273204803467e-01" nType="-99"/>
        </Node>
        <Node pos="r" depth="1" NCoef="0" IVar="6" Cut="5.2387859344482422e+01" cType="1" res="-2.4848941713571548e-02" rms="3.5675460100173950e-01" purity="3.4653016924858093e-01" nType="0">
          <Node pos="l" depth="2" NCoef="0" IVar="-1" Cut="0.0000000000000000e+00" cType="1" res="-6.0355165041983128e-03" rms="3.7611785531044006e-01" purity="3.9879706501960754e-01" nType="-99"/>
          <Node pos="r" depth="2" NCoef="0" IVar="-1" Cut="0.0000000000000000e+00" cType="1" res="-3.4956358373165131e-02" rms="2.1230429410934448e-01" purity="4.9186669290065765e-02" nType="-99"/>
        </Node>
      </Node>
    </BinaryTree>
    <BinaryTree type="DecisionTree" boostWeight="1.0000000000000000e+00" itree="57">
      <Node pos="s" depth="0" NCoef="0" IVar="6" Cut="4.7664351463317871e+00" cType="1" res="-8.0135819735005498e-04" rms="3.7347680330276489e-01" purity="5.0020343065261841e-01" nType="0">
        <Node pos="l" depth="1" NCoef="0" IVar="3" Cut="4.1177506446838379e+00" cType="1" res="1.3184124603867531e-02" rms="3.6654832959175110e-01" purity="6.5723687410354614e-01" nType="0">
          <Node pos="l" depth="2" NCoef="0" IVar="-1" Cut="0.0000000000000000e+00" cType="1" res="2.0793855190277100e-02" rms="2.5806233286857605e-01" purity="8.9113074541091919e-01" nType="-99"/>
          <Node pos="r" depth="2" NCoef="0" IVar="-1" Cut="0.0000000000000000e+00" cType="1" res="-6.7222737707197666e-03" rms="4.5337113738059998e-01" purity="4.0131330490112305e-01" nType="-99"/>
        </Node>
        <Node pos="r" depth="1" NCoef="0" IVar="4" Cut="6.4418685913085938e+01" cType="1" res="-1.6531798988580704e-02" rms="3.8050553202629089e-01" purity="3.2357713580131531e-01" nType="0">
          <Node pos="l" depth="2" NCoef="0" IVar="-1" Cut="0.0000000000000000e+00" cType="1" res="-1.1600943282246590e-02" rms="3.8722810149192810e-01" purity="2.1175000071525574e-01" nType="-99"/>
          <Node pos="r" depth="2" NCoef="0" IVar="-1" Cut="0.0000000000000000e+00" cType="1" res="1.8941204994916916e-02" rms="3.4090852737426758e-01" purity="7.6018673181533813e-01" nType="-99"/>
        </Node>
      </Node>
    </BinaryTree>
    <BinaryTree type="DecisionTree" boostWeight="1.0000000000000000e+00" itree="58">
      <Node pos="s" depth="0" NCoef="0" IVar="6" Cut="8.5714965820312500e+01" cType="1" res="3.7780627608299255e-03" rms="3.7474232912063599e-01" purity="5.0571185350418091e-01" nType="0">
        <Node pos="l" depth="1" NCoef="0" IVar="3" Cut="1.8336856842041016e+01" cType="1" res="7.0532900281250477e-03" rms="3.7703892588615417e-01" purity="5.2207177877426147e-01" nType="0">
          <Node pos="l" depth="2" NCoef="0" IVar="-1" Cut="0.0000000000000000e+00" cType="1" res="-2.7665751986205578e-04" rms="3.6548966169357300e-01" purity="5.5440145730972290e-01" nType="-99"/>
          <Node pos="r" depth="2" NCoef="0" IVar="-1" Cut="0.0000000000000000e+00" cType="1" res="1.5690794214606285e-02" rms="4.3849086761474609e-01" purity="3.2271587848663330e-01" nType="-99"/>
        </Node>
        <Node pos="r" depth="1" NCoef="0" IVar="-1" Cut="0.0000000000000000e+00" cType="1" res="-2.8760356828570366e-02" rms="3.0259639024734497e-01" purity="1.0586775094270706e-01" nType="-99"/>
      </Node>
    </BinaryTree>
    <BinaryTree type="DecisionTree" boostWeight="1.0000000000000000e+00" itree="59">
      <Node pos="s" depth="0" NCoef="0" IVar="3" Cut="1.9446701049804688e+01" cType="1" res="-3.1919251196086407e-03" rms="3.7464857101440430e-01" purity="4.9610462784767151e-01" nType="0">
        <Node pos="l" depth="1" NCoef="0" IVar="3" Cut="4.1275830268859863e+00" cType="1" res="-9.1950166970491409e-03" rms="3.6601987481117249e-01" purity="5.3308343887329102e-01" nType="0">
          <Node pos="l" depth="2" NCoef="0" IVar="-1" Cut="0.0000000000000000e+00" cType="1" res="1.1779705993831158e-02" rms="2.8451329469680786e-01" purity="8.1581443548202515e-01" nType="-99"/>
          <Node pos="r" depth="2" NCoef="0" IVar="-1" Cut="0.0000000000000000e+00" cType="1" res="-1.0185564868152142e-02" rms="4.1049554944038391e-01" purity="3.3969384431838989e-01" nType="-99"/>
        </Node>
        <Node pos="r" depth="1" NCoef="0" IVar="9" Cut="2.3771929740905762e+00" cType="1" res="3.1482037156820297e-02" rms="4.1936337947845459e-01" purity="2.8251469135284424e-01" nType="0">
          <Node pos="l" depth="2" NCoef="0" IVar="-1" Cut="0.0000000000000000e+00" cType="1" res="2.0733270794153214e-02" rms="4.5565837621688843e-01" purity="3.6860904097557068e-01" nType="-99"/>
          <Node pos="r" depth="2" NCoef="0" IVar="-1" Cut="0.0000000000000000e+00" cType="1" res="-9.1864010319113731e-03" rms="3.6333373188972473e-01" purity="1.8014504015445709e-01" nType="-99"/>
        </Node>
      </Node>
    </BinaryTree>
    <BinaryTree type="DecisionTree" boostWeight="1.0000000000000000e+00" itree="60">
      <Node pos="s" depth="0" NCoef="0" IVar="6" Cut="4.7718696594238281e+00" cType="1" res="8.0392952077090740e-04" rms="3.7366920709609985e-01" purity="4.9997907876968384e-01" nType="0">
        <Node pos="l" depth="1" NCoef="0" IVar="3" Cut="4.1113514900207520e+00" cType="1" res="1.3854272663593292e-02" rms="3.6614218354225159e-01" purity="6.5636849403381348e-01" nType="0">
          <Node pos="l" depth="2" NCoef="0" IVar="-1" Cut="0.0000000000000000e+00" cType="1" res="1.9848179072141647e-02" rms="2.5861027836799622e-01" purity="8.9361912012100220e-01" nType="-99"/>
          <Node pos="r" depth="2" NCoef="0" IVar="-1" Cut="0.0000000000000000e+00" cType="1" res="-5.3103487007319927e-03" rms="4.5380055904388428e-01" purity="3.9456769824028015e-01" nType="-99"/>
        </Node>
        <Node pos="r" depth="1" NCoef="0" IVar="4" Cut="6.6705436706542969e+01" cType="1" res="-1.3861875981092453e-02" rms="3.8141852617263794e-01" purity="3.2423076033592224e-01" nType="0">
          <Node pos="l" depth="2" NCoef="0" IVar="-1" Cut="0.0000000000000000e+00" cType="1" res="-1.0321090929210186e-02" rms="3.8899862766265869e-01" purity="2.1330717206001282e-01" nType="-99"/>
          <Node pos="r" depth="2" NCoef="0" IVar="-1" Cut="0.0000000000000000e+00" cType="1" res="1.8874010071158409e-02" rms="3.3799278736114502e-01" purity="7.7356529235839844e-01" nType="-99"/>
        </Node>
      </Node>
    </BinaryTree>
    <BinaryTree type="DecisionTree" boostWeight="1.0000000000000000e+00" itree="61">
      <Node pos="s" depth="0" NCoef="0" IVar="3" Cut="1.5410339355468750e+01" cType="1" res="8.7653804803267121e-04" rms="3.7432417273521423e-01" purity="5.0021529197692871e-01" nType="0">
        <Node pos="l" depth="1" NCoef="0" IVar="3" Cut="3.8033332824707031e+00" cType="1" res="-7.0011313073337078e-03" rms="3.6283510923385620e-01" purity="5.5865180492401123e-01" nType="0">
          <Node pos="l" depth="2" NCoef="0" IVar="-1" Cut="0.0000000000000000e+00" cType="1" res="1.3814046978950500e-02" rms="2.7739298343658447e-01" purity="8.2558357715606689e-01" nType="-99"/>
          <Node pos="r" depth="2" NCoef="0" IVar="-1" Cut="0.0000000000000000e+00" cType="1" res="-9.9955378100275993e-03" rms="4.0935072302818298e-01" purity="3.7419623136520386e-01" nType="-99"/>
        </Node>
        <Node pos="r" depth="1" NCoef="0" IVar="4" Cut="1.0291203498840332e+01" cType="1" res="3.0286673456430435e-02" rms="4.1308683156967163e-01" purity="2.8205084800720215e-01" nType="0">
          <Node pos="l" depth="2" NCoef="0" IVar="-1" Cut="0.0000000000000000e+00" cType="1" res="1.6276350244879723e-02" rms="4.2396917939186096e-01" purity="3.0812090635299683e-01" nType="-99"/>
          <Node pos="r" depth="2" NCoef="0" IVar="-1" Cut="0.0000000000000000e+00" cType="1" res="-6.6882283426821232e-03" rms="3.8419032096862793e-01" purity="2.2768943011760712e-01" nType="-99"/>
        </Node>
      </Node>
    </BinaryTree>
    <BinaryTree type="DecisionTree" boostWeight="1.0000000000000000e+00" itree="62">
      <Node pos="s" depth="0" NCoef="0" IVar="5" Cut="4.6990998089313507e-02" cType="1" res="-4.5409917947836220e-04" rms="3.7317752838134766e-01" purity="5.0035494565963745e-01" nType="0">
        <Node pos="l" depth="1" NCoef="0" IVar="5" Cut="6.7099323496222496e-03" cType="1" res="3.8666997570544481e-03" rms="3.5795307159423828e-01" purity="5.1692700386047363e-01" nType="0">
          <Node pos="l" depth="2" NCoef="0" IVar="-1" Cut="0.0000000000000000e+00" cType="1" res="3.1432025134563446e-03" rms="3.4620958566665649e-01" purity="5.3488761186599731e-01" nType="-99"/>
          <Node pos="r" depth="2" NCoef="0" IVar="-1" Cut="0.0000000000000000e+00" cType="1" res="-1.3234224170446396e-02" rms="4.5476102828979492e-01" purity="3.3937278389930725e-01" nType="-99"/>
        </Node>
        <Node pos="r" depth="1" NCoef="0" IVar="3" Cut="7.5673122406005859e+00" cType="1" res="-4.0215797722339630e-02" rms="4.8983794450759888e-01" purity="3.4785234928131104e-01" nType="0">
          <Node pos="l" depth="2" NCoef="0" IVar="-1" Cut="0.0000000000000000e+00" cType="1" res="-4.3971974402666092e-02" rms="5.0904875993728638e-01" purity="3.2720392942428589e-01" nType="-99"/>
          <Node pos="r" depth="2" NCoef="0" IVar="-1" Cut="0.0000000000000000e+00" cType="1" res="8.2793887704610825e-03" rms="4.6249848604202271e-01" purity="3.5944592952728271e-01" nType="-99"/>
        </Node>
      </Node>
    </BinaryTree>
    <BinaryTree type="DecisionTree" boostWeight="1.0000000000000000e+00" itree="63">
      <Node pos="s" depth="0" NCoef="0" IVar="2" Cut="2.9003143310546875e-02" cType="1" res="-3.5399689804762602e-03" rms="3.7144368886947632e-01" purity="4.9790915846824646e-01" nType="0">
        <Node pos="l" depth="1" NCoef="0" IVar="10" Cut="7.1379475593566895e+00" cType="1" res="6.6686130594462156e-04" rms="3.7204241752624512e-01" purity="5.0887310504913330e-01" nType="0">
          <Node pos="l" depth="2" NCoef="0" IVar="-1" Cut="0.0000000000000000e+00" cType="1" res="2.0086346194148064e-03" rms="3.9435324072837830e-01" purity="5.9336340427398682e-01" nType="-99"/>
          <Node pos="r" depth="2" NCoef="0" IVar="-1" Cut="0.0000000000000000e+00" cType="1" res="-2.4761900305747986e-02" rms="2.0705340802669525e-01" purity="4.3549668043851852e-02" nType="-99"/>
        </Node>
        <Node pos="r" depth="1" NCoef="0" IVar="-1" Cut="0.0000000000000000e+00" cType="1" res="-4.9955278635025024e-02" rms="3.1578791141510010e-01" purity="1.1179707944393158e-01" nType="-99"/>
      </Node>
    </BinaryTree>
    <BinaryTree type="DecisionTree" boostWeight="1.0000000000000000e+00" itree="64">
      <Node pos="s" depth="0" NCoef="0" IVar="6" Cut="7.6191612243652344e+01" cType="1" res="-4.8956894315779209e-03" rms="3.7174925208091736e-01" purity="4.9476245045661926e-01" nType="0">
        <Node pos="l" depth="1" NCoef="0" IVar="9" Cut="4.7527542114257812e+00" cType="1" res="-1.4786570100113750e-03" rms="3.7448564171791077e-01" purity="5.1803499460220337e-01" nType="0">
          <Node pos="l" depth="2" NCoef="0" IVar="-1" Cut="0.0000000000000000e+00" cType="1" res="1.8310089362785220e-03" rms="3.7703618407249451e-01" purity="5.6014901399612427e-01" nType="-99"/>
          <Node pos="r" depth="2" NCoef="0" IVar="-1" Cut="0.0000000000000000e+00" cType="1" res="-9.4638653099536896e-03" rms="3.6401513218879700e-01" purity="3.6723554134368896e-01" nType="-99"/>
        </Node>
        <Node pos="r" depth="1" NCoef="0" IVar="4" Cut="4.8176636695861816e+00" cType="1" res="-5.9895858168601990e-02" rms="3.1955730915069580e-01" purity="1.2017012387514114e-01" nType="0">
          <Node pos="l" depth="2" NCoef="0" IVar="-1" Cut="0.0000000000000000e+00" cType="1" res="-2.2793002426624298e-03" rms="3.5956647992134094e-01" purity="1.7238336801528931e-01" nType="-99"/>
          <Node pos="r" depth="2" NCoef="0" IVar="-1" Cut="0.0000000000000000e+00" cType="1" res="-4.0154550224542618e-02" rms="2.7613186836242676e-01" purity="7.8475929796695709e-02" nType="-99"/>
        </Node>
      </Node>
    </BinaryTree>
    <BinaryTree type="DecisionTree" boostWeight="1.0000000000000000e+00" itree="65">
      <Node pos="s" depth="0" NCoef="0" IVar="9" Cut="4.7565560340881348e+00" cType="1" res="-1.1528233299031854e-03" rms="3.7103345990180969e-01" purity="4.9953392148017883e-01" nType="0">
        <Node pos="l" depth="1" NCoef="0" IVar="9" Cut="1.5854312181472778e+00" cType="1" res="6.3637350685894489e-03" rms="3.7561050057411194e-01" purity="5.4821681976318359e-01" nType="0">
          <Node pos="l" depth="2" NCoef="0" IVar="-1" Cut="0.0000000000000000e+00" cType="1" res="-8.3078900352120399e-03" rms="4.4080573320388794e-01" purity="3.0166572332382202e-01" nType="-99"/>
          <Node pos="r" depth="2" NCoef="0" IVar="-1" Cut="0.0000000000000000e+00" cType="1" res="5.5440990254282951e-03" rms="3.5527515411376953e-01" purity="6.1477649211883545e-01" nType="-99"/>
        </Node>
        <Node pos="r" depth="1" NCoef="0" IVar="3" Cut="6.5502805709838867e+00" cType="1" res="-2.7171719819307327e-02" rms="3.5350209474563599e-01" purity="3.3101603388786316e-01" nType="0">
          <Node pos="l" depth="2" NCoef="0" IVar="-1" Cut="0.0000000000000000e+00" cType="1" res="-1.4402574859559536e-02" rms="3.8653892278671265e-01" purity="5.7339000701904297e-01" nType="-99"/>
          <Node pos="r" depth="2" NCoef="0" IVar="-1" Cut="0.0000000000000000e+00" cType="1" res="-5.2824234589934349e-03" rms="3.2624855637550354e-01" purity="1.5231862664222717e-01" nType="-99"/>
        </Node>
      </Node>
    </BinaryTree>
    <BinaryTree type="DecisionTree" boostWeight="1.0000000000000000e+00" itree="66">
      <Node pos="s" depth="0" NCoef="0" IVar="3" Cut="1.4957212448120117e+01" cType="1" res="8.0002682807389647e-06" rms="3.7206918001174927e-01" purity="4.9821779131889343e-01" nType="0">
