<?xml version="1.0"?>
<MethodSetup Method="BDT::BDTG">
  <GeneralInfo>
    <Info name="TMVA Release" value="4.2.1 [262657]"/>
    <Info name="ROOT Release" value="6.22/06 [398854]"/>
    <Info name="Creator" value="imawby"/>
    <Info name="Date" value="Thu Jul  8 11:26:20 2021"/>
    <Info name="Host" value="Linux buildservice004.fnal.gov 3.10.0-1160.11.1.el7.x86_64 #1 SMP Tue Dec 15 08:51:23 CST 2020 x86_64 x86_64 x86_64 GNU/Linux"/>
    <Info name="Dir" value="/dune/app/users/imawby/selection/trainings/pandizzle"/>
    <Info name="Training events" value="200310"/>
    <Info name="TrainingTime" value="1.55288632e+02"/>
    <Info name="AnalysisType" value="Classification"/>
  </GeneralInfo>
  <Options>
    <Option name="V" modified="Yes">False</Option>
    <Option name="VerbosityLevel" modified="No">Default</Option>
    <Option name="VarTransform" modified="No">None</Option>
    <Option name="H" modified="Yes">False</Option>
    <Option name="CreateMVAPdfs" modified="No">False</Option>
    <Option name="IgnoreNegWeightsInTraining" modified="No">False</Option>
    <Option name="NTrees" modified="Yes">1000</Option>
    <Option name="MaxDepth" modified="Yes">2</Option>
    <Option name="MinNodeSize" modified="Yes">2.5%</Option>
    <Option name="nCuts" modified="Yes">20</Option>
    <Option name="BoostType" modified="Yes">Grad</Option>
    <Option name="AdaBoostR2Loss" modified="No">quadratic</Option>
    <Option name="UseBaggedBoost" modified="Yes">True</Option>
    <Option name="Shrinkage" modified="Yes">1.000000e-01</Option>
    <Option name="AdaBoostBeta" modified="No">5.000000e-01</Option>
    <Option name="UseRandomisedTrees" modified="No">False</Option>
    <Option name="UseNvars" modified="No">4</Option>
    <Option name="UsePoissonNvars" modified="No">True</Option>
    <Option name="BaggedSampleFraction" modified="Yes">5.000000e-01</Option>
    <Option name="UseYesNoLeaf" modified="No">True</Option>
    <Option name="NegWeightTreatment" modified="No">pray</Option>
    <Option name="Css" modified="No">1.000000e+00</Option>
    <Option name="Cts_sb" modified="No">1.000000e+00</Option>
    <Option name="Ctb_ss" modified="No">1.000000e+00</Option>
    <Option name="Cbb" modified="No">1.000000e+00</Option>
    <Option name="NodePurityLimit" modified="No">5.000000e-01</Option>
    <Option name="SeparationType" modified="No">giniindex</Option>
    <Option name="RegressionLossFunctionBDTG" modified="No">huber</Option>
    <Option name="HuberQuantile" modified="No">7.000000e-01</Option>
    <Option name="DoBoostMonitor" modified="No">False</Option>
    <Option name="UseFisherCuts" modified="No">False</Option>
    <Option name="MinLinCorrForFisher" modified="No">8.000000e-01</Option>
    <Option name="UseExclusiveVars" modified="No">False</Option>
    <Option name="DoPreselection" modified="No">False</Option>
    <Option name="SigToBkgFraction" modified="No">1.000000e+00</Option>
    <Option name="PruneMethod" modified="No">nopruning</Option>
    <Option name="PruneStrength" modified="No">0.000000e+00</Option>
    <Option name="PruningValFraction" modified="No">5.000000e-01</Option>
    <Option name="SkipNormalization" modified="No">False</Option>
    <Option name="nEventsMin" modified="No">0</Option>
    <Option name="UseBaggedGrad" modified="No">False</Option>
    <Option name="GradBaggingFraction" modified="No">5.000000e-01</Option>
    <Option name="UseNTrainEvents" modified="No">0</Option>
    <Option name="NNodesMax" modified="No">0</Option>
  </Options>
  <Variables NVar="12">
    <Variable VarIndex="0" Expression="PFPMichelNHits" Label="PFPMichelNHits" Title="NHits in Michel candidate" Unit="" Internal="PFPMichelNHits" Type="F" Min="-2.00000000e+00" Max="1.00000000e+02"/>
    <Variable VarIndex="1" Expression="PFPMichelElectronMVA" Label="PFPMichelElectronMVA" Title="Electron-like MVA for Michel candidate" Unit="" Internal="PFPMichelElectronMVA" Type="F" Min="-2.00000000e+00" Max="1.57568768e-01"/>
    <Variable VarIndex="2" Expression="PFPMichelRecoEnergyPlane2" Label="PFPMichelRecoEnergyPlane2" Title="Reco energy (col. plane) for Michel candidate" Unit="" Internal="PFPMichelRecoEnergyPlane2" Type="F" Min="-2.00000000e+00" Max="4.16259842e+01"/>
    <Variable VarIndex="3" Expression="PFPTrackDeflecAngleSD" Label="PFPTrackDeflecAngleSD" Title="Track candidate scattering SD" Unit="" Internal="PFPTrackDeflecAngleSD" Type="F" Min="-2.00000000e+00" Max="1.07998032e+02"/>
    <Variable VarIndex="4" Expression="PFPTrackLength" Label="PFPTrackLength" Title="Candidate track length" Unit="" Internal="PFPTrackLength" Type="F" Min="1.71731740e-01" Max="1.81113375e+05"/>
    <Variable VarIndex="5" Expression="PFPTrackEvalRatio" Label="PFPTrackEvalRatio" Title="EvalRatio" Unit="" Internal="PFPTrackEvalRatio" Type="F" Min="0.00000000e+00" Max="9.94829834e-01"/>
    <Variable VarIndex="6" Expression="PFPTrackConcentration" Label="PFPTrackConcentration" Title="Concentration" Unit="" Internal="PFPTrackConcentration" Type="F" Min="9.44379251e-03" Max="1.00000000e+02"/>
    <Variable VarIndex="7" Expression="PFPTrackCoreHaloRatio" Label="PFPTrackCoreHaloRatio" Title="Core halo ratio" Unit="" Internal="PFPTrackCoreHaloRatio" Type="F" Min="0.00000000e+00" Max="1.00000000e+02"/>
    <Variable VarIndex="8" Expression="PFPTrackConicalness" Label="PFPTrackConicalness" Title="Conicalness" Unit="" Internal="PFPTrackConicalness" Type="F" Min="1.26488623e-03" Max="1.18945410e+03"/>
    <Variable VarIndex="9" Expression="PFPTrackdEdxStart" Label="PFPTrackdEdxStart" Title="dEdx (start)" Unit="" Internal="PFPTrackdEdxStart" Type="F" Min="0.00000000e+00" Max="4.99834671e+01"/>
    <Variable VarIndex="10" Expression="PFPTrackdEdxEnd" Label="PFPTrackdEdxEnd" Title="dEdx (end)" Unit="" Internal="PFPTrackdEdxEnd" Type="F" Min="0.00000000e+00" Max="4.99297943e+01"/>
    <Variable VarIndex="11" Expression="PFPTrackdEdxEndRatio" Label="PFPTrackdEdxEndRatio" Title="dEdx (end/start ratio)" Unit="" Internal="PFPTrackdEdxEndRatio" Type="F" Min="0.00000000e+00" Max="1.75039429e+02"/>
  </Variables>
  <Spectators NSpec="0"/>
  <Classes NClass="2">
    <Class Name="Signal" Index="0"/>
    <Class Name="Background" Index="1"/>
  </Classes>
  <Transformations NTransformations="0"/>
  <MVAPdfs/>
  <Weights NTrees="1000" AnalysisType="1">
    <BinaryTree type="DecisionTree" boostWeight="1.0000000000000000e+00" itree="0">
      <Node pos="s" depth="0" NCoef="0" IVar="10" Cut="4.7331528663635254e+00" cType="1" res="-4.8931600758805871e-04" rms="4.9999976158142090e-01" purity="4.9951067566871643e-01" nType="0">
        <Node pos="l" depth="1" NCoef="0" IVar="3" Cut="8.3578882217407227e+00" cType="1" res="1.2369026243686676e-01" rms="4.8445919156074524e-01" purity="6.2369024753570557e-01" nType="0">
          <Node pos="l" depth="2" NCoef="0" IVar="-1" Cut="0.0000000000000000e+00" cType="1" res="5.5279523134231567e-02" rms="4.1665858030319214e-01" purity="7.7639764547348022e-01" nType="-99"/>
          <Node pos="r" depth="2" NCoef="0" IVar="-1" Cut="0.0000000000000000e+00" cType="1" res="-3.2613322138786316e-02" rms="4.7266191244125366e-01" purity="3.3693337440490723e-01" nType="-99"/>
        </Node>
        <Node pos="r" depth="1" NCoef="0" IVar="10" Cut="6.8743605613708496e+00" cType="1" res="-3.9785638451576233e-01" rms="3.0283707380294800e-01" purity="1.0214360803365707e-01" nType="0">
          <Node pos="l" depth="2" NCoef="0" IVar="-1" Cut="0.0000000000000000e+00" cType="1" res="-5.0766386091709137e-02" rms="4.3077760934829712e-01" purity="2.4616806209087372e-01" nType="-99"/>
          <Node pos="r" depth="2" NCoef="0" IVar="-1" Cut="0.0000000000000000e+00" cType="1" res="-9.1649860143661499e-02" rms="2.0001898705959320e-01" purity="4.1750714182853699e-02" nType="-99"/>
        </Node>
      </Node>
    </BinaryTree>
    <BinaryTree type="DecisionTree" boostWeight="1.0000000000000000e+00" itree="1">
      <Node pos="s" depth="0" NCoef="0" IVar="3" Cut="6.4502005577087402e+00" cType="1" res="-3.4058594610542059e-03" rms="4.8357963562011719e-01" purity="4.9669975042343140e-01" nType="0">
        <Node pos="l" depth="1" NCoef="0" IVar="10" Cut="4.7072668075561523e+00" cType="1" res="2.2218576073646545e-01" rms="4.2767545580863953e-01" purity="7.4204069375991821e-01" nType="0">
          <Node pos="l" depth="2" NCoef="0" IVar="-1" Cut="0.0000000000000000e+00" cType="1" res="5.8194477111101151e-02" rms="3.8609430193901062e-01" purity="8.1769669055938721e-01" nType="-99"/>
          <Node pos="r" depth="2" NCoef="0" IVar="-1" Cut="0.0000000000000000e+00" cType="1" res="-5.5954571813344955e-02" rms="3.8467714190483093e-01" purity="1.8461956083774567e-01" nType="-99"/>
        </Node>
        <Node pos="r" depth="1" NCoef="0" IVar="10" Cut="7.1225538253784180e+00" cType="1" res="-2.2719389200210571e-01" rms="4.2874136567115784e-01" purity="2.5332036614418030e-01" nType="0">
          <Node pos="l" depth="2" NCoef="0" IVar="-1" Cut="0.0000000000000000e+00" cType="1" res="-3.2120417803525925e-02" rms="4.6763953566551208e-01" purity="3.2918298244476318e-01" nType="-99"/>
          <Node pos="r" depth="2" NCoef="0" IVar="-1" Cut="0.0000000000000000e+00" cType="1" res="-8.5083521902561188e-02" rms="1.7716237902641296e-01" purity="3.2438784837722778e-02" nType="-99"/>
        </Node>
      </Node>
    </BinaryTree>
    <BinaryTree type="DecisionTree" boostWeight="1.0000000000000000e+00" itree="2">
      <Node pos="s" depth="0" NCoef="0" IVar="3" Cut="8.4760026931762695e+00" cType="1" res="-2.6272737886756659e-03" rms="4.6916019916534424e-01" purity="4.9691548943519592e-01" nType="0">
        <Node pos="l" depth="1" NCoef="0" IVar="10" Cut="4.6046319007873535e+00" cType="1" res="1.4555612206459045e-01" rms="4.4503563642501831e-01" purity="6.7758452892303467e-01" nType="0">
          <Node pos="l" depth="2" NCoef="0" IVar="-1" Cut="0.0000000000000000e+00" cType="1" res="4.5324787497520447e-02" rms="4.1390514373779297e-01" purity="7.7439326047897339e-01" nType="-99"/>
          <Node pos="r" depth="2" NCoef="0" IVar="-1" Cut="0.0000000000000000e+00" cType="1" res="-5.4408032447099686e-02" rms="3.6876282095909119e-01" purity="1.6918611526489258e-01" nType="-99"/>
        </Node>
        <Node pos="r" depth="1" NCoef="0" IVar="10" Cut="4.7348971366882324e+00" cType="1" res="-2.1914374828338623e-01" rms="4.1638025641441345e-01" purity="2.3293311893939972e-01" nType="0">
          <Node pos="l" depth="2" NCoef="0" IVar="-1" Cut="0.0000000000000000e+00" cType="1" res="-2.8783164918422699e-02" rms="4.6813544631004333e-01" purity="3.2436269521713257e-01" nType="-99"/>
          <Node pos="r" depth="2" NCoef="0" IVar="-1" Cut="0.0000000000000000e+00" cType="1" res="-7.2137877345085144e-02" rms="2.5592830777168274e-01" purity="7.2817847132682800e-02" nType="-99"/>
        </Node>
      </Node>
    </BinaryTree>
    <BinaryTree type="DecisionTree" boostWeight="1.0000000000000000e+00" itree="3">
      <Node pos="s" depth="0" NCoef="0" IVar="3" Cut="7.3207745552062988e+00" cType="1" res="4.9917004071176052e-03" rms="4.5820087194442749e-01" purity="5.0457584857940674e-01" nType="0">
        <Node pos="l" depth="1" NCoef="0" IVar="10" Cut="4.5155205726623535e+00" cType="1" res="1.6565397381782532e-01" rms="4.2347809672355652e-01" purity="7.1883833408355713e-01" nType="0">
          <Node pos="l" depth="2" NCoef="0" IVar="-1" Cut="0.0000000000000000e+00" cType="1" res="4.6721167862415314e-02" rms="3.9491012692451477e-01" purity="8.0395501852035522e-01" nType="-99"/>
          <Node pos="r" depth="2" NCoef="0" IVar="-1" Cut="0.0000000000000000e+00" cType="1" res="-4.3613579124212265e-02" rms="3.9371672272682190e-01" purity="2.0590414106845856e-01" nType="-99"/>
        </Node>
        <Node pos="r" depth="1" NCoef="0" IVar="10" Cut="7.1225538253784180e+00" cType="1" res="-1.8407462537288666e-01" rms="4.2409068346023560e-01" purity="2.5243309140205383e-01" nType="0">
          <Node pos="l" depth="2" NCoef="0" IVar="-1" Cut="0.0000000000000000e+00" cType="1" res="-2.6325380429625511e-02" rms="4.6663591265678406e-01" purity="3.2618594169616699e-01" nType="-99"/>
          <Node pos="r" depth="2" NCoef="0" IVar="-1" Cut="0.0000000000000000e+00" cType="1" res="-7.2097569704055786e-02" rms="1.9502402842044830e-01" purity="3.9621818810701370e-02" nType="-99"/>
        </Node>
      </Node>
    </BinaryTree>
    <BinaryTree type="DecisionTree" boostWeight="1.0000000000000000e+00" itree="4">
      <Node pos="s" depth="0" NCoef="0" IVar="3" Cut="7.3207745552062988e+00" cType="1" res="-1.8403736175969243e-03" rms="4.4816654920578003e-01" purity="4.9797254800796509e-01" nType="0">
        <Node pos="l" depth="1" NCoef="0" IVar="10" Cut="4.7072668075561523e+00" cType="1" res="1.4136694371700287e-01" rms="4.2113351821899414e-01" purity="7.1042084693908691e-01" nType="0">
          <Node pos="l" depth="2" NCoef="0" IVar="-1" Cut="0.0000000000000000e+00" cType="1" res="4.1390385478734970e-02" rms="4.0000063180923462e-01" purity="7.9660081863403320e-01" nType="-99"/>
          <Node pos="r" depth="2" NCoef="0" IVar="-1" Cut="0.0000000000000000e+00" cType="1" res="-4.7445643693208694e-02" rms="3.6414611339569092e-01" purity="1.6187831759452820e-01" nType="-99"/>
        </Node>
        <Node pos="r" depth="1" NCoef="0" IVar="10" Cut="4.7505822181701660e+00" cType="1" res="-1.6963908076286316e-01" rms="4.1976425051689148e-01" purity="2.4904286861419678e-01" nType="0">
          <Node pos="l" depth="2" NCoef="0" IVar="-1" Cut="0.0000000000000000e+00" cType="1" res="-2.1524915471673012e-02" rms="4.7338038682937622e-01" purity="3.4337580204010010e-01" nType="-99"/>
          <Node pos="r" depth="2" NCoef="0" IVar="-1" Cut="0.0000000000000000e+00" cType="1" res="-6.1152201145887375e-02" rms="2.6745247840881348e-01" purity="8.1770390272140503e-02" nType="-99"/>
        </Node>
      </Node>
    </BinaryTree>
    <BinaryTree type="DecisionTree" boostWeight="1.0000000000000000e+00" itree="5">
      <Node pos="s" depth="0" NCoef="0" IVar="6" Cut="4.7708988189697266e+00" cType="1" res="1.6288260230794549e-03" rms="4.4027206301689148e-01" purity="5.0160515308380127e-01" nType="0">
        <Node pos="l" depth="1" NCoef="0" IVar="3" Cut="5.0050840377807617e+00" cType="1" res="1.3293208181858063e-01" rms="4.1545751690864563e-01" purity="6.8190985918045044e-01" nType="0">
          <Node pos="l" depth="2" NCoef="0" IVar="-1" Cut="0.0000000000000000e+00" cType="1" res="5.5538710206747055e-02" rms="3.1673046946525574e-01" purity="8.6614376306533813e-01" nType="-99"/>
          <Node pos="r" depth="2" NCoef="0" IVar="-1" Cut="0.0000000000000000e+00" cType="1" res="-1.4141333289444447e-02" rms="4.6858882904052734e-01" purity="3.9445126056671143e-01" nType="-99"/>
        </Node>
        <Node pos="r" depth="1" NCoef="0" IVar="4" Cut="6.4957542419433594e+01" cType="1" res="-1.4731940627098083e-01" rms="4.1974353790283203e-01" purity="2.9707050323486328e-01" nType="0">
          <Node pos="l" depth="2" NCoef="0" IVar="-1" Cut="0.0000000000000000e+00" cType="1" res="-4.5692544430494308e-02" rms="3.9136132597923279e-01" purity="2.0060564577579498e-01" nType="-99"/>
          <Node pos="r" depth="2" NCoef="0" IVar="-1" Cut="0.0000000000000000e+00" cType="1" res="3.3604212105274200e-02" rms="4.0570354461669922e-01" purity="7.3113292455673218e-01" nType="-99"/>
        </Node>
      </Node>
    </BinaryTree>
    <BinaryTree type="DecisionTree" boostWeight="1.0000000000000000e+00" itree="6">
      <Node pos="s" depth="0" NCoef="0" IVar="10" Cut="4.7505822181701660e+00" cType="1" res="1.4023457188159227e-03" rms="4.2923069000244141e-01" purity="5.0332325696945190e-01" nType="0">
        <Node pos="l" depth="1" NCoef="0" IVar="6" Cut="4.7762427330017090e+00" cType="1" res="7.3115862905979156e-02" rms="4.3897041678428650e-01" purity="6.2686663866043091e-01" nType="0">
          <Node pos="l" depth="2" NCoef="0" IVar="-1" Cut="0.0000000000000000e+00" cType="1" res="3.6970600485801697e-02" rms="3.8950228691101074e-01" purity="7.7340334653854370e-01" nType="-99"/>
          <Node pos="r" depth="2" NCoef="0" IVar="-1" Cut="0.0000000000000000e+00" cType="1" res="-1.4964240603148937e-02" rms="4.6602949500083923e-01" purity="4.1274407505989075e-01" nType="-99"/>
        </Node>
        <Node pos="r" depth="1" NCoef="0" IVar="10" Cut="6.8996906280517578e+00" cType="1" res="-2.3272934556007385e-01" rms="2.9158800840377808e-01" purity="9.9976338446140289e-02" nType="0">
          <Node pos="l" depth="2" NCoef="0" IVar="-1" Cut="0.0000000000000000e+00" cType="1" res="-2.8391228988766670e-02" rms="4.2349317669868469e-01" purity="2.3952995240688324e-01" nType="-99"/>
          <Node pos="r" depth="2" NCoef="0" IVar="-1" Cut="0.0000000000000000e+00" cType="1" res="-6.3756182789802551e-02" rms="1.9843150675296783e-01" purity="4.1310437023639679e-02" nType="-99"/>
        </Node>
      </Node>
    </BinaryTree>
    <BinaryTree type="DecisionTree" boostWeight="1.0000000000000000e+00" itree="7">
      <Node pos="s" depth="0" NCoef="0" IVar="3" Cut="7.3207745552062988e+00" cType="1" res="-9.4567786436527967e-04" rms="4.2443570494651794e-01" purity="4.9910467863082886e-01" nType="0">
        <Node pos="l" depth="1" NCoef="0" IVar="10" Cut="4.7331528663635254e+00" cType="1" res="1.0769797861576080e-01" rms="4.0202689170837402e-01" purity="7.1182316541671753e-01" nType="0">
          <Node pos="l" depth="2" NCoef="0" IVar="-1" Cut="0.0000000000000000e+00" cType="1" res="3.3530119806528091e-02" rms="3.8971468806266785e-01" purity="7.9788291454315186e-01" nType="-99"/>
          <Node pos="r" depth="2" NCoef="0" IVar="-1" Cut="0.0000000000000000e+00" cType="1" res="-4.1119679808616638e-02" rms="3.5494944453239441e-01" purity="1.5720503032207489e-01" nType="-99"/>
        </Node>
        <Node pos="r" depth="1" NCoef="0" IVar="10" Cut="7.1225538253784180e+00" cType="1" res="-1.2956155836582184e-01" rms="4.1419193148612976e-01" purity="2.4728170037269592e-01" nType="0">
          <Node pos="l" depth="2" NCoef="0" IVar="-1" Cut="0.0000000000000000e+00" cType="1" res="-1.8986135721206665e-02" rms="4.6209281682968140e-01" purity="3.2097783684730530e-01" nType="-99"/>
          <Node pos="r" depth="2" NCoef="0" IVar="-1" Cut="0.0000000000000000e+00" cType="1" res="-5.9513326734304428e-02" rms="1.9145683944225311e-01" purity="3.8285586982965469e-02" nType="-99"/>
        </Node>
      </Node>
    </BinaryTree>
    <BinaryTree type="DecisionTree" boostWeight="1.0000000000000000e+00" itree="8">
      <Node pos="s" depth="0" NCoef="0" IVar="3" Cut="6.4962410926818848e+00" cType="1" res="-1.9548782147467136e-03" rms="4.2015266418457031e-01" purity="4.9774667620658875e-01" nType="0">
        <Node pos="l" depth="1" NCoef="0" IVar="3" Cut="1.2363493442535400e+00" cType="1" res="1.1403981596231461e-01" rms="3.9024245738983154e-01" purity="7.3836642503738403e-01" nType="0">
          <Node pos="l" depth="2" NCoef="0" IVar="-1" Cut="0.0000000000000000e+00" cType="1" res="-5.0332676619291306e-02" rms="4.2735955119132996e-01" purity="3.0323266983032227e-01" nType="-99"/>
          <Node pos="r" depth="2" NCoef="0" IVar="-1" Cut="0.0000000000000000e+00" cType="1" res="3.4553699195384979e-02" rms="3.6600160598754883e-01" purity="7.8792494535446167e-01" nType="-99"/>
        </Node>
        <Node pos="r" depth="1" NCoef="0" IVar="10" Cut="4.7505822181701660e+00" cType="1" res="-1.1570760607719421e-01" rms="4.1733017563819885e-01" purity="2.6177772879600525e-01" nType="0">
          <Node pos="l" depth="2" NCoef="0" IVar="-1" Cut="0.0000000000000000e+00" cType="1" res="-1.4867200516164303e-02" rms="4.7337824106216431e-01" purity="3.5931515693664551e-01" nType="-99"/>
          <Node pos="r" depth="2" NCoef="0" IVar="-1" Cut="0.0000000000000000e+00" cType="1" res="-4.8979438841342926e-02" rms="2.7071434259414673e-01" purity="8.4104828536510468e-02" nType="-99"/>
        </Node>
      </Node>
    </BinaryTree>
    <BinaryTree type="DecisionTree" boostWeight="1.0000000000000000e+00" itree="9">
      <Node pos="s" depth="0" NCoef="0" IVar="6" Cut="4.7737126350402832e+00" cType="1" res="-3.0379460076801479e-04" rms="4.1479259729385376e-01" purity="4.9937224388122559e-01" nType="0">
        <Node pos="l" depth="1" NCoef="0" IVar="3" Cut="5.0837159156799316e+00" cType="1" res="9.5572754740715027e-02" rms="3.9781281352043152e-01" purity="6.8035244941711426e-01" nType="0">
          <Node pos="l" depth="2" NCoef="0" IVar="-1" Cut="0.0000000000000000e+00" cType="1" res="4.5109730213880539e-02" rms="3.1201386451721191e-01" purity="8.6391937732696533e-01" nType="-99"/>
          <Node pos="r" depth="2" NCoef="0" IVar="-1" Cut="0.0000000000000000e+00" cType="1" res="-1.2757374905049801e-02" rms="4.6392923593521118e-01" purity="3.9165881276130676e-01" nType="-99"/>
        </Node>
        <Node pos="r" depth="1" NCoef="0" IVar="4" Cut="6.6544158935546875e+01" cType="1" res="-1.0935707390308380e-01" rms="4.0669250488281250e-01" purity="2.9351904988288879e-01" nType="0">
          <Node pos="l" depth="2" NCoef="0" IVar="-1" Cut="0.0000000000000000e+00" cType="1" res="-3.6859575659036636e-02" rms="3.8900128006935120e-01" purity="1.9796542823314667e-01" nType="-99"/>
          <Node pos="r" depth="2" NCoef="0" IVar="-1" Cut="0.0000000000000000e+00" cType="1" res="2.9374474659562111e-02" rms="3.9792102575302124e-01" purity="7.3590922355651855e-01" nType="-99"/>
        </Node>
      </Node>
    </BinaryTree>
    <BinaryTree type="DecisionTree" boostWeight="1.0000000000000000e+00" itree="10">
      <Node pos="s" depth="0" NCoef="0" IVar="10" Cut="4.7552185058593750e+00" cType="1" res="-2.2987648844718933e-03" rms="4.0963920950889587e-01" purity="4.9554842710494995e-01" nType="0">
        <Node pos="l" depth="1" NCoef="0" IVar="10" Cut="1.5849393606185913e+00" cType="1" res="4.9412045627832413e-02" rms="4.2702347040176392e-01" purity="6.1929738521575928e-01" nType="0">
          <Node pos="l" depth="2" NCoef="0" IVar="-1" Cut="0.0000000000000000e+00" cType="1" res="-2.6416484266519547e-02" rms="4.5383691787719727e-01" purity="3.3349460363388062e-01" nType="-99"/>
          <Node pos="r" depth="2" NCoef="0" IVar="-1" Cut="0.0000000000000000e+00" cType="1" res="2.0859602838754654e-02" rms="4.0906450152397156e-01" purity="6.8974524736404419e-01" nType="-99"/>
        </Node>
        <Node pos="r" depth="1" NCoef="0" IVar="10" Cut="6.9063968658447266e+00" cType="1" res="-1.6533294320106506e-01" rms="2.9485040903091431e-01" purity="1.0539196431636810e-01" nType="0">
          <Node pos="l" depth="2" NCoef="0" IVar="-1" Cut="0.0000000000000000e+00" cType="1" res="-1.8338045105338097e-02" rms="4.2395639419555664e-01" purity="2.4750787019729614e-01" nType="-99"/>
          <Node pos="r" depth="2" NCoef="0" IVar="-1" Cut="0.0000000000000000e+00" cType="1" res="-5.4684415459632874e-02" rms="2.0859810709953308e-01" purity="4.5522190630435944e-02" nType="-99"/>
        </Node>
      </Node>
    </BinaryTree>
    <BinaryTree type="DecisionTree" boostWeight="1.0000000000000000e+00" itree="11">
      <Node pos="s" depth="0" NCoef="0" IVar="3" Cut="6.5091638565063477e+00" cType="1" res="-1.5403140569105744e-03" rms="4.0559181571006775e-01" purity="4.9775829911231995e-01" nType="0">
        <Node pos="l" depth="1" NCoef="0" IVar="3" Cut="1.2415441274642944e+00" cType="1" res="8.8456310331821442e-02" rms="3.7761533260345459e-01" purity="7.3905068635940552e-01" nType="0">
          <Node pos="l" depth="2" NCoef="0" IVar="-1" Cut="0.0000000000000000e+00" cType="1" res="-4.5493878424167633e-02" rms="4.2119818925857544e-01" purity="2.9629737138748169e-01" nType="-99"/>
          <Node pos="r" depth="2" NCoef="0" IVar="-1" Cut="0.0000000000000000e+00" cType="1" res="2.9338007792830467e-02" rms="3.5700348019599915e-01" purity="7.9053050279617310e-01" nType="-99"/>
        </Node>
        <Node pos="r" depth="1" NCoef="0" IVar="0" Cut="1.2571428298950195e+01" cType="1" res="-8.9992418885231018e-02" rms="4.1262078285217285e-01" purity="2.6060694456100464e-01" nType="0">
          <Node pos="l" depth="2" NCoef="0" IVar="-1" Cut="0.0000000000000000e+00" cType="1" res="-1.7869617789983749e-02" rms="4.1535294055938721e-01" purity="2.7082854509353638e-01" nType="-99"/>
          <Node pos="r" depth="2" NCoef="0" IVar="-1" Cut="0.0000000000000000e+00" cType="1" res="-6.4826346933841705e-02" rms="3.0027446150779724e-01" purity="9.9068947136402130e-02" nType="-99"/>
        </Node>
      </Node>
    </BinaryTree>
    <BinaryTree type="DecisionTree" boostWeight="1.0000000000000000e+00" itree="12">
      <Node pos="s" depth="0" NCoef="0" IVar="6" Cut="4.7708988189697266e+00" cType="1" res="-4.2553804814815521e-03" rms="4.0393456816673279e-01" purity="4.9364542961120605e-01" nType="0">
        <Node pos="l" depth="1" NCoef="0" IVar="3" Cut="3.1789441108703613e+00" cType="1" res="7.2478093206882477e-02" rms="3.9255928993225098e-01" purity="6.7399942874908447e-01" nType="0">
          <Node pos="l" depth="2" NCoef="0" IVar="-1" Cut="0.0000000000000000e+00" cType="1" res="5.2740518003702164e-02" rms="2.3440355062484741e-01" purity="9.2506742477416992e-01" nType="-99"/>
          <Node pos="r" depth="2" NCoef="0" IVar="-1" Cut="0.0000000000000000e+00" cType="1" res="-1.6376186395063996e-03" rms="4.4077074527740479e-01" purity="5.2860724925994873e-01" nType="-99"/>
        </Node>
        <Node pos="r" depth="1" NCoef="0" IVar="4" Cut="6.6525489807128906e+01" cType="1" res="-9.0883843600749969e-02" rms="3.9904892444610596e-01" purity="2.9003426432609558e-01" nType="0">
          <Node pos="l" depth="2" NCoef="0" IVar="-1" Cut="0.0000000000000000e+00" cType="1" res="-3.1932357698678970e-02" rms="3.8723814487457275e-01" purity="1.9567824900150299e-01" nType="-99"/>
          <Node pos="r" depth="2" NCoef="0" IVar="-1" Cut="0.0000000000000000e+00" cType="1" res="2.5427706539630890e-02" rms="3.9165762066841125e-01" purity="7.3700875043869019e-01" nType="-99"/>
        </Node>
      </Node>
    </BinaryTree>
    <BinaryTree type="DecisionTree" boostWeight="1.0000000000000000e+00" itree="13">
      <Node pos="s" depth="0" NCoef="0" IVar="10" Cut="4.7552185058593750e+00" cType="1" res="1.7399417702108622e-03" rms="3.9948073029518127e-01" purity="5.0064557790756226e-01" nType="0">
        <Node pos="l" depth="1" NCoef="0" IVar="0" Cut="5.1428569793701172e+01" cType="1" res="4.5099511742591858e-02" rms="4.1708540916442871e-01" purity="6.2299919128417969e-01" nType="0">
          <Node pos="l" depth="2" NCoef="0" IVar="-1" Cut="0.0000000000000000e+00" cType="1" res="1.4095135033130646e-02" rms="4.1133207082748413e-01" purity="6.3957101106643677e-01" nType="-99"/>
          <Node pos="r" depth="2" NCoef="0" IVar="-1" Cut="0.0000000000000000e+00" cType="1" res="-7.5012579560279846e-02" rms="3.8055455684661865e-01" purity="2.1840105950832367e-01" nType="-99"/>
        </Node>
        <Node pos="r" depth="1" NCoef="0" IVar="10" Cut="9.0575666427612305e+00" cType="1" res="-1.3786724209785461e-01" rms="2.9623672366142273e-01" purity="1.0669705271720886e-01" nType="0">
          <Node pos="l" depth="2" NCoef="0" IVar="-1" Cut="0.0000000000000000e+00" cType="1" res="-2.3002455011010170e-02" rms="3.8140535354614258e-01" purity="1.8960450589656830e-01" nType="-99"/>
          <Node pos="r" depth="2" NCoef="0" IVar="-1" Cut="0.0000000000000000e+00" cType="1" res="-5.4888695478439331e-02" rms="1.7681542038917542e-01" purity="3.1113807111978531e-02" nType="-99"/>
        </Node>
      </Node>
    </BinaryTree>
    <BinaryTree type="DecisionTree" boostWeight="1.0000000000000000e+00" itree="14">
      <Node pos="s" depth="0" NCoef="0" IVar="6" Cut="4.7708988189697266e+00" cType="1" res="-1.1017090873792768e-03" rms="3.9580833911895752e-01" purity="4.9763727188110352e-01" nType="0">
        <Node pos="l" depth="1" NCoef="0" IVar="3" Cut="3.1789441108703613e+00" cType="1" res="6.8358585238456726e-02" rms="3.8475164771080017e-01" purity="6.8141406774520874e-01" nType="0">
          <Node pos="l" depth="2" NCoef="0" IVar="-1" Cut="0.0000000000000000e+00" cType="1" res="5.0272595137357712e-02" rms="2.3234963417053223e-01" purity="9.2812180519104004e-01" nType="-99"/>
          <Node pos="r" depth="2" NCoef="0" IVar="-1" Cut="0.0000000000000000e+00" cType="1" res="-7.3271489236503839e-04" rms="4.3622857332229614e-01" purity="5.3462481498718262e-01" nType="-99"/>
        </Node>
        <Node pos="r" depth="1" NCoef="0" IVar="4" Cut="6.6434692382812500e+01" cType="1" res="-7.9701289534568787e-02" rms="3.9343708753585815e-01" purity="2.8967982530593872e-01" nType="0">
          <Node pos="l" depth="2" NCoef="0" IVar="-1" Cut="0.0000000000000000e+00" cType="1" res="-2.8843179345130920e-02" rms="3.8420951366424561e-01" purity="1.9697657227516174e-01" nType="-99"/>
          <Node pos="r" depth="2" NCoef="0" IVar="-1" Cut="0.0000000000000000e+00" cType="1" res="2.2808451205492020e-02" rms="3.8843312859535217e-01" purity="7.3399901390075684e-01" nType="-99"/>
        </Node>
      </Node>
    </BinaryTree>
    <BinaryTree type="DecisionTree" boostWeight="1.0000000000000000e+00" itree="15">
      <Node pos="s" depth="0" NCoef="0" IVar="10" Cut="4.7552185058593750e+00" cType="1" res="-7.6737120980396867e-04" rms="3.9369115233421326e-01" purity="4.9810251593589783e-01" nType="0">
        <Node pos="l" depth="1" NCoef="0" IVar="10" Cut="1.5850452184677124e+00" cType="1" res="3.6940943449735641e-02" rms="4.1299343109130859e-01" purity="6.2102890014648438e-01" nType="0">
          <Node pos="l" depth="2" NCoef="0" IVar="-1" Cut="0.0000000000000000e+00" cType="1" res="-2.2193361073732376e-02" rms="4.4721812009811401e-01" purity="3.2670363783836365e-01" nType="-99"/>
          <Node pos="r" depth="2" NCoef="0" IVar="-1" Cut="0.0000000000000000e+00" cType="1" res="1.7161441966891289e-02" rms="3.9691078662872314e-01" purity="6.9341683387756348e-01" nType="-99"/>
        </Node>
        <Node pos="r" depth="1" NCoef="0" IVar="10" Cut="6.9069662094116211e+00" cType="1" res="-1.2102247774600983e-01" rms="2.9383662343025208e-01" purity="1.0607970505952835e-01" nType="0">
          <Node pos="l" depth="2" NCoef="0" IVar="-1" Cut="0.0000000000000000e+00" cType="1" res="-1.1474085040390491e-02" rms="4.2259788513183594e-01" purity="2.4975247681140900e-01" nType="-99"/>
          <Node pos="r" depth="2" NCoef="0" IVar="-1" Cut="0.0000000000000000e+00" cType="1" res="-4.9141660332679749e-02" rms="2.0858582854270935e-01" purity="4.4572044163942337e-02" nType="-99"/>
        </Node>
      </Node>
    </BinaryTree>
    <BinaryTree type="DecisionTree" boostWeight="1.0000000000000000e+00" itree="16">
      <Node pos="s" depth="0" NCoef="0" IVar="6" Cut="4.7745823860168457e+00" cType="1" res="-1.1017906945198774e-03" rms="3.9132118225097656e-01" purity="4.9892452359199524e-01" nType="0">
        <Node pos="l" depth="1" NCoef="0" IVar="3" Cut="3.1789441108703613e+00" cType="1" res="5.7810705155134201e-02" rms="3.8243997097015381e-01" purity="6.7744296789169312e-01" nType="0">
          <Node pos="l" depth="2" NCoef="0" IVar="-1" Cut="0.0000000000000000e+00" cType="1" res="4.6975951641798019e-02" rms="2.2757107019424438e-01" purity="9.2835986614227295e-01" nType="-99"/>
          <Node pos="r" depth="2" NCoef="0" IVar="-1" Cut="0.0000000000000000e+00" cType="1" res="-4.3938233284279704e-04" rms="4.3491959571838379e-01" purity="5.3715252876281738e-01" nType="-99"/>
        </Node>
        <Node pos="r" depth="1" NCoef="0" IVar="4" Cut="6.8602783203125000e+01" cType="1" res="-6.8265184760093689e-02" rms="3.9051115512847900e-01" purity="2.9540398716926575e-01" nType="0">
          <Node pos="l" depth="2" NCoef="0" IVar="-1" Cut="0.0000000000000000e+00" cType="1" res="-2.5955727323889732e-02" rms="3.8431099057197571e-01" purity="1.9916039705276489e-01" nType="-99"/>
          <Node pos="r" depth="2" NCoef="0" IVar="-1" Cut="0.0000000000000000e+00" cType="1" res="2.1520962938666344e-02" rms="3.8048541545867920e-01" purity="7.4846303462982178e-01" nType="-99"/>
        </Node>
      </Node>
    </BinaryTree>
    <BinaryTree type="DecisionTree" boostWeight="1.0000000000000000e+00" itree="17">
      <Node pos="s" depth="0" NCoef="0" IVar="6" Cut="4.7727608680725098e+00" cType="1" res="1.6301244031637907e-03" rms="3.8951206207275391e-01" purity="5.0106257200241089e-01" nType="0">
        <Node pos="l" depth="1" NCoef="0" IVar="3" Cut="3.4073271751403809e+00" cType="1" res="5.8160766959190369e-02" rms="3.8036581873893738e-01" purity="6.8512099981307983e-01" nType="0">
          <Node pos="l" depth="2" NCoef="0" IVar="-1" Cut="0.0000000000000000e+00" cType="1" res="4.4294133782386780e-02" rms="2.3558349907398224e-01" purity="9.2323893308639526e-01" nType="-99"/>
          <Node pos="r" depth="2" NCoef="0" IVar="-1" Cut="0.0000000000000000e+00" cType="1" res="-1.3394906418398023e-03" rms="4.4333720207214355e-01" purity="5.2004367113113403e-01" nType="-99"/>
        </Node>
        <Node pos="r" depth="1" NCoef="0" IVar="4" Cut="6.6434692382812500e+01" cType="1" res="-6.3244938850402832e-02" rms="3.8977468013763428e-01" purity="2.8983545303344727e-01" nType="0">
          <Node pos="l" depth="2" NCoef="0" IVar="-1" Cut="0.0000000000000000e+00" cType="1" res="-2.4218831211328506e-02" rms="3.8439202308654785e-01" purity="1.9519723951816559e-01" nType="-99"/>
          <Node pos="r" depth="2" NCoef="0" IVar="-1" Cut="0.0000000000000000e+00" cType="1" res="1.8565375357866287e-02" rms="3.8444620370864868e-01" purity="7.3699373006820679e-01" nType="-99"/>
        </Node>
      </Node>
    </BinaryTree>
    <BinaryTree type="DecisionTree" boostWeight="1.0000000000000000e+00" itree="18">
      <Node pos="s" depth="0" NCoef="0" IVar="2" Cut="7.7427819371223450e-02" cType="1" res="1.7130462219938636e-03" rms="3.8985854387283325e-01" purity="4.9964448809623718e-01" nType="0">
        <Node pos="l" depth="1" NCoef="0" IVar="10" Cut="4.7505822181701660e+00" cType="1" res="1.1430474929511547e-02" rms="3.8715228438377380e-01" purity="5.1048505306243896e-01" nType="0">
          <Node pos="l" depth="2" NCoef="0" IVar="-1" Cut="0.0000000000000000e+00" cType="1" res="1.1613338254392147e-02" rms="4.0614911913871765e-01" purity="6.3682812452316284e-01" nType="-99"/>
          <Node pos="r" depth="2" NCoef="0" IVar="-1" Cut="0.0000000000000000e+00" cType="1" res="-3.2488007098436356e-02" rms="2.9061090946197510e-01" purity="1.0433048009872437e-01" nType="-99"/>
        </Node>
        <Node pos="r" depth="1" NCoef="0" IVar="-1" Cut="0.0000000000000000e+00" cType="1" res="-8.8873699307441711e-02" rms="3.0368492007255554e-01" purity="8.8272422552108765e-02" nType="-99"/>
      </Node>
    </BinaryTree>
    <BinaryTree type="DecisionTree" boostWeight="1.0000000000000000e+00" itree="19">
      <Node pos="s" depth="0" NCoef="0" IVar="3" Cut="6.4598293304443359e+00" cType="1" res="-3.9565828628838062e-03" rms="3.8246122002601624e-01" purity="4.9619403481483459e-01" nType="0">
        <Node pos="l" depth="1" NCoef="0" IVar="5" Cut="4.7372847795486450e-02" cType="1" res="4.9524955451488495e-02" rms="3.5229310393333435e-01" purity="7.4321240186691284e-01" nType="0">
          <Node pos="l" depth="2" NCoef="0" IVar="-1" Cut="0.0000000000000000e+00" cType="1" res="1.8795067444443703e-02" rms="3.3396288752555847e-01" purity="7.6823008060455322e-01" nType="-99"/>
          <Node pos="r" depth="2" NCoef="0" IVar="-1" Cut="0.0000000000000000e+00" cType="1" res="-6.6516570746898651e-02" rms="4.8185175657272339e-01" purity="3.0480402708053589e-01" nType="-99"/>
        </Node>
        <Node pos="r" depth="1" NCoef="0" IVar="1" Cut="-1.8991020917892456e+00" cType="1" res="-5.6981127709150314e-02" rms="4.0324419736862183e-01" purity="2.5128635764122009e-01" nType="0">
          <Node pos="l" depth="2" NCoef="0" IVar="-1" Cut="0.0000000000000000e+00" cType="1" res="-1.2176201678812504e-02" rms="4.0729576349258423e-01" purity="2.6114609837532043e-01" nType="-99"/>
          <Node pos="r" depth="2" NCoef="0" IVar="-1" Cut="0.0000000000000000e+00" cType="1" res="-5.0830189138650894e-02" rms="3.0233556032180786e-01" purity="1.0201265662908554e-01" nType="-99"/>
        </Node>
      </Node>
    </BinaryTree>
    <BinaryTree type="DecisionTree" boostWeight="1.0000000000000000e+00" itree="20">
      <Node pos="s" depth="0" NCoef="0" IVar="10" Cut="7.1023454666137695e+00" cType="1" res="4.1608756873756647e-04" rms="3.8328409194946289e-01" purity="5.0057780742645264e-01" nType="0">
        <Node pos="l" depth="1" NCoef="0" IVar="0" Cut="7.0857139587402344e+01" cType="1" res="2.3550221696496010e-02" rms="4.0456476807594299e-01" purity="5.8930724859237671e-01" nType="0">
          <Node pos="l" depth="2" NCoef="0" IVar="-1" Cut="0.0000000000000000e+00" cType="1" res="8.4869107231497765e-03" rms="4.0208169817924500e-01" purity="6.0293805599212646e-01" nType="-99"/>
          <Node pos="r" depth="2" NCoef="0" IVar="-1" Cut="0.0000000000000000e+00" cType="1" res="-7.2659306228160858e-02" rms="3.4929871559143066e-01" purity="1.5224084258079529e-01" nType="-99"/>
        </Node>
        <Node pos="r" depth="1" NCoef="0" IVar="3" Cut="6.4598293304443359e+00" cType="1" res="-1.1876015365123749e-01" rms="2.0874926447868347e-01" purity="4.3485786765813828e-02" nType="0">
          <Node pos="l" depth="2" NCoef="0" IVar="-1" Cut="0.0000000000000000e+00" cType="1" res="-5.3273823112249374e-02" rms="2.3219582438468933e-01" purity="5.3987123072147369e-02" nType="-99"/>
          <Node pos="r" depth="2" NCoef="0" IVar="-1" Cut="0.0000000000000000e+00" cType="1" res="-4.1503071784973145e-02" rms="1.9781276583671570e-01" purity="4.0777359157800674e-02" nType="-99"/>
        </Node>
      </Node>
    </BinaryTree>
    <BinaryTree type="DecisionTree" boostWeight="1.0000000000000000e+00" itree="21">
      <Node pos="s" depth="0" NCoef="0" IVar="6" Cut="4.7727608680725098e+00" cType="1" res="-1.2422990985214710e-03" rms="3.8110122084617615e-01" purity="4.9965652823448181e-01" nType="0">
        <Node pos="l" depth="1" NCoef="0" IVar="3" Cut="3.1789441108703613e+00" cType="1" res="4.3321419507265091e-02" rms="3.7255200743675232e-01" purity="6.7986053228378296e-01" nType="0">
          <Node pos="l" depth="2" NCoef="0" IVar="-1" Cut="0.0000000000000000e+00" cType="1" res="4.1617225855588913e-02" rms="2.2159311175346375e-01" purity="9.3007600307464600e-01" nType="-99"/>
          <Node pos="r" depth="2" NCoef="0" IVar="-1" Cut="0.0000000000000000e+00" cType="1" res="-1.5527313807979226e-03" rms="4.3114823102951050e-01" purity="5.3007829189300537e-01" nType="-99"/>
        </Node>
        <Node pos="r" depth="1" NCoef="0" IVar="4" Cut="6.4990325927734375e+01" cType="1" res="-5.2315417677164078e-02" rms="3.8436698913574219e-01" purity="2.9313024878501892e-01" nType="0">
          <Node pos="l" depth="2" NCoef="0" IVar="-1" Cut="0.0000000000000000e+00" cType="1" res="-2.1949369460344315e-02" rms="3.8088899850845337e-01" purity="1.9226150214672089e-01" nType="-99"/>
          <Node pos="r" depth="2" NCoef="0" IVar="-1" Cut="0.0000000000000000e+00" cType="1" res="1.7829883843660355e-02" rms="3.7510424852371216e-01" purity="7.3728740215301514e-01" nType="-99"/>
        </Node>
      </Node>
    </BinaryTree>
    <BinaryTree type="DecisionTree" boostWeight="1.0000000000000000e+00" itree="22">
      <Node pos="s" depth="0" NCoef="0" IVar="10" Cut="7.1328277587890625e+00" cType="1" res="-8.6351494246628135e-05" rms="3.8103768229484558e-01" purity="5.0075358152389526e-01" nType="0">
        <Node pos="l" depth="1" NCoef="0" IVar="0" Cut="4.6571430206298828e+01" cType="1" res="2.0110670477151871e-02" rms="4.0293872356414795e-01" purity="5.8780974149703979e-01" nType="0">
          <Node pos="l" depth="2" NCoef="0" IVar="-1" Cut="0.0000000000000000e+00" cType="1" res="7.9095112159848213e-03" rms="4.0127611160278320e-01" purity="6.0358971357345581e-01" nType="-99"/>
          <Node pos="r" depth="2" NCoef="0" IVar="-1" Cut="0.0000000000000000e+00" cType="1" res="-5.7766139507293701e-02" rms="3.5872125625610352e-01" purity="2.1709710359573364e-01" nType="-99"/>
        </Node>
        <Node pos="r" depth="1" NCoef="0" IVar="3" Cut="8.2693595886230469e+00" cType="1" res="-1.0654333978891373e-01" rms="2.0299081504344940e-01" purity="4.1887082159519196e-02" nType="0">
          <Node pos="l" depth="2" NCoef="0" IVar="-1" Cut="0.0000000000000000e+00" cType="1" res="-4.5944888144731522e-02" rms="2.4064388871192932e-01" purity="5.9606581926345825e-02" nType="-99"/>
          <Node pos="r" depth="2" NCoef="0" IVar="-1" Cut="0.0000000000000000e+00" cType="1" res="-4.1393499821424484e-02" rms="1.7924480140209198e-01" purity="3.3381305634975433e-02" nType="-99"/>
        </Node>
      </Node>
    </BinaryTree>
    <BinaryTree type="DecisionTree" boostWeight="1.0000000000000000e+00" itree="23">
      <Node pos="s" depth="0" NCoef="0" IVar="10" Cut="7.1023454666137695e+00" cType="1" res="3.8119049277156591e-03" rms="3.8181304931640625e-01" purity="5.0373476743698120e-01" nType="0">
        <Node pos="l" depth="1" NCoef="0" IVar="0" Cut="7.0857139587402344e+01" cType="1" res="2.3052647709846497e-02" rms="4.0441152453422546e-01" purity="5.9161925315856934e-01" nType="0">
          <Node pos="l" depth="2" NCoef="0" IVar="-1" Cut="0.0000000000000000e+00" cType="1" res="8.1389667466282845e-03" rms="4.0325969457626343e-01" purity="6.0553848743438721e-01" nType="-99"/>
          <Node pos="r" depth="2" NCoef="0" IVar="-1" Cut="0.0000000000000000e+00" cType="1" res="-6.4459860324859619e-02" rms="3.3907777070999146e-01" purity="1.4159806072711945e-01" nType="-99"/>
        </Node>
        <Node pos="r" depth="1" NCoef="0" IVar="3" Cut="8.2597303390502930e+00" cType="1" res="-9.7440429031848907e-02" rms="2.0020382106304169e-01" purity="4.1252057999372482e-02" nType="0">
          <Node pos="l" depth="2" NCoef="0" IVar="-1" Cut="0.0000000000000000e+00" cType="1" res="-4.6152912080287933e-02" rms="2.2324967384338379e-01" purity="5.2429225295782089e-02" nType="-99"/>
          <Node pos="r" depth="2" NCoef="0" IVar="-1" Cut="0.0000000000000000e+00" cType="1" res="-3.8639128208160400e-02" rms="1.8446984887123108e-01" purity="3.5748019814491272e-02" nType="-99"/>
        </Node>
      </Node>
    </BinaryTree>
    <BinaryTree type="DecisionTree" boostWeight="1.0000000000000000e+00" itree="24">
      <Node pos="s" depth="0" NCoef="0" IVar="6" Cut="4.7727608680725098e+00" cType="1" res="1.3610774476546794e-04" rms="3.7697228789329529e-01" purity="5.0289422273635864e-01" nType="0">
        <Node pos="l" depth="1" NCoef="0" IVar="3" Cut="3.5524766445159912e+00" cType="1" res="4.2341984808444977e-02" rms="3.6795085668563843e-01" purity="6.8704706430435181e-01" nType="0">
          <Node pos="l" depth="2" NCoef="0" IVar="-1" Cut="0.0000000000000000e+00" cType="1" res="4.0017317980527878e-02" rms="2.2866687178611755e-01" purity="9.2562037706375122e-01" nType="-99"/>
          <Node pos="r" depth="2" NCoef="0" IVar="-1" Cut="0.0000000000000000e+00" cType="1" res="-4.2053419165313244e-03" rms="4.3874683976173401e-01" purity="4.9993035197257996e-01" nType="-99"/>
        </Node>
        <Node pos="r" depth="1" NCoef="0" IVar="4" Cut="6.6434692382812500e+01" cType="1" res="-4.8880577087402344e-02" rms="3.8136777281761169e-01" purity="2.8902435302734375e-01" nType="0">
          <Node pos="l" depth="2" NCoef="0" IVar="-1" Cut="0.0000000000000000e+00" cType="1" res="-2.0164253190159798e-02" rms="3.8019940257072449e-01" purity="1.9260600209236145e-01" nType="-99"/>
          <Node pos="r" depth="2" NCoef="0" IVar="-1" Cut="0.0000000000000000e+00" cType="1" res="1.4744981192052364e-02" rms="3.6868047714233398e-01" purity="7.3739373683929443e-01" nType="-99"/>
        </Node>
      </Node>
    </BinaryTree>
    <BinaryTree type="DecisionTree" boostWeight="1.0000000000000000e+00" itree="25">
      <Node pos="s" depth="0" NCoef="0" IVar="0" Cut="7.5714286804199219e+01" cType="1" res="4.9581448547542095e-04" rms="3.7711697816848755e-01" purity="5.0087702274322510e-01" nType="0">
        <Node pos="l" depth="1" NCoef="0" IVar="10" Cut="7.1258735656738281e+00" cType="1" res="6.8033365532755852e-03" rms="3.7671184539794922e-01" purity="5.1111960411071777e-01" nType="0">
          <Node pos="l" depth="2" NCoef="0" IVar="-1" Cut="0.0000000000000000e+00" cType="1" res="6.4282510429620743e-03" rms="3.9960888028144836e-01" purity="6.0265743732452393e-01" nType="-99"/>
          <Node pos="r" depth="2" NCoef="0" IVar="-1" Cut="0.0000000000000000e+00" cType="1" res="-3.8899645209312439e-02" rms="2.0289239287376404e-01" purity="4.2858812958002090e-02" nType="-99"/>
        </Node>
        <Node pos="r" depth="1" NCoef="0" IVar="-1" Cut="0.0000000000000000e+00" cType="1" res="-6.2607444822788239e-02" rms="3.1226566433906555e-01" purity="1.2163471430540085e-01" nType="-99"/>
      </Node>
    </BinaryTree>
    <BinaryTree type="DecisionTree" boostWeight="1.0000000000000000e+00" itree="26">
      <Node pos="s" depth="0" NCoef="0" IVar="2" Cut="7.7427819371223450e-02" cType="1" res="2.2855764254927635e-03" rms="3.7944704294204712e-01" purity="5.0391668081283569e-01" nType="0">
        <Node pos="l" depth="1" NCoef="0" IVar="5" Cut="4.7372847795486450e-02" cType="1" res="8.1355953589081764e-03" rms="3.7928467988967896e-01" purity="5.1439291238784790e-01" nType="0">
          <Node pos="l" depth="2" NCoef="0" IVar="-1" Cut="0.0000000000000000e+00" cType="1" res="5.6773191317915916e-03" rms="3.6717933416366577e-01" purity="5.3296494483947754e-01" nType="-99"/>
          <Node pos="r" depth="2" NCoef="0" IVar="-1" Cut="0.0000000000000000e+00" cType="1" res="-2.7013825252652168e-02" rms="4.7316095232963562e-01" purity="3.1634414196014404e-01" nType="-99"/>
        </Node>
        <Node pos="r" depth="1" NCoef="0" IVar="-1" Cut="0.0000000000000000e+00" cType="1" res="-6.3743434846401215e-02" rms="3.0847209692001343e-01" purity="9.4362474977970123e-02" nType="-99"/>
      </Node>
    </BinaryTree>
    <BinaryTree type="DecisionTree" boostWeight="1.0000000000000000e+00" itree="27">
      <Node pos="s" depth="0" NCoef="0" IVar="9" Cut="4.7603015899658203e+00" cType="1" res="1.6330896178260446e-03" rms="3.7758028507232666e-01" purity="5.0238132476806641e-01" nType="0">
        <Node pos="l" depth="1" NCoef="0" IVar="9" Cut="1.1333469152450562e+00" cType="1" res="2.4639088660478592e-02" rms="3.8035058975219727e-01" purity="5.5359846353530884e-01" nType="0">
          <Node pos="l" depth="2" NCoef="0" IVar="-1" Cut="0.0000000000000000e+00" cType="1" res="-1.9560277462005615e-02" rms="4.3891862034797668e-01" purity="3.1365379691123962e-01" nType="-99"/>
          <Node pos="r" depth="2" NCoef="0" IVar="-1" Cut="0.0000000000000000e+00" cType="1" res="1.1822707019746304e-02" rms="3.6761367321014404e-01" purity="5.9105890989303589e-01" nType="-99"/>
        </Node>
        <Node pos="r" depth="1" NCoef="0" IVar="9" Cut="9.0676517486572266e+00" cType="1" res="-7.6690420508384705e-02" rms="3.5704621672630310e-01" purity="3.2801342010498047e-01" nType="0">
          <Node pos="l" depth="2" NCoef="0" IVar="-1" Cut="0.0000000000000000e+00" cType="1" res="-1.5019075945019722e-02" rms="3.6814957857131958e-01" purity="3.8884717226028442e-01" nType="-99"/>
          <Node pos="r" depth="2" NCoef="0" IVar="-1" Cut="0.0000000000000000e+00" cType="1" res="-3.6692760884761810e-02" rms="3.3403041958808899e-01" purity="2.2997371852397919e-01" nType="-99"/>
        </Node>
      </Node>
    </BinaryTree>
    <BinaryTree type="DecisionTree" boostWeight="1.0000000000000000e+00" itree="28">
      <Node pos="s" depth="0" NCoef="0" IVar="6" Cut="4.7708988189697266e+00" cType="1" res="-9.1822259128093719e-04" rms="3.7439414858818054e-01" purity="5.0069779157638550e-01" nType="0">
        <Node pos="l" depth="1" NCoef="0" IVar="3" Cut="5.0050840377807617e+00" cType="1" res="3.5201873630285263e-02" rms="3.6659252643585205e-01" purity="6.8281859159469604e-01" nType="0">
          <Node pos="l" depth="2" NCoef="0" IVar="-1" Cut="0.0000000000000000e+00" cType="1" res="2.5715641677379608e-02" rms="2.8842681646347046e-01" purity="8.6457574367523193e-01" nType="-99"/>
          <Node pos="r" depth="2" NCoef="0" IVar="-1" Cut="0.0000000000000000e+00" cType="1" res="-7.8103351406753063e-03" rms="4.5612087845802307e-01" purity="3.9475056529045105e-01" nType="-99"/>
        </Node>
        <Node pos="r" depth="1" NCoef="0" IVar="4" Cut="6.6525489807128906e+01" cType="1" res="-4.2115971446037292e-02" rms="3.7891849875450134e-01" purity="2.9297506809234619e-01" nType="0">
          <Node pos="l" depth="2" NCoef="0" IVar="-1" Cut="0.0000000000000000e+00" cType="1" res="-1.7922233790159225e-02" rms="3.8001403212547302e-01" purity="1.9387647509574890e-01" nType="-99"/>
          <Node pos="r" depth="2" NCoef="0" IVar="-1" Cut="0.0000000000000000e+00" cType="1" res="1.2863476760685444e-02" rms="3.6030933260917664e-01" purity="7.4282479286193848e-01" nType="-99"/>
        </Node>
      </Node>
    </BinaryTree>
    <BinaryTree type="DecisionTree" boostWeight="1.0000000000000000e+00" itree="29">
      <Node pos="s" depth="0" NCoef="0" IVar="6" Cut="4.7708988189697266e+00" cType="1" res="-4.0086405351758003e-04" rms="3.7583115696907043e-01" purity="4.9885675311088562e-01" nType="0">
        <Node pos="l" depth="1" NCoef="0" IVar="3" Cut="3.1789441108703613e+00" cType="1" res="3.2699853181838989e-02" rms="3.6812219023704529e-01" purity="6.8280965089797974e-01" nType="0">
          <Node pos="l" depth="2" NCoef="0" IVar="-1" Cut="0.0000000000000000e+00" cType="1" res="3.5138081759214401e-02" rms="2.2183114290237427e-01" purity="9.2927688360214233e-01" nType="-99"/>
          <Node pos="r" depth="2" NCoef="0" IVar="-1" Cut="0.0000000000000000e+00" cType="1" res="-2.4743657559156418e-04" rms="4.2814362049102783e-01" purity="5.3758770227432251e-01" nType="-99"/>
        </Node>
        <Node pos="r" depth="1" NCoef="0" IVar="4" Cut="6.4957542419433594e+01" cType="1" res="-3.8102515041828156e-02" rms="3.8093566894531250e-01" purity="2.8933483362197876e-01" nType="0">
          <Node pos="l" depth="2" NCoef="0" IVar="-1" Cut="0.0000000000000000e+00" cType="1" res="-1.6235960647463799e-02" rms="3.8113033771514893e-01" purity="1.9496470689773560e-01" nType="-99"/>
          <Node pos="r" depth="2" NCoef="0" IVar="-1" Cut="0.0000000000000000e+00" cType="1" res="1.1286973953247070e-02" rms="3.6952531337738037e-01" purity="7.2517794370651245e-01" nType="-99"/>
        </Node>
      </Node>
    </BinaryTree>
    <BinaryTree type="DecisionTree" boostWeight="1.0000000000000000e+00" itree="30">
      <Node pos="s" depth="0" NCoef="0" IVar="9" Cut="4.7603302001953125e+00" cType="1" res="-4.2945265886373818e-04" rms="3.7373113632202148e-01" purity="4.9969351291656494e-01" nType="0">
        <Node pos="l" depth="1" NCoef="0" IVar="9" Cut="1.3600162267684937e+00" cType="1" res="1.8531929701566696e-02" rms="3.7757778167724609e-01" purity="5.4985034465789795e-01" nType="0">
          <Node pos="l" depth="2" NCoef="0" IVar="-1" Cut="0.0000000000000000e+00" cType="1" res="-1.9621377810835838e-02" rms="4.2973741888999939e-01" purity="3.0750986933708191e-01" nType="-99"/>
          <Node pos="r" depth="2" NCoef="0" IVar="-1" Cut="0.0000000000000000e+00" cType="1" res="1.1560971848666668e-02" rms="3.6262032389640808e-01" purity="5.9983468055725098e-01" nType="-99"/>
        </Node>
        <Node pos="r" depth="1" NCoef="0" IVar="6" Cut="5.2386379241943359e+01" cType="1" res="-6.4815841615200043e-02" rms="3.5283842682838440e-01" purity="3.2937803864479065e-01" nType="0">
          <Node pos="l" depth="2" NCoef="0" IVar="-1" Cut="0.0000000000000000e+00" cType="1" res="-1.5150830149650574e-02" rms="3.7467041611671448e-01" purity="3.8780122995376587e-01" nType="-99"/>
          <Node pos="r" depth="2" NCoef="0" IVar="-1" Cut="0.0000000000000000e+00" cType="1" res="-5.3419154137372971e-02" rms="1.9255977869033813e-01" purity="3.2137632369995117e-02" nType="-99"/>
        </Node>
      </Node>
    </BinaryTree>
    <BinaryTree type="DecisionTree" boostWeight="1.0000000000000000e+00" itree="31">
      <Node pos="s" depth="0" NCoef="0" IVar="0" Cut="4.6571430206298828e+01" cType="1" res="2.1898025806876831e-05" rms="3.7418276071548462e-01" purity="4.9976634979248047e-01" nType="0">
        <Node pos="l" depth="1" NCoef="0" IVar="10" Cut="4.7552185058593750e+00" cType="1" res="6.2623717822134495e-03" rms="3.7425369024276733e-01" purity="5.1148265600204468e-01" nType="0">
          <Node pos="l" depth="2" NCoef="0" IVar="-1" Cut="0.0000000000000000e+00" cType="1" res="6.9876452907919884e-03" rms="3.9488929510116577e-01" purity="6.3821840286254883e-01" nType="-99"/>
          <Node pos="r" depth="2" NCoef="0" IVar="-1" Cut="0.0000000000000000e+00" cType="1" res="-2.2194188088178635e-02" rms="2.9024446010589600e-01" purity="1.0589797794818878e-01" nType="-99"/>
        </Node>
        <Node pos="r" depth="1" NCoef="0" IVar="-1" Cut="0.0000000000000000e+00" cType="1" res="-4.7502037137746811e-02" rms="3.3242172002792358e-01" purity="1.9079872965812683e-01" nType="-99"/>
      </Node>
    </BinaryTree>
    <BinaryTree type="DecisionTree" boostWeight="1.0000000000000000e+00" itree="32">
      <Node pos="s" depth="0" NCoef="0" IVar="9" Cut="4.7219352722167969e+00" cType="1" res="3.5796637530438602e-04" rms="3.7293401360511780e-01" purity="5.0114881992340088e-01" nType="0">
        <Node pos="l" depth="1" NCoef="0" IVar="9" Cut="1.1241155862808228e+00" cType="1" res="1.6986949369311333e-02" rms="3.7656712532043457e-01" purity="5.4980188608169556e-01" nType="0">
          <Node pos="l" depth="2" NCoef="0" IVar="-1" Cut="0.0000000000000000e+00" cType="1" res="-1.8705353140830994e-02" rms="4.2657294869422913e-01" purity="2.9552948474884033e-01" nType="-99"/>
          <Node pos="r" depth="2" NCoef="0" IVar="-1" Cut="0.0000000000000000e+00" cType="1" res="9.3186022713780403e-03" rms="3.6618328094482422e-01" purity="5.8904802799224854e-01" nType="-99"/>
        </Node>
        <Node pos="r" depth="1" NCoef="0" IVar="6" Cut="5.7147743225097656e+01" cType="1" res="-5.4651860147714615e-02" rms="3.5514926910400391e-01" purity="3.4020125865936279e-01" nType="0">
          <Node pos="l" depth="2" NCoef="0" IVar="-1" Cut="0.0000000000000000e+00" cType="1" res="-1.2737469747662544e-02" rms="3.7569156289100647e-01" purity="3.9559143781661987e-01" nType="-99"/>
          <Node pos="r" depth="2" NCoef="0" IVar="-1" Cut="0.0000000000000000e+00" cType="1" res="-5.2982620894908905e-02" rms="1.8837988376617432e-01" purity="2.9340989887714386e-02" nType="-99"/>
        </Node>
      </Node>
    </BinaryTree>
    <BinaryTree type="DecisionTree" boostWeight="1.0000000000000000e+00" itree="33">
      <Node pos="s" depth="0" NCoef="0" IVar="2" Cut="-9.0169370174407959e-01" cType="1" res="3.5686516202986240e-03" rms="3.7438049912452698e-01" purity="5.0302875041961670e-01" nType="0">
        <Node pos="l" depth="1" NCoef="0" IVar="10" Cut="4.7348971366882324e+00" cType="1" res="0.0000000000000000e+00" rms="0.0000000000000000e+00" purity="5.1596307754516602e-01" nType="0">
          <Node pos="l" depth="2" NCoef="0" IVar="-1" Cut="0.0000000000000000e+00" cType="1" res="8.5215307772159576e-03" rms="3.9485141634941101e-01" purity="6.4602470397949219e-01" nType="-99"/>
          <Node pos="r" depth="2" NCoef="0" IVar="-1" Cut="0.0000000000000000e+00" cType="1" res="-2.0922508090734482e-02" rms="2.8923764824867249e-01" purity="1.0662554949522018e-01" nType="-99"/>
        </Node>
        <Node pos="r" depth="1" NCoef="0" IVar="1" Cut="-1.5374039113521576e-01" cType="1" res="-1.1584317684173584e-01" rms="3.6289337277412415e-01" purity="3.0192157626152039e-01" nType="0">
          <Node pos="l" depth="2" NCoef="0" IVar="-1" Cut="0.0000000000000000e+00" cType="1" res="-5.4175700992345810e-02" rms="3.4060958027839661e-01" purity="1.8532259762287140e-01" nType="-99"/>
          <Node pos="r" depth="2" NCoef="0" IVar="-1" Cut="0.0000000000000000e+00" cType="1" res="-1.8697241321206093e-02" rms="3.6944806575775146e-01" purity="3.8688799738883972e-01" nType="-99"/>
        </Node>
      </Node>
    </BinaryTree>
    <BinaryTree type="DecisionTree" boostWeight="1.0000000000000000e+00" itree="34">
      <Node pos="s" depth="0" NCoef="0" IVar="2" Cut="7.7427819371223450e-02" cType="1" res="-2.1777325309813023e-03" rms="3.7202823162078857e-01" purity="4.9615556001663208e-01" nType="0">
        <Node pos="l" depth="1" NCoef="0" IVar="10" Cut="7.1328277587890625e+00" cType="1" res="2.5083972141146660e-03" rms="3.7239557504653931e-01" purity="5.0697863101959229e-01" nType="0">
          <Node pos="l" depth="2" NCoef="0" IVar="-1" Cut="0.0000000000000000e+00" cType="1" res="4.3427590280771255e-03" rms="3.9631527662277222e-01" purity="5.9829807281494141e-01" nType="-99"/>
          <Node pos="r" depth="2" NCoef="0" IVar="-1" Cut="0.0000000000000000e+00" cType="1" res="-3.5994321107864380e-02" rms="1.9752389192581177e-01" purity="3.9450697600841522e-02" nType="-99"/>
        </Node>
        <Node pos="r" depth="1" NCoef="0" IVar="-1" Cut="0.0000000000000000e+00" cType="1" res="-5.6246902793645859e-02" rms="3.0914917588233948e-01" purity="8.5451692342758179e-02" nType="-99"/>
      </Node>
    </BinaryTree>
    <BinaryTree type="DecisionTree" boostWeight="1.0000000000000000e+00" itree="35">
      <Node pos="s" depth="0" NCoef="0" IVar="3" Cut="3.2380015850067139e+00" cType="1" res="3.9733187295496464e-03" rms="3.7270882725715637e-01" purity="5.0582432746887207e-01" nType="0">
        <Node pos="l" depth="1" NCoef="0" IVar="3" Cut="1.4917458295822144e+00" cType="1" res="4.8424981534481049e-02" rms="2.7217128872871399e-01" purity="8.1678181886672974e-01" nType="0">
          <Node pos="l" depth="2" NCoef="0" IVar="-1" Cut="0.0000000000000000e+00" cType="1" res="-3.3603649586439133e-02" rms="4.2863941192626953e-01" purity="3.2925224304199219e-01" nType="-99"/>
          <Node pos="r" depth="2" NCoef="0" IVar="-1" Cut="0.0000000000000000e+00" cType="1" res="4.0211983025074005e-02" rms="1.8615661561489105e-01" purity="9.4675034284591675e-01" nType="-99"/>
        </Node>
        <Node pos="r" depth="1" NCoef="0" IVar="0" Cut="2.2285715103149414e+01" cType="1" res="-1.1429795995354652e-02" rms="4.0056964755058289e-01" purity="3.9807331562042236e-01" nType="0">
          <Node pos="l" depth="2" NCoef="0" IVar="-1" Cut="0.0000000000000000e+00" cType="1" res="-1.1707388330250978e-03" rms="4.0168452262878418e-01" purity="4.1088667511940002e-01" nType="-99"/>
          <Node pos="r" depth="2" NCoef="0" IVar="-1" Cut="0.0000000000000000e+00" cType="1" res="-3.6991760134696960e-02" rms="3.6412924528121948e-01" purity="1.9704581797122955e-01" nType="-99"/>
        </Node>
      </Node>
    </BinaryTree>
    <BinaryTree type="DecisionTree" boostWeight="1.0000000000000000e+00" itree="36">
      <Node pos="s" depth="0" NCoef="0" IVar="9" Cut="4.7603015899658203e+00" cType="1" res="6.7896296968683600e-04" rms="3.7181755900382996e-01" purity="5.0166970491409302e-01" nType="0">
        <Node pos="l" depth="1" NCoef="0" IVar="9" Cut="9.0672254562377930e-01" cType="1" res="1.6256283968687057e-02" rms="3.7658411264419556e-01" purity="5.5170941352844238e-01" nType="0">
          <Node pos="l" depth="2" NCoef="0" IVar="-1" Cut="0.0000000000000000e+00" cType="1" res="-1.8606059253215790e-02" rms="4.2231598496437073e-01" purity="2.8897219896316528e-01" nType="-99"/>
          <Node pos="r" depth="2" NCoef="0" IVar="-1" Cut="0.0000000000000000e+00" cType="1" res="8.0006681382656097e-03" rms="3.6978921294212341e-01" purity="5.8094233274459839e-01" nType="-99"/>
        </Node>
        <Node pos="r" depth="1" NCoef="0" IVar="6" Cut="6.6670463562011719e+01" cType="1" res="-5.2125956863164902e-02" rms="3.5006394982337952e-01" purity="3.3204212784767151e-01" nType="0">
          <Node pos="l" depth="2" NCoef="0" IVar="-1" Cut="0.0000000000000000e+00" cType="1" res="-1.3949437998235226e-02" rms="3.6649978160858154e-01" purity="3.7500497698783875e-01" nType="-99"/>
          <Node pos="r" depth="2" NCoef="0" IVar="-1" Cut="0.0000000000000000e+00" cType="1" res="-4.9073439091444016e-02" rms="1.9218361377716064e-01" purity="3.2798733562231064e-02" nType="-99"/>
        </Node>
      </Node>
    </BinaryTree>
    <BinaryTree type="DecisionTree" boostWeight="1.0000000000000000e+00" itree="37">
      <Node pos="s" depth="0" NCoef="0" IVar="10" Cut="4.7505822181701660e+00" cType="1" res="-7.0536520797759295e-04" rms="3.7137719988822937e-01" purity="4.9623507261276245e-01" nType="0">
        <Node pos="l" depth="1" NCoef="0" IVar="10" Cut="3.6191747188568115e+00" cType="1" res="1.3809970580041409e-02" rms="3.9452618360519409e-01" purity="6.2087446451187134e-01" nType="0">
          <Node pos="l" depth="2" NCoef="0" IVar="-1" Cut="0.0000000000000000e+00" cType="1" res="7.5376145541667938e-03" rms="3.8808226585388184e-01" purity="6.3955408334732056e-01" nType="-99"/>
          <Node pos="r" depth="2" NCoef="0" IVar="-1" Cut="0.0000000000000000e+00" cType="1" res="-2.4645708501338959e-02" rms="4.3067675828933716e-01" purity="4.5872989296913147e-01" nType="-99"/>
        </Node>
        <Node pos="r" depth="1" NCoef="0" IVar="10" Cut="9.0492982864379883e+00" cType="1" res="-4.7071207314729691e-02" rms="2.8011468052864075e-01" purity="9.8103739321231842e-02" nType="0">
          <Node pos="l" depth="2" NCoef="0" IVar="-1" Cut="0.0000000000000000e+00" cType="1" res="-7.3108240030705929e-03" rms="3.7110108137130737e-01" purity="1.8113808333873749e-01" nType="-99"/>
          <Node pos="r" depth="2" NCoef="0" IVar="-1" Cut="0.0000000000000000e+00" cType="1" res="-4.2988721281290054e-02" rms="1.5251842141151428e-01" purity="2.2300165146589279e-02" nType="-99"/>
        </Node>
      </Node>
    </BinaryTree>
    <BinaryTree type="DecisionTree" boostWeight="1.0000000000000000e+00" itree="38">
      <Node pos="s" depth="0" NCoef="0" IVar="6" Cut="8.0954742431640625e+01" cType="1" res="1.9140201620757580e-03" rms="3.7115016579627991e-01" purity="5.0212228298187256e-01" nType="0">
        <Node pos="l" depth="1" NCoef="0" IVar="5" Cut="4.5905992388725281e-02" cType="1" res="7.5814295560121536e-03" rms="3.7318971753120422e-01" purity="5.2343887090682983e-01" nType="0">
          <Node pos="l" depth="2" NCoef="0" IVar="-1" Cut="0.0000000000000000e+00" cType="1" res="5.0806147046387196e-03" rms="3.5922193527221680e-01" purity="5.4393392801284790e-01" nType="-99"/>
          <Node pos="r" depth="2" NCoef="0" IVar="-1" Cut="0.0000000000000000e+00" cType="1" res="-1.8328469246625900e-02" rms="4.7907027602195740e-01" purity="3.2781484723091125e-01" nType="-99"/>
        </Node>
        <Node pos="r" depth="1" NCoef="0" IVar="3" Cut="2.4190008163452148e+01" cType="1" res="-1.0010367631912231e-01" rms="3.1534001231193542e-01" purity="1.1840727180242538e-01" nType="0">
          <Node pos="l" depth="2" NCoef="0" IVar="-1" Cut="0.0000000000000000e+00" cType="1" res="-4.6902101486921310e-02" rms="2.8361070156097412e-01" purity="8.6563199758529663e-02" nType="-99"/>
          <Node pos="r" depth="2" NCoef="0" IVar="-1" Cut="0.0000000000000000e+00" cType="1" res="-1.9588664174079895e-02" rms="3.3677539229393005e-01" purity="1.4754590392112732e-01" nType="-99"/>
        </Node>
      </Node>
    </BinaryTree>
    <BinaryTree type="DecisionTree" boostWeight="1.0000000000000000e+00" itree="39">
      <Node pos="s" depth="0" NCoef="0" IVar="0" Cut="7.5714286804199219e+01" cType="1" res="-1.0944636305794120e-03" rms="3.6921045184135437e-01" purity="5.0081336498260498e-01" nType="0">
        <Node pos="l" depth="1" NCoef="0" IVar="6" Cut="7.1431930541992188e+01" cType="1" res="2.8352590743452311e-03" rms="3.7009504437446594e-01" purity="5.1099312305450439e-01" nType="0">
          <Node pos="l" depth="2" NCoef="0" IVar="-1" Cut="0.0000000000000000e+00" cType="1" res="3.0135440174490213e-03" rms="3.7275546789169312e-01" purity="5.4091721773147583e-01" nType="-99"/>
          <Node pos="r" depth="2" NCoef="0" IVar="-1" Cut="0.0000000000000000e+00" cType="1" res="-2.9557136818766594e-02" rms="3.1996071338653564e-01" purity="1.2293538451194763e-01" nType="-99"/>
        </Node>
        <Node pos="r" depth="1" NCoef="0" IVar="-1" Cut="0.0000000000000000e+00" cType="1" res="-4.7114022076129913e-02" rms="2.9934149980545044e-01" purity="1.1967688798904419e-01" nType="-99"/>
      </Node>
    </BinaryTree>
    <BinaryTree type="DecisionTree" boostWeight="1.0000000000000000e+00" itree="40">
      <Node pos="s" depth="0" NCoef="0" IVar="3" Cut="3.2380015850067139e+00" cType="1" res="-2.3119917605072260e-03" rms="3.6814835667610168e-01" purity="4.9944794178009033e-01" nType="0">
        <Node pos="l" depth="1" NCoef="0" IVar="3" Cut="1.4919475317001343e+00" cType="1" res="4.2930204421281815e-02" rms="2.6389944553375244e-01" purity="8.2085412740707397e-01" nType="0">
          <Node pos="l" depth="2" NCoef="0" IVar="-1" Cut="0.0000000000000000e+00" cType="1" res="-3.3906087279319763e-02" rms="4.2485186457633972e-01" purity="3.0825412273406982e-01" nType="-99"/>
          <Node pos="r" depth="2" NCoef="0" IVar="-1" Cut="0.0000000000000000e+00" cType="1" res="3.9183184504508972e-02" rms="1.8100365996360779e-01" purity="9.4965487718582153e-01" nType="-99"/>
        </Node>
        <Node pos="r" depth="1" NCoef="0" IVar="0" Cut="2.8571429252624512e+00" cType="1" res="-1.7849858850240707e-02" rms="3.9650729298591614e-01" purity="3.8906496763229370e-01" nType="0">
          <Node pos="l" depth="2" NCoef="0" IVar="-1" Cut="0.0000000000000000e+00" cType="1" res="-2.9629862401634455e-03" rms="3.9882314205169678e-01" purity="4.0275955200195312e-01" nType="-99"/>
          <Node pos="r" depth="2" NCoef="0" IVar="-1" Cut="0.0000000000000000e+00" cType="1" res="-3.7457700818777084e-02" rms="3.4584310650825500e-01" purity="1.9681070744991302e-01" nType="-99"/>
        </Node>
      </Node>
    </BinaryTree>
    <BinaryTree type="DecisionTree" boostWeight="1.0000000000000000e+00" itree="41">
      <Node pos="s" depth="0" NCoef="0" IVar="5" Cut="4.7372847795486450e-02" cType="1" res="-1.2371977791190147e-03" rms="3.6782717704772949e-01" purity="4.9973678588867188e-01" nType="0">
        <Node pos="l" depth="1" NCoef="0" IVar="6" Cut="4.8117408752441406e+00" cType="1" res="6.5548229031264782e-03" rms="3.5513585805892944e-01" purity="5.1714956760406494e-01" nType="0">
          <Node pos="l" depth="2" NCoef="0" IVar="-1" Cut="0.0000000000000000e+00" cType="1" res="1.0861321352422237e-02" rms="3.3671355247497559e-01" purity="7.2012323141098022e-01" nType="-99"/>
          <Node pos="r" depth="2" NCoef="0" IVar="-1" Cut="0.0000000000000000e+00" cType="1" res="-6.7581688053905964e-03" rms="3.7183544039726257e-01" purity="2.9921722412109375e-01" nType="-99"/>
        </Node>
        <Node pos="r" depth="1" NCoef="0" IVar="3" Cut="8.9430713653564453e+00" cType="1" res="-8.4371894598007202e-02" rms="4.7500666975975037e-01" purity="3.1395593285560608e-01" nType="0">
          <Node pos="l" depth="2" NCoef="0" IVar="-1" Cut="0.0000000000000000e+00" cType="1" res="-5.4798986762762070e-02" rms="4.9082341790199280e-01" purity="3.0552336573600769e-01" nType="-99"/>
          <Node pos="r" depth="2" NCoef="0" IVar="-1" Cut="0.0000000000000000e+00" cType="1" res="3.5932858008891344e-04" rms="4.4383087754249573e-01" purity="3.1938940286636353e-01" nType="-99"/>
        </Node>
      </Node>
    </BinaryTree>
    <BinaryTree type="DecisionTree" boostWeight="1.0000000000000000e+00" itree="42">
      <Node pos="s" depth="0" NCoef="0" IVar="10" Cut="7.1258735656738281e+00" cType="1" res="1.0317970300093293e-03" rms="3.6858069896697998e-01" purity="4.9964278936386108e-01" nType="0">
        <Node pos="l" depth="1" NCoef="0" IVar="10" Cut="3.3930451869964600e+00" cType="1" res="1.1166767217218876e-02" rms="3.9235755801200867e-01" purity="5.8801513910293579e-01" nType="0">
          <Node pos="l" depth="2" NCoef="0" IVar="-1" Cut="0.0000000000000000e+00" cType="1" res="7.9826321452856064e-03" rms="3.8315102458000183e-01" purity="6.4399522542953491e-01" nType="-99"/>
          <Node pos="r" depth="2" NCoef="0" IVar="-1" Cut="0.0000000000000000e+00" cType="1" res="-1.3216597028076649e-02" rms="4.1881424188613892e-01" purity="3.8382571935653687e-01" nType="-99"/>
        </Node>
        <Node pos="r" depth="1" NCoef="0" IVar="3" Cut="8.1240863800048828e+00" cType="1" res="-5.1649376749992371e-02" rms="1.9620707631111145e-01" purity="4.0287047624588013e-02" nType="0">
          <Node pos="l" depth="2" NCoef="0" IVar="-1" Cut="0.0000000000000000e+00" cType="1" res="-3.6251828074455261e-02" rms="2.2965766489505768e-01" purity="5.6606389582157135e-02" nType="-99"/>
          <Node pos="r" depth="2" NCoef="0" IVar="-1" Cut="0.0000000000000000e+00" cType="1" res="-2.8567025437951088e-02" rms="1.7623996734619141e-01" purity="3.2589592039585114e-02" nType="-99"/>
        </Node>
      </Node>
    </BinaryTree>
    <BinaryTree type="DecisionTree" boostWeight="1.0000000000000000e+00" itree="43">
      <Node pos="s" depth="0" NCoef="0" IVar="9" Cut="7.1404953002929688e+00" cType="1" res="-3.7460462772287428e-04" rms="3.7039777636528015e-01" purity="4.9829137325286865e-01" nType="0">
        <Node pos="l" depth="1" NCoef="0" IVar="9" Cut="1.3598684072494507e+00" cType="1" res="8.1813083961606026e-03" rms="3.7311175465583801e-01" purity="5.3124487400054932e-01" nType="0">
          <Node pos="l" depth="2" NCoef="0" IVar="-1" Cut="0.0000000000000000e+00" cType="1" res="-1.4017207548022270e-02" rms="4.3324449658393860e-01" purity="3.1331291794776917e-01" nType="-99"/>
          <Node pos="r" depth="2" NCoef="0" IVar="-1" Cut="0.0000000000000000e+00" cType="1" res="6.2796934507787228e-03" rms="3.6004182696342468e-01" purity="5.7050347328186035e-01" nType="-99"/>
        </Node>
        <Node pos="r" depth="1" NCoef="0" IVar="3" Cut="6.5091638565063477e+00" cType="1" res="-5.8226786553859711e-02" rms="3.4598922729492188e-01" purity="2.7547070384025574e-01" nType="0">
          <Node pos="l" depth="2" NCoef="0" IVar="-1" Cut="0.0000000000000000e+00" cType="1" res="-2.4981407448649406e-02" rms="3.9266714453697205e-01" purity="5.2069425582885742e-01" nType="-99"/>
          <Node pos="r" depth="2" NCoef="0" IVar="-1" Cut="0.0000000000000000e+00" cType="1" res="-1.7379514873027802e-02" rms="3.1782627105712891e-01" purity="1.4592477679252625e-01" nType="-99"/>
        </Node>
      </Node>
    </BinaryTree>
    <BinaryTree type="DecisionTree" boostWeight="1.0000000000000000e+00" itree="44">
      <Node pos="s" depth="0" NCoef="0" IVar="1" Cut="-5.6162083148956299e-01" cType="1" res="2.6138569228351116e-04" rms="3.6846250295639038e-01" purity="5.0005286931991577e-01" nType="0">
        <Node pos="l" depth="1" NCoef="0" IVar="6" Cut="6.6670463562011719e+01" cType="1" res="5.7697691954672337e-03" rms="3.6924323439598083e-01" purity="5.1294976472854614e-01" nType="0">
          <Node pos="l" depth="2" NCoef="0" IVar="-1" Cut="0.0000000000000000e+00" cType="1" res="4.0520047768950462e-03" rms="3.7220194935798645e-01" purity="5.4771143198013306e-01" nType="-99"/>
          <Node pos="r" depth="2" NCoef="0" IVar="-1" Cut="0.0000000000000000e+00" cType="1" res="-2.5453200563788414e-02" rms="3.2426542043685913e-01" purity="1.2818376719951630e-01" nType="-99"/>
        </Node>
        <Node pos="r" depth="1" NCoef="0" IVar="6" Cut="4.8204169273376465e+00" cType="1" res="-8.5800111293792725e-02" rms="3.4479773044586182e-01" purity="2.9855528473854065e-01" nType="0">
          <Node pos="l" depth="2" NCoef="0" IVar="-1" Cut="0.0000000000000000e+00" cType="1" res="-1.0008513927459717e-02" rms="3.9628943800926208e-01" purity="5.2524739503860474e-01" nType="-99"/>
          <Node pos="r" depth="2" NCoef="0" IVar="-1" Cut="0.0000000000000000e+00" cType="1" res="-5.3145967423915863e-02" rms="2.6892113685607910e-01" purity="5.5804893374443054e-02" nType="-99"/>
        </Node>
      </Node>
    </BinaryTree>
    <BinaryTree type="DecisionTree" boostWeight="1.0000000000000000e+00" itree="45">
      <Node pos="s" depth="0" NCoef="0" IVar="10" Cut="9.5011644363403320e+00" cType="1" res="1.4123859582468867e-03" rms="3.6996597051620483e-01" purity="4.9870824813842773e-01" nType="0">
        <Node pos="l" depth="1" NCoef="0" IVar="10" Cut="3.1666736602783203e+00" cType="1" res="8.4232650697231293e-03" rms="3.8823151588439941e-01" purity="5.6023478507995605e-01" nType="0">
          <Node pos="l" depth="2" NCoef="0" IVar="-1" Cut="0.0000000000000000e+00" cType="1" res="7.9913660883903503e-03" rms="3.8363510370254517e-01" purity="6.4316159486770630e-01" nType="-99"/>
          <Node pos="r" depth="2" NCoef="0" IVar="-1" Cut="0.0000000000000000e+00" cType="1" res="-1.1373255401849747e-02" rms="3.9536970853805542e-01" purity="3.5984200239181519e-01" nType="-99"/>
        </Node>
        <Node pos="r" depth="1" NCoef="0" IVar="6" Cut="4.8034505844116211e+00" cType="1" res="-5.2215814590454102e-02" rms="1.6639979183673859e-01" purity="2.8074303641915321e-02" nType="0">
          <Node pos="l" depth="2" NCoef="0" IVar="-1" Cut="0.0000000000000000e+00" cType="1" res="-3.8124129176139832e-02" rms="2.0595248043537140e-01" purity="4.4656053185462952e-02" nType="-99"/>
          <Node pos="r" depth="2" NCoef="0" IVar="-1" Cut="0.0000000000000000e+00" cType="1" res="-3.5154126584529877e-02" rms="1.4635597169399261e-01" purity="2.1585762500762939e-02" nType="-99"/>
        </Node>
      </Node>
    </BinaryTree>
    <BinaryTree type="DecisionTree" boostWeight="1.0000000000000000e+00" itree="46">
      <Node pos="s" depth="0" NCoef="0" IVar="5" Cut="4.5891530811786652e-02" cType="1" res="-5.7804907555691898e-05" rms="3.6785739660263062e-01" purity="4.9854758381843567e-01" nType="0">
        <Node pos="l" depth="1" NCoef="0" IVar="5" Cut="4.3690097518265247e-03" cType="1" res="6.1630322597920895e-03" rms="3.5490015149116516e-01" purity="5.1512312889099121e-01" nType="0">
          <Node pos="l" depth="2" NCoef="0" IVar="-1" Cut="0.0000000000000000e+00" cType="1" res="6.3374331220984459e-03" rms="3.4047803282737732e-01" purity="5.3934395313262939e-01" nType="-99"/>
          <Node pos="r" depth="2" NCoef="0" IVar="-1" Cut="0.0000000000000000e+00" cType="1" res="-2.6341574266552925e-02" rms="4.4251659512519836e-01" purity="3.1681275367736816e-01" nType="-99"/>
        </Node>
        <Node pos="r" depth="1" NCoef="0" IVar="3" Cut="9.1640348434448242e+00" cType="1" res="-6.3549347221851349e-02" rms="4.7589287161827087e-01" purity="3.2937306165695190e-01" nType="0">
          <Node pos="l" depth="2" NCoef="0" IVar="-1" Cut="0.0000000000000000e+00" cType="1" res="-4.9889788031578064e-02" rms="4.8721522092819214e-01" purity="3.0111986398696899e-01" nType="-99"/>
          <Node pos="r" depth="2" NCoef="0" IVar="-1" Cut="0.0000000000000000e+00" cType="1" res="4.9728914164006710e-03" rms="4.4877114892005920e-01" purity="3.4736517071723938e-01" nType="-99"/>
        </Node>
      </Node>
    </BinaryTree>
    <BinaryTree type="DecisionTree" boostWeight="1.0000000000000000e+00" itree="47">
      <Node pos="s" depth="0" NCoef="0" IVar="6" Cut="7.1432113647460938e+01" cType="1" res="3.2112793996930122e-03" rms="3.6878296732902527e-01" purity="5.0100982189178467e-01" nType="0">
        <Node pos="l" depth="1" NCoef="0" IVar="0" Cut="1.2571428298950195e+01" cType="1" res="9.1881835833191872e-03" rms="3.7212342023849487e-01" purity="5.3031539916992188e-01" nType="0">
          <Node pos="l" depth="2" NCoef="0" IVar="-1" Cut="0.0000000000000000e+00" cType="1" res="4.6383212320506573e-03" rms="3.7309247255325317e-01" purity="5.4476618766784668e-01" nType="-99"/>
          <Node pos="r" depth="2" NCoef="0" IVar="-1" Cut="0.0000000000000000e+00" cType="1" res="-2.4179266765713692e-02" rms="3.4670916199684143e-01" purity="3.1411743164062500e-01" nType="-99"/>
        </Node>
        <Node pos="r" depth="1" NCoef="0" IVar="3" Cut="1.8952005386352539e+01" cType="1" res="-7.4835941195487976e-02" rms="3.1164824962615967e-01" purity="1.1833401769399643e-01" nType="0">
          <Node pos="l" depth="2" NCoef="0" IVar="-1" Cut="0.0000000000000000e+00" cType="1" res="-4.0376443415880203e-02" rms="3.0145114660263062e-01" purity="1.0100650042295456e-01" nType="-99"/>
          <Node pos="r" depth="2" NCoef="0" IVar="-1" Cut="0.0000000000000000e+00" cType="1" res="-1.8161416053771973e-02" rms="3.1430035829544067e-01" purity="1.2812021374702454e-01" nType="-99"/>
        </Node>
      </Node>
    </BinaryTree>
    <BinaryTree type="DecisionTree" boostWeight="1.0000000000000000e+00" itree="48">
      <Node pos="s" depth="0" NCoef="0" IVar="5" Cut="4.7372847795486450e-02" cType="1" res="-8.5934204980731010e-04" rms="3.6626276373863220e-01" purity="4.9945199489593506e-01" nType="0">
        <Node pos="l" depth="1" NCoef="0" IVar="5" Cut="4.5107058249413967e-03" cType="1" res="5.8942800387740135e-03" rms="3.5404637455940247e-01" purity="5.1682722568511963e-01" nType="0">
          <Node pos="l" depth="2" NCoef="0" IVar="-1" Cut="0.0000000000000000e+00" cType="1" res="5.2937855944037437e-03" rms="3.3938342332839966e-01" purity="5.3904747962951660e-01" nType="-99"/>
          <Node pos="r" depth="2" NCoef="0" IVar="-1" Cut="0.0000000000000000e+00" cType="1" res="-1.9644264131784439e-02" rms="4.4861429929733276e-01" purity="3.3531314134597778e-01" nType="-99"/>
        </Node>
        <Node pos="r" depth="1" NCoef="0" IVar="3" Cut="8.8882160186767578e+00" cType="1" res="-7.1362935006618500e-02" rms="4.6964207291603088e-01" purity="3.1806558370590210e-01" nType="0">
          <Node pos="l" depth="2" NCoef="0" IVar="-1" Cut="0.0000000000000000e+00" cType="1" res="-4.2790435254573822e-02" rms="4.9018898606300354e-01" purity="3.1437262892723083e-01" nType="-99"/>
          <Node pos="r" depth="2" NCoef="0" IVar="-1" Cut="0.0000000000000000e+00" cType="1" res="-2.1786296274513006e-03" rms="4.4500747323036194e-01" purity="3.2040864229202271e-01" nType="-99"/>
        </Node>
      </Node>
    </BinaryTree>
    <BinaryTree type="DecisionTree" boostWeight="1.0000000000000000e+00" itree="49">
      <Node pos="s" depth="0" NCoef="0" IVar="2" Cut="7.7427819371223450e-02" cType="1" res="-2.5338507257401943e-03" rms="3.6678820848464966e-01" purity="4.9396678805351257e-01" nType="0">
        <Node pos="l" depth="1" NCoef="0" IVar="5" Cut="4.7372847795486450e-02" cType="1" res="8.8438502280041575e-04" rms="3.6799082159996033e-01" purity="5.0466275215148926e-01" nType="0">
          <Node pos="l" depth="2" NCoef="0" IVar="-1" Cut="0.0000000000000000e+00" cType="1" res="2.3620415013283491e-03" rms="3.5590866208076477e-01" purity="5.2298146486282349e-01" nType="-99"/>
          <Node pos="r" depth="2" NCoef="0" IVar="-1" Cut="0.0000000000000000e+00" cType="1" res="-1.6109829768538475e-02" rms="4.7109758853912354e-01" purity="3.1341665983200073e-01" nType="-99"/>
        </Node>
        <Node pos="r" depth="1" NCoef="0" IVar="-1" Cut="0.0000000000000000e+00" cType="1" res="-4.7631919384002686e-02" rms="2.8865543007850647e-01" purity="8.5622295737266541e-02" nType="-99"/>
      </Node>
    </BinaryTree>
    <BinaryTree type="DecisionTree" boostWeight="1.0000000000000000e+00" itree="50">
      <Node pos="s" depth="0" NCoef="0" IVar="9" Cut="4.7601127624511719e+00" cType="1" res="-2.9695695266127586e-03" rms="3.6599966883659363e-01" purity="4.9525400996208191e-01" nType="0">
        <Node pos="l" depth="1" NCoef="0" IVar="9" Cut="9.0667754411697388e-01" cType="1" res="8.6184432730078697e-03" rms="3.7186297774314880e-01" purity="5.4455929994583130e-01" nType="0">
          <Node pos="l" depth="2" NCoef="0" IVar="-1" Cut="0.0000000000000000e+00" cType="1" res="-2.1096095442771912e-02" rms="4.0865689516067505e-01" purity="2.5388225913047791e-01" nType="-99"/>
          <Node pos="r" depth="2" NCoef="0" IVar="-1" Cut="0.0000000000000000e+00" cType="1" res="5.8108204975724220e-03" rms="3.6641740798950195e-01" purity="5.7561808824539185e-01" nType="-99"/>
        </Node>
        <Node pos="r" depth="1" NCoef="0" IVar="10" Cut="2.3665764331817627e+00" cType="1" res="-4.1905734688043594e-02" rms="3.4271264076232910e-01" purity="3.2958632707595825e-01" nType="0">
          <Node pos="l" depth="2" NCoef="0" IVar="-1" Cut="0.0000000000000000e+00" cType="1" res="-3.6621135659515858e-03" rms="4.1789755225181580e-01" purity="4.8136416077613831e-01" nType="-99"/>
          <Node pos="r" depth="2" NCoef="0" IVar="-1" Cut="0.0000000000000000e+00" cType="1" res="-2.0401736721396446e-02" rms="3.1259775161743164e-01" purity="2.7815434336662292e-01" nType="-99"/>
        </Node>
      </Node>
    </BinaryTree>
    <BinaryTree type="DecisionTree" boostWeight="1.0000000000000000e+00" itree="51">
      <Node pos="s" depth="0" NCoef="0" IVar="10" Cut="7.1225538253784180e+00" cType="1" res="1.5234154416248202e-03" rms="3.6493206024169922e-01" purity="5.0063288211822510e-01" nType="0">
        <Node pos="l" depth="1" NCoef="0" IVar="10" Cut="6.7832142114639282e-01" cType="1" res="9.7297355532646179e-03" rms="3.8828378915786743e-01" purity="5.8853137493133545e-01" nType="0">
          <Node pos="l" depth="2" NCoef="0" IVar="-1" Cut="0.0000000000000000e+00" cType="1" res="-2.2098965942859650e-02" rms="4.0778577327728271e-01" purity="2.3939834535121918e-01" nType="-99"/>
          <Node pos="r" depth="2" NCoef="0" IVar="-1" Cut="0.0000000000000000e+00" cType="1" res="5.3765662014484406e-03" rms="3.8537600636482239e-01" purity="6.1859196424484253e-01" nType="-99"/>
        </Node>
        <Node pos="r" depth="1" NCoef="0" IVar="3" Cut="1.2264204025268555e+01" cType="1" res="-4.1345264762639999e-02" rms="1.9774699211120605e-01" purity="4.1463423520326614e-02" nType="0">
          <Node pos="l" depth="2" NCoef="0" IVar="-1" Cut="0.0000000000000000e+00" cType="1" res="-3.3506929874420166e-02" rms="2.0133736729621887e-01" purity="4.3674573302268982e-02" nType="-99"/>
          <Node pos="r" depth="2" NCoef="0" IVar="-1" Cut="0.0000000000000000e+00" cType="1" res="-1.6623385250568390e-02" rms="1.9034260511398315e-01" purity="3.8580082356929779e-02" nType="-99"/>
        </Node>
      </Node>
    </BinaryTree>
    <BinaryTree type="DecisionTree" boostWeight="1.0000000000000000e+00" itree="52">
      <Node pos="s" depth="0" NCoef="0" IVar="6" Cut="4.7708988189697266e+00" cType="1" res="-1.2645786628127098e-03" rms="3.6583179235458374e-01" purity="4.9849659204483032e-01" nType="0">
        <Node pos="l" depth="1" NCoef="0" IVar="6" Cut="2.0500426292419434e+00" cType="1" res="1.6092892736196518e-02" rms="3.5733351111412048e-01" purity="6.7918187379837036e-01" nType="0">
          <Node pos="l" depth="2" NCoef="0" IVar="-1" Cut="0.0000000000000000e+00" cType="1" res="1.3826454989612103e-02" rms="3.3130109310150146e-01" purity="7.6142048835754395e-01" nType="-99"/>
          <Node pos="r" depth="2" NCoef="0" IVar="-1" Cut="0.0000000000000000e+00" cType="1" res="-8.9344605803489685e-03" rms="4.0104478597640991e-01" purity="5.1193434000015259e-01" nType="-99"/>
        </Node>
        <Node pos="r" depth="1" NCoef="0" IVar="4" Cut="6.8570007324218750e+01" cType="1" res="-2.1063426509499550e-02" rms="3.7430912256240845e-01" purity="2.9239732027053833e-01" nType="0">
          <Node pos="l" depth="2" NCoef="0" IVar="-1" Cut="0.0000000000000000e+00" cType="1" res="-1.0494351387023926e-02" rms="3.7951457500457764e-01" purity="1.9739612936973572e-01" nType="-99"/>
          <Node pos="r" depth="2" NCoef="0" IVar="-1" Cut="0.0000000000000000e+00" cType="1" res="1.0534530505537987e-02" rms="3.4236380457878113e-01" purity="7.5353664159774780e-01" nType="-99"/>
        </Node>
      </Node>
    </BinaryTree>
    <BinaryTree type="DecisionTree" boostWeight="1.0000000000000000e+00" itree="53">
      <Node pos="s" depth="0" NCoef="0" IVar="10" Cut="9.5104370117187500e+00" cType="1" res="3.2978423405438662e-04" rms="3.6810472607612610e-01" purity="4.9630206823348999e-01" nType="0">
        <Node pos="l" depth="1" NCoef="0" IVar="10" Cut="9.0573573112487793e-01" cType="1" res="6.5033878199756145e-03" rms="3.8714063167572021e-01" purity="5.5819582939147949e-01" nType="0">
          <Node pos="l" depth="2" NCoef="0" IVar="-1" Cut="0.0000000000000000e+00" cType="1" res="-1.6949998214840889e-02" rms="4.2220112681388855e-01" purity="2.6669973134994507e-01" nType="-99"/>
          <Node pos="r" depth="2" NCoef="0" IVar="-1" Cut="0.0000000000000000e+00" cType="1" res="4.3612830340862274e-03" rms="3.8249433040618896e-01" purity="5.8844095468521118e-01" nType="-99"/>
        </Node>
        <Node pos="r" depth="1" NCoef="0" IVar="3" Cut="8.1240921020507812e+00" cType="1" res="-4.6903356909751892e-02" rms="1.5160562098026276e-01" purity="2.2763898596167564e-02" nType="0">
          <Node pos="l" depth="2" NCoef="0" IVar="-1" Cut="0.0000000000000000e+00" cType="1" res="-4.2103141546249390e-02" rms="1.7248286306858063e-01" purity="2.8829155489802361e-02" nType="-99"/>
          <Node pos="r" depth="2" NCoef="0" IVar="-1" Cut="0.0000000000000000e+00" cType="1" res="-3.3613085746765137e-02" rms="1.4063729345798492e-01" purity="2.0348902791738510e-02" nType="-99"/>
        </Node>
      </Node>
    </BinaryTree>
    <BinaryTree type="DecisionTree" boostWeight="1.0000000000000000e+00" itree="54">
      <Node pos="s" depth="0" NCoef="0" IVar="6" Cut="4.7708988189697266e+00" cType="1" res="-2.7064091409556568e-04" rms="3.6564815044403076e-01" purity="4.9816471338272095e-01" nType="0">
        <Node pos="l" depth="1" NCoef="0" IVar="3" Cut="3.5292115211486816e+00" cType="1" res="1.7656780779361725e-02" rms="3.5768264532089233e-01" purity="6.8182027339935303e-01" nType="0">
          <Node pos="l" depth="2" NCoef="0" IVar="-1" Cut="0.0000000000000000e+00" cType="1" res="2.8408551588654518e-02" rms="2.1929663419723511e-01" purity="9.2384839057922363e-01" nType="-99"/>
          <Node pos="r" depth="2" NCoef="0" IVar="-1" Cut="0.0000000000000000e+00" cType="1" res="-3.5743676126003265e-03" rms="4.3180462718009949e-01" purity="4.9769806861877441e-01" nType="-99"/>
        </Node>
        <Node pos="r" depth="1" NCoef="0" IVar="10" Cut="2.3741846084594727e+00" cType="1" res="-2.0775191485881805e-02" rms="3.7349763512611389e-01" purity="2.8810799121856689e-01" nType="0">
          <Node pos="l" depth="2" NCoef="0" IVar="-1" Cut="0.0000000000000000e+00" cType="1" res="2.1582003682851791e-03" rms="4.3141925334930420e-01" purity="3.9828541874885559e-01" nType="-99"/>
          <Node pos="r" depth="2" NCoef="0" IVar="-1" Cut="0.0000000000000000e+00" cType="1" res="-1.5870470553636551e-02" rms="3.2665455341339111e-01" purity="2.1291680634021759e-01" nType="-99"/>
        </Node>
      </Node>
    </BinaryTree>
    <BinaryTree type="DecisionTree" boostWeight="1.0000000000000000e+00" itree="55">
      <Node pos="s" depth="0" NCoef="0" IVar="6" Cut="8.5715911865234375e+01" cType="1" res="-9.7689323592931032e-04" rms="3.6372348666191101e-01" purity="4.9775269627571106e-01" nType="0">
        <Node pos="l" depth="1" NCoef="0" IVar="5" Cut="9.4745784997940063e-02" cType="1" res="2.6127519086003304e-03" rms="3.6618211865425110e-01" purity="5.1569616794586182e-01" nType="0">
          <Node pos="l" depth="2" NCoef="0" IVar="-1" Cut="0.0000000000000000e+00" cType="1" res="2.3780046030879021e-03" rms="3.5790494084358215e-01" purity="5.2845883369445801e-01" nType="-99"/>
          <Node pos="r" depth="2" NCoef="0" IVar="-1" Cut="0.0000000000000000e+00" cType="1" res="-1.7279040068387985e-02" rms="4.7204840183258057e-01" purity="3.1533405184745789e-01" nType="-99"/>
        </Node>
        <Node pos="r" depth="1" NCoef="0" IVar="-1" Cut="0.0000000000000000e+00" cType="1" res="-3.0525736510753632e-02" rms="2.9253140091896057e-01" purity="9.7569637000560760e-02" nType="-99"/>
      </Node>
    </BinaryTree>
    <BinaryTree type="DecisionTree" boostWeight="1.0000000000000000e+00" itree="56">
      <Node pos="s" depth="0" NCoef="0" IVar="9" Cut="4.7603302001953125e+00" cType="1" res="1.3481699861586094e-03" rms="3.6531665921211243e-01" purity="5.0144118070602417e-01" nType="0">
        <Node pos="l" depth="1" NCoef="0" IVar="0" Cut="1.2571428298950195e+01" cType="1" res="1.1032009497284889e-02" rms="3.7054383754730225e-01" purity="5.4966074228286743e-01" nType="0">
          <Node pos="l" depth="2" NCoef="0" IVar="-1" Cut="0.0000000000000000e+00" cType="1" res="4.9235387705266476e-03" rms="3.7144121527671814e-01" purity="5.6351083517074585e-01" nType="-99"/>
          <Node pos="r" depth="2" NCoef="0" IVar="-1" Cut="0.0000000000000000e+00" cType="1" res="-1.9039567559957504e-02" rms="3.4938323497772217e-01" purity="3.3408710360527039e-01" nType="-99"/>
        </Node>
        <Node pos="r" depth="1" NCoef="0" IVar="3" Cut="1.8935665130615234e+01" cType="1" res="-3.1448084861040115e-02" rms="3.4501624107360840e-01" purity="3.3813604712486267e-01" nType="0">
          <Node pos="l" depth="2" NCoef="0" IVar="-1" Cut="0.0000000000000000e+00" cType="1" res="-7.9676173627376556e-03" rms="3.6262157559394836e-01" purity="3.9705520868301392e-01" nType="-99"/>
          <Node pos="r" depth="2" NCoef="0" IVar="-1" Cut="0.0000000000000000e+00" cType="1" res="-3.3000882714986801e-02" rms="2.4416130781173706e-01" purity="6.5625160932540894e-02" nType="-99"/>
        </Node>
      </Node>
    </BinaryTree>
    <BinaryTree type="DecisionTree" boostWeight="1.0000000000000000e+00" itree="57">
      <Node pos="s" depth="0" NCoef="0" IVar="1" Cut="-1.8983533382415771e+00" cType="1" res="-6.9961615372449160e-04" rms="3.6190244555473328e-01" purity="5.0137209892272949e-01" nType="0">
        <Node pos="l" depth="1" NCoef="0" IVar="10" Cut="7.1023454666137695e+00" cType="1" res="0.0000000000000000e+00" rms="0.0000000000000000e+00" purity="5.1467794179916382e-01" nType="0">
          <Node pos="l" depth="2" NCoef="0" IVar="-1" Cut="0.0000000000000000e+00" cType="1" res="3.4531727433204651e-03" rms="3.8760688900947571e-01" purity="6.1015504598617554e-01" nType="-99"/>
          <Node pos="r" depth="2" NCoef="0" IVar="-1" Cut="0.0000000000000000e+00" cType="1" res="-2.8861552476882935e-02" rms="1.8661826848983765e-01" purity="3.5691294819116592e-02" nType="-99"/>
        </Node>
        <Node pos="r" depth="1" NCoef="0" IVar="1" Cut="-1.3182009756565094e-01" cType="1" res="-6.5424993634223938e-02" rms="3.4610378742218018e-01" purity="2.9056009650230408e-01" nType="0">
          <Node pos="l" depth="2" NCoef="0" IVar="-1" Cut="0.0000000000000000e+00" cType="1" res="-3.8246389478445053e-02" rms="3.2618966698646545e-01" purity="2.0376266539096832e-01" nType="-99"/>
          <Node pos="r" depth="2" NCoef="0" IVar="-1" Cut="0.0000000000000000e+00" cType="1" res="-6.9511788897216320e-03" rms="3.5914930701255798e-01" purity="3.7613353133201599e-01" nType="-99"/>
        </Node>
      </Node>
    </BinaryTree>
    <BinaryTree type="DecisionTree" boostWeight="1.0000000000000000e+00" itree="58">
      <Node pos="s" depth="0" NCoef="0" IVar="0" Cut="7.5714286804199219e+01" cType="1" res="-1.4636232517659664e-03" rms="3.6129471659660339e-01" purity="4.9821841716766357e-01" nType="0">
        <Node pos="l" depth="1" NCoef="0" IVar="3" Cut="3.2380015850067139e+00" cType="1" res="1.5232254518195987e-03" rms="3.6297076940536499e-01" purity="5.0901556015014648e-01" nType="0">
          <Node pos="l" depth="2" NCoef="0" IVar="-1" Cut="0.0000000000000000e+00" cType="1" res="1.3078877702355385e-02" rms="2.4903741478919983e-01" purity="8.1846904754638672e-01" nType="-99"/>
          <Node pos="r" depth="2" NCoef="0" IVar="-1" Cut="0.0000000000000000e+00" cType="1" res="-2.3136776871979237e-03" rms="3.9508515596389771e-01" purity="3.9952540397644043e-01" nType="-99"/>
        </Node>
        <Node pos="r" depth="1" NCoef="0" IVar="-1" Cut="0.0000000000000000e+00" cType="1" res="-4.2779024690389633e-02" rms="2.6877436041831970e-01" purity="9.3936577439308167e-02" nType="-99"/>
      </Node>
    </BinaryTree>
    <BinaryTree type="DecisionTree" boostWeight="1.0000000000000000e+00" itree="59">
      <Node pos="s" depth="0" NCoef="0" IVar="9" Cut="9.5202255249023438e+00" cType="1" res="8.4451958537101746e-04" rms="3.6553779244422913e-01" purity="4.9832567572593689e-01" nType="0">
        <Node pos="l" depth="1" NCoef="0" IVar="6" Cut="4.7762427330017090e+00" cType="1" res="5.7458798401057720e-03" rms="3.6818602681159973e-01" purity="5.2175205945968628e-01" nType="0">
          <Node pos="l" depth="2" NCoef="0" IVar="-1" Cut="0.0000000000000000e+00" cType="1" res="6.5132793970406055e-03" rms="3.5416197776794434e-01" purity="6.9513875246047974e-01" nType="-99"/>
          <Node pos="r" depth="2" NCoef="0" IVar="-1" Cut="0.0000000000000000e+00" cType="1" res="-3.3439479302614927e-03" rms="3.8381233811378479e-01" purity="3.1227040290832520e-01" nType="-99"/>
        </Node>
        <Node pos="r" depth="1" NCoef="0" IVar="10" Cut="4.7216773033142090e+00" cType="1" res="-5.4892323911190033e-02" rms="3.2884961366653442e-01" purity="2.3192745447158813e-01" nType="0">
          <Node pos="l" depth="2" NCoef="0" IVar="-1" Cut="0.0000000000000000e+00" cType="1" res="-2.0591538399457932e-02" rms="4.0874469280242920e-01" purity="3.9774796366691589e-01" nType="-99"/>
          <Node pos="r" depth="2" NCoef="0" IVar="-1" Cut="0.0000000000000000e+00" cType="1" res="-2.3391304537653923e-02" rms="2.0332671701908112e-01" purity="4.7036882489919662e-02" nType="-99"/>
        </Node>
      </Node>
    </BinaryTree>
    <BinaryTree type="DecisionTree" boostWeight="1.0000000000000000e+00" itree="60">
      <Node pos="s" depth="0" NCoef="0" IVar="5" Cut="4.6216584742069244e-02" cType="1" res="-1.9742266740649939e-03" rms="3.6256819963455200e-01" purity="4.9847033619880676e-01" nType="0">
        <Node pos="l" depth="1" NCoef="0" IVar="5" Cut="4.3998872861266136e-03" cType="1" res="2.8358586132526398e-03" rms="3.5015353560447693e-01" purity="5.1603829860687256e-01" nType="0">
          <Node pos="l" depth="2" NCoef="0" IVar="-1" Cut="0.0000000000000000e+00" cType="1" res="4.2615286074578762e-03" rms="3.3493262529373169e-01" purity="5.3903013467788696e-01" nType="-99"/>
          <Node pos="r" depth="2" NCoef="0" IVar="-1" Cut="0.0000000000000000e+00" cType="1" res="-1.9965909421443939e-02" rms="4.4852659106254578e-01" purity="3.2887670397758484e-01" nType="-99"/>
        </Node>
        <Node pos="r" depth="1" NCoef="0" IVar="3" Cut="7.0683612823486328e+00" cType="1" res="-5.0837974995374680e-02" rms="4.6767321228981018e-01" purity="3.2000443339347839e-01" nType="0">
          <Node pos="l" depth="2" NCoef="0" IVar="-1" Cut="0.0000000000000000e+00" cType="1" res="-4.5839685946702957e-02" rms="4.9236649274826050e-01" purity="3.0805176496505737e-01" nType="-99"/>
          <Node pos="r" depth="2" NCoef="0" IVar="-1" Cut="0.0000000000000000e+00" cType="1" res="3.1903341878205538e-03" rms="4.4127708673477173e-01" purity="3.2605004310607910e-01" nType="-99"/>
        </Node>
      </Node>
    </BinaryTree>
    <BinaryTree type="DecisionTree" boostWeight="1.0000000000000000e+00" itree="61">
      <Node pos="s" depth="0" NCoef="0" IVar="2" Cut="7.7427819371223450e-02" cType="1" res="2.8014285489916801e-03" rms="3.6568596959114075e-01" purity="5.0079256296157837e-01" nType="0">
        <Node pos="l" depth="1" NCoef="0" IVar="10" Cut="9.5104370117187500e+00" cType="1" res="5.0865821540355682e-03" rms="3.6700350046157837e-01" purity="5.1126819849014282e-01" nType="0">
          <Node pos="l" depth="2" NCoef="0" IVar="-1" Cut="0.0000000000000000e+00" cType="1" res="3.1572885345667601e-03" rms="3.8570788502693176e-01" purity="5.7491254806518555e-01" nType="-99"/>
          <Node pos="r" depth="2" NCoef="0" IVar="-1" Cut="0.0000000000000000e+00" cType="1" res="-3.1308922916650772e-02" rms="1.5983378887176514e-01" purity="2.6032304391264915e-02" nType="-99"/>
        </Node>
        <Node pos="r" depth="1" NCoef="0" IVar="-1" Cut="0.0000000000000000e+00" cType="1" res="-3.4015562385320663e-02" rms="2.9802307486534119e-01" purity="9.8997324705123901e-02" nType="-99"/>
      </Node>
    </BinaryTree>
    <BinaryTree type="DecisionTree" boostWeight="1.0000000000000000e+00" itree="62">
      <Node pos="s" depth="0" NCoef="0" IVar="6" Cut="6.6670585632324219e+01" cType="1" res="5.2641140064224601e-04" rms="3.6198598146438599e-01" purity="5.0198054313659668e-01" nType="0">
        <Node pos="l" depth="1" NCoef="0" IVar="6" Cut="3.1859550476074219e+00" cType="1" res="4.9558095633983612e-03" rms="3.6519217491149902e-01" purity="5.3439217805862427e-01" nType="0">
          <Node pos="l" depth="2" NCoef="0" IVar="-1" Cut="0.0000000000000000e+00" cType="1" res="8.0679506063461304e-03" rms="3.4421631693840027e-01" purity="7.2125190496444702e-01" nType="-99"/>
          <Node pos="r" depth="2" NCoef="0" IVar="-1" Cut="0.0000000000000000e+00" cType="1" res="-3.7110133562237024e-03" rms="3.8307294249534607e-01" purity="3.5900208353996277e-01" nType="-99"/>
        </Node>
        <Node pos="r" depth="1" NCoef="0" IVar="3" Cut="2.1301937103271484e+01" cType="1" res="-5.0802025943994522e-02" rms="3.1804764270782471e-01" purity="1.2639072537422180e-01" nType="0">
          <Node pos="l" depth="2" NCoef="0" IVar="-1" Cut="0.0000000000000000e+00" cType="1" res="-3.6168683320283890e-02" rms="2.9621610045433044e-01" purity="9.4151847064495087e-02" nType="-99"/>
          <Node pos="r" depth="2" NCoef="0" IVar="-1" Cut="0.0000000000000000e+00" cType="1" res="-6.1449836939573288e-03" rms="3.2967302203178406e-01" purity="1.5131273865699768e-01" nType="-99"/>
        </Node>
      </Node>
    </BinaryTree>
    <BinaryTree type="DecisionTree" boostWeight="1.0000000000000000e+00" itree="63">
      <Node pos="s" depth="0" NCoef="0" IVar="9" Cut="7.1404523849487305e+00" cType="1" res="3.4084590151906013e-04" rms="3.6216506361961365e-01" purity="4.9946823716163635e-01" nType="0">
        <Node pos="l" depth="1" NCoef="0" IVar="9" Cut="1.0200583934783936e+00" cType="1" res="5.9886239469051361e-03" rms="3.6533796787261963e-01" purity="5.3307729959487915e-01" nType="0">
          <Node pos="l" depth="2" NCoef="0" IVar="-1" Cut="0.0000000000000000e+00" cType="1" res="-1.1917127296328545e-02" rms="4.1949287056922913e-01" purity="2.8732347488403320e-01" nType="-99"/>
          <Node pos="r" depth="2" NCoef="0" IVar="-1" Cut="0.0000000000000000e+00" cType="1" res="4.0009780786931515e-03" rms="3.5812455415725708e-01" purity="5.6135970354080200e-01" nType="-99"/>
        </Node>
        <Node pos="r" depth="1" NCoef="0" IVar="6" Cut="4.7967138290405273e+00" cType="1" res="-3.7601828575134277e-02" rms="3.3764198422431946e-01" purity="2.7367711067199707e-01" nType="0">
          <Node pos="l" depth="2" NCoef="0" IVar="-1" Cut="0.0000000000000000e+00" cType="1" res="-1.9603207707405090e-02" rms="3.9855104684829712e-01" purity="4.3701213598251343e-01" nType="-99"/>
          <Node pos="r" depth="2" NCoef="0" IVar="-1" Cut="0.0000000000000000e+00" cType="1" res="-9.8319416865706444e-03" rms="2.9333451390266418e-01" purity="1.7415146529674530e-01" nType="-99"/>
        </Node>
      </Node>
    </BinaryTree>
    <BinaryTree type="DecisionTree" boostWeight="1.0000000000000000e+00" itree="64">
      <Node pos="s" depth="0" NCoef="0" IVar="6" Cut="7.1431831359863281e+01" cType="1" res="2.2948256228119135e-03" rms="3.6407428979873657e-01" purity="5.0069308280944824e-01" nType="0">
        <Node pos="l" depth="1" NCoef="0" IVar="6" Cut="3.4115066528320312e+00" cType="1" res="6.5628895536065102e-03" rms="3.6762961745262146e-01" purity="5.3014904260635376e-01" nType="0">
          <Node pos="l" depth="2" NCoef="0" IVar="-1" Cut="0.0000000000000000e+00" cType="1" res="8.2333711907267570e-03" rms="3.4989938139915466e-01" purity="7.1515357494354248e-01" nType="-99"/>
          <Node pos="r" depth="2" NCoef="0" IVar="-1" Cut="0.0000000000000000e+00" cType="1" res="-3.1430642120540142e-03" rms="3.8362368941307068e-01" purity="3.4739226102828979e-01" nType="-99"/>
        </Node>
