<?xml version="1.0"?>
<MethodSetup Method="BDT::BDTG">
  <GeneralInfo>
    <Info name="TMVA Release" value="4.2.1 [262657]"/>
    <Info name="ROOT Release" value="6.22/06 [398854]"/>
    <Info name="Creator" value="imawby"/>
    <Info name="Date" value="Thu Jul  8 11:35:09 2021"/>
    <Info name="Host" value="Linux buildservice004.fnal.gov 3.10.0-1160.11.1.el7.x86_64 #1 SMP Tue Dec 15 08:51:23 CST 2020 x86_64 x86_64 x86_64 GNU/Linux"/>
    <Info name="Dir" value="/dune/app/users/imawby/selection/trainings/pandizzle"/>
    <Info name="Training events" value="202792"/>
    <Info name="TrainingTime" value="1.61942087e+02"/>
    <Info name="AnalysisType" value="Classification"/>
  </GeneralInfo>
  <Options>
    <Option name="V" modified="Yes">False</Option>
    <Option name="VerbosityLevel" modified="No">Default</Option>
    <Option name="VarTransform" modified="No">None</Option>
    <Option name="H" modified="Yes">False</Option>
    <Option name="CreateMVAPdfs" modified="No">False</Option>
    <Option name="IgnoreNegWeightsInTraining" modified="No">False</Option>
    <Option name="NTrees" modified="Yes">1000</Option>
    <Option name="MaxDepth" modified="Yes">2</Option>
    <Option name="MinNodeSize" modified="Yes">2.5%</Option>
    <Option name="nCuts" modified="Yes">20</Option>
    <Option name="BoostType" modified="Yes">Grad</Option>
    <Option name="AdaBoostR2Loss" modified="No">quadratic</Option>
    <Option name="UseBaggedBoost" modified="Yes">True</Option>
    <Option name="Shrinkage" modified="Yes">1.000000e-01</Option>
    <Option name="AdaBoostBeta" modified="No">5.000000e-01</Option>
    <Option name="UseRandomisedTrees" modified="No">False</Option>
    <Option name="UseNvars" modified="No">4</Option>
    <Option name="UsePoissonNvars" modified="No">True</Option>
    <Option name="BaggedSampleFraction" modified="Yes">5.000000e-01</Option>
    <Option name="UseYesNoLeaf" modified="No">True</Option>
    <Option name="NegWeightTreatment" modified="No">pray</Option>
    <Option name="Css" modified="No">1.000000e+00</Option>
    <Option name="Cts_sb" modified="No">1.000000e+00</Option>
    <Option name="Ctb_ss" modified="No">1.000000e+00</Option>
    <Option name="Cbb" modified="No">1.000000e+00</Option>
    <Option name="NodePurityLimit" modified="No">5.000000e-01</Option>
    <Option name="SeparationType" modified="No">giniindex</Option>
    <Option name="RegressionLossFunctionBDTG" modified="No">huber</Option>
    <Option name="HuberQuantile" modified="No">7.000000e-01</Option>
    <Option name="DoBoostMonitor" modified="No">False</Option>
    <Option name="UseFisherCuts" modified="No">False</Option>
    <Option name="MinLinCorrForFisher" modified="No">8.000000e-01</Option>
    <Option name="UseExclusiveVars" modified="No">False</Option>
    <Option name="DoPreselection" modified="No">False</Option>
    <Option name="SigToBkgFraction" modified="No">1.000000e+00</Option>
    <Option name="PruneMethod" modified="No">nopruning</Option>
    <Option name="PruneStrength" modified="No">0.000000e+00</Option>
    <Option name="PruningValFraction" modified="No">5.000000e-01</Option>
    <Option name="SkipNormalization" modified="No">False</Option>
    <Option name="nEventsMin" modified="No">0</Option>
    <Option name="UseBaggedGrad" modified="No">False</Option>
    <Option name="GradBaggingFraction" modified="No">5.000000e-01</Option>
    <Option name="UseNTrainEvents" modified="No">0</Option>
    <Option name="NNodesMax" modified="No">0</Option>
  </Options>
  <Variables NVar="12">
    <Variable VarIndex="0" Expression="PFPMichelNHits" Label="PFPMichelNHits" Title="NHits in Michel candidate" Unit="" Internal="PFPMichelNHits" Type="F" Min="-2.00000000e+00" Max="1.00000000e+02"/>
    <Variable VarIndex="1" Expression="PFPMichelElectronMVA" Label="PFPMichelElectronMVA" Title="Electron-like MVA for Michel candidate" Unit="" Internal="PFPMichelElectronMVA" Type="F" Min="-2.00000000e+00" Max="1.34579599e-01"/>
    <Variable VarIndex="2" Expression="PFPMichelRecoEnergyPlane2" Label="PFPMichelRecoEnergyPlane2" Title="Reco energy (col. plane) for Michel candidate" Unit="" Internal="PFPMichelRecoEnergyPlane2" Type="F" Min="-2.00000000e+00" Max="4.16259842e+01"/>
    <Variable VarIndex="3" Expression="PFPTrackDeflecAngleSD" Label="PFPTrackDeflecAngleSD" Title="Track candidate scattering SD" Unit="" Internal="PFPTrackDeflecAngleSD" Type="F" Min="-2.00000000e+00" Max="1.10042419e+02"/>
    <Variable VarIndex="4" Expression="PFPTrackLength" Label="PFPTrackLength" Title="Candidate track length" Unit="" Internal="PFPTrackLength" Type="F" Min="2.32649207e-01" Max="3.40556406e+05"/>
    <Variable VarIndex="5" Expression="PFPTrackEvalRatio" Label="PFPTrackEvalRatio" Title="EvalRatio" Unit="" Internal="PFPTrackEvalRatio" Type="F" Min="0.00000000e+00" Max="9.93794918e-01"/>
    <Variable VarIndex="6" Expression="PFPTrackConcentration" Label="PFPTrackConcentration" Title="Concentration" Unit="" Internal="PFPTrackConcentration" Type="F" Min="9.44379251e-03" Max="1.00000000e+02"/>
    <Variable VarIndex="7" Expression="PFPTrackCoreHaloRatio" Label="PFPTrackCoreHaloRatio" Title="Core halo ratio" Unit="" Internal="PFPTrackCoreHaloRatio" Type="F" Min="0.00000000e+00" Max="1.00000000e+02"/>
    <Variable VarIndex="8" Expression="PFPTrackConicalness" Label="PFPTrackConicalness" Title="Conicalness" Unit="" Internal="PFPTrackConicalness" Type="F" Min="1.26488623e-03" Max="9.34063110e+02"/>
    <Variable VarIndex="9" Expression="PFPTrackdEdxStart" Label="PFPTrackdEdxStart" Title="dEdx (start)" Unit="" Internal="PFPTrackdEdxStart" Type="F" Min="0.00000000e+00" Max="4.99834671e+01"/>
    <Variable VarIndex="10" Expression="PFPTrackdEdxEnd" Label="PFPTrackdEdxEnd" Title="dEdx (end)" Unit="" Internal="PFPTrackdEdxEnd" Type="F" Min="0.00000000e+00" Max="4.99297943e+01"/>
    <Variable VarIndex="11" Expression="PFPTrackdEdxEndRatio" Label="PFPTrackdEdxEndRatio" Title="dEdx (end/start ratio)" Unit="" Internal="PFPTrackdEdxEndRatio" Type="F" Min="0.00000000e+00" Max="1.79746048e+02"/>
  </Variables>
  <Spectators NSpec="0"/>
  <Classes NClass="2">
    <Class Name="Signal" Index="0"/>
    <Class Name="Background" Index="1"/>
  </Classes>
  <Transformations NTransformations="0"/>
  <MVAPdfs/>
  <Weights NTrees="1000" AnalysisType="1">
    <BinaryTree type="DecisionTree" boostWeight="1.0000000000000000e+00" itree="0">
      <Node pos="s" depth="0" NCoef="0" IVar="3" Cut="6.5277500152587891e+00" cType="1" res="-1.7199423164129257e-03" rms="4.9999704957008362e-01" purity="4.9828007817268372e-01" nType="0">
        <Node pos="l" depth="1" NCoef="0" IVar="10" Cut="4.6165299415588379e+00" cType="1" res="2.3923514783382416e-01" rms="4.3905186653137207e-01" purity="7.3923510313034058e-01" nType="0">
          <Node pos="l" depth="2" NCoef="0" IVar="-1" Cut="0.0000000000000000e+00" cType="1" res="6.3540458679199219e-02" rms="3.8608968257904053e-01" purity="8.1770229339599609e-01" nType="-99"/>
          <Node pos="r" depth="2" NCoef="0" IVar="-1" Cut="0.0000000000000000e+00" cType="1" res="-6.2837161123752594e-02" rms="3.8895663619041443e-01" purity="1.8581418693065643e-01" nType="-99"/>
        </Node>
        <Node pos="r" depth="1" NCoef="0" IVar="10" Cut="7.1309418678283691e+00" cType="1" res="-2.4262318015098572e-01" rms="4.3718874454498291e-01" purity="2.5737681984901428e-01" nType="0">
          <Node pos="l" depth="2" NCoef="0" IVar="-1" Cut="0.0000000000000000e+00" cType="1" res="-3.3500380814075470e-02" rms="4.7110837697982788e-01" purity="3.3249810338020325e-01" nType="-99"/>
          <Node pos="r" depth="2" NCoef="0" IVar="-1" Cut="0.0000000000000000e+00" cType="1" res="-9.3102119863033295e-02" rms="1.8248255550861359e-01" purity="3.4489400684833527e-02" nType="-99"/>
        </Node>
      </Node>
    </BinaryTree>
    <BinaryTree type="DecisionTree" boostWeight="1.0000000000000000e+00" itree="1">
      <Node pos="s" depth="0" NCoef="0" IVar="3" Cut="6.5277500152587891e+00" cType="1" res="7.3454534867778420e-04" rms="4.8300883173942566e-01" purity="5.0059467554092407e-01" nType="0">
        <Node pos="l" depth="1" NCoef="0" IVar="10" Cut="4.7072558403015137e+00" cType="1" res="2.1631816029548645e-01" rms="4.2891353368759155e-01" purity="7.4021571874618530e-01" nType="0">
          <Node pos="l" depth="2" NCoef="0" IVar="-1" Cut="0.0000000000000000e+00" cType="1" res="5.7591654360294342e-02" rms="3.8549458980560303e-01" purity="8.1820476055145264e-01" nType="-99"/>
          <Node pos="r" depth="2" NCoef="0" IVar="-1" Cut="0.0000000000000000e+00" cType="1" res="-6.0749355703592300e-02" rms="3.7214538455009460e-01" purity="1.6607213020324707e-01" nType="-99"/>
        </Node>
        <Node pos="r" depth="1" NCoef="0" IVar="10" Cut="4.7550683021545410e+00" cType="1" res="-2.1553653478622437e-01" rms="4.3518716096878052e-01" purity="2.6020953059196472e-01" nType="0">
          <Node pos="l" depth="2" NCoef="0" IVar="-1" Cut="0.0000000000000000e+00" cType="1" res="-2.5732923299074173e-02" rms="4.7843316197395325e-01" purity="3.5473576188087463e-01" nType="-99"/>
          <Node pos="r" depth="2" NCoef="0" IVar="-1" Cut="0.0000000000000000e+00" cType="1" res="-7.5426086783409119e-02" rms="2.7919521927833557e-01" purity="8.7327465415000916e-02" nType="-99"/>
        </Node>
      </Node>
    </BinaryTree>
    <BinaryTree type="DecisionTree" boostWeight="1.0000000000000000e+00" itree="2">
      <Node pos="s" depth="0" NCoef="0" IVar="10" Cut="4.7550683021545410e+00" cType="1" res="8.5472926730290055e-04" rms="4.6830448508262634e-01" purity="5.0108176469802856e-01" nType="0">
        <Node pos="l" depth="1" NCoef="0" IVar="3" Cut="8.4760026931762695e+00" cType="1" res="1.0159353911876678e-01" rms="4.6483328938484192e-01" purity="6.2396115064620972e-01" nType="0">
          <Node pos="l" depth="2" NCoef="0" IVar="-1" Cut="0.0000000000000000e+00" cType="1" res="4.6019509434700012e-02" rms="4.0945062041282654e-01" purity="7.7583497762680054e-01" nType="-99"/>
          <Node pos="r" depth="2" NCoef="0" IVar="-1" Cut="0.0000000000000000e+00" cType="1" res="-2.9194217175245285e-02" rms="4.6835908293724060e-01" purity="3.2495781779289246e-01" nType="-99"/>
        </Node>
        <Node pos="r" depth="1" NCoef="0" IVar="10" Cut="6.9061741828918457e+00" cType="1" res="-3.2680371403694153e-01" rms="2.9912626743316650e-01" purity="1.0140999406576157e-01" nType="0">
          <Node pos="l" depth="2" NCoef="0" IVar="-1" Cut="0.0000000000000000e+00" cType="1" res="-4.1772019118070602e-02" rms="4.2571482062339783e-01" purity="2.3724521696567535e-01" nType="-99"/>
          <Node pos="r" depth="2" NCoef="0" IVar="-1" Cut="0.0000000000000000e+00" cType="1" res="-7.7278561890125275e-02" rms="2.0711167156696320e-01" purity="4.5087046921253204e-02" nType="-99"/>
        </Node>
      </Node>
    </BinaryTree>
    <BinaryTree type="DecisionTree" boostWeight="1.0000000000000000e+00" itree="3">
      <Node pos="s" depth="0" NCoef="0" IVar="3" Cut="7.4685115814208984e+00" cType="1" res="-4.3811657815240324e-04" rms="4.5679029822349548e-01" purity="4.9973988533020020e-01" nType="0">
        <Node pos="l" depth="1" NCoef="0" IVar="10" Cut="4.7331528663635254e+00" cType="1" res="1.5688334405422211e-01" rms="4.2518356442451477e-01" purity="7.1012687683105469e-01" nType="0">
          <Node pos="l" depth="2" NCoef="0" IVar="-1" Cut="0.0000000000000000e+00" cType="1" res="4.4897470623254776e-02" rms="3.9934957027435303e-01" purity="7.9503500461578369e-01" nType="-99"/>
          <Node pos="r" depth="2" NCoef="0" IVar="-1" Cut="0.0000000000000000e+00" cType="1" res="-4.9915049225091934e-02" rms="3.6746597290039062e-01" purity="1.6507880389690399e-01" nType="-99"/>
        </Node>
        <Node pos="r" depth="1" NCoef="0" IVar="10" Cut="4.7505822181701660e+00" cType="1" res="-1.9292087852954865e-01" rms="4.1884693503379822e-01" purity="2.4233146011829376e-01" nType="0">
          <Node pos="l" depth="2" NCoef="0" IVar="-1" Cut="0.0000000000000000e+00" cType="1" res="-2.4895731359720230e-02" rms="4.7182908654212952e-01" purity="3.3607903122901917e-01" nType="-99"/>
          <Node pos="r" depth="2" NCoef="0" IVar="-1" Cut="0.0000000000000000e+00" cType="1" res="-6.6453509032726288e-02" rms="2.6035493612289429e-01" purity="7.5630396604537964e-02" nType="-99"/>
        </Node>
      </Node>
    </BinaryTree>
    <BinaryTree type="DecisionTree" boostWeight="1.0000000000000000e+00" itree="4">
      <Node pos="s" depth="0" NCoef="0" IVar="6" Cut="4.7737126350402832e+00" cType="1" res="-2.2149118594825268e-03" rms="4.4701206684112549e-01" purity="4.9726569652557373e-01" nType="0">
        <Node pos="l" depth="1" NCoef="0" IVar="3" Cut="3.5291664600372314e+00" cType="1" res="1.3711887598037720e-01" rms="4.2111644148826599e-01" purity="6.7859458923339844e-01" nType="0">
          <Node pos="l" depth="2" NCoef="0" IVar="-1" Cut="0.0000000000000000e+00" cType="1" res="6.7848324775695801e-02" rms="2.5355798006057739e-01" purity="9.2097830772399902e-01" nType="-99"/>
          <Node pos="r" depth="2" NCoef="0" IVar="-1" Cut="0.0000000000000000e+00" cType="1" res="-8.2911929348483682e-04" rms="4.6497762203216553e-01" purity="4.9592256546020508e-01" nType="-99"/>
        </Node>
        <Node pos="r" depth="1" NCoef="0" IVar="4" Cut="6.4813995361328125e+01" cType="1" res="-1.6146138310432434e-01" rms="4.2185953259468079e-01" purity="2.9002243280410767e-01" nType="0">
          <Node pos="l" depth="2" NCoef="0" IVar="-1" Cut="0.0000000000000000e+00" cType="1" res="-4.8144977539777756e-02" rms="3.8992023468017578e-01" purity="1.9819487631320953e-01" nType="-99"/>
          <Node pos="r" depth="2" NCoef="0" IVar="-1" Cut="0.0000000000000000e+00" cType="1" res="3.4533884376287460e-02" rms="4.1183170676231384e-01" purity="7.2198718786239624e-01" nType="-99"/>
        </Node>
      </Node>
    </BinaryTree>
    <BinaryTree type="DecisionTree" boostWeight="1.0000000000000000e+00" itree="5">
      <Node pos="s" depth="0" NCoef="0" IVar="10" Cut="4.7552185058593750e+00" cType="1" res="3.7504397332668304e-03" rms="4.3704834580421448e-01" purity="5.0410240888595581e-01" nType="0">
        <Node pos="l" depth="1" NCoef="0" IVar="3" Cut="8.4760026931762695e+00" cType="1" res="8.1817552447319031e-02" rms="4.4323155283927917e-01" purity="6.2642735242843628e-01" nType="0">
          <Node pos="l" depth="2" NCoef="0" IVar="-1" Cut="0.0000000000000000e+00" cType="1" res="3.6378882825374603e-02" rms="3.9977470040321350e-01" purity="7.7749323844909668e-01" nType="-99"/>
          <Node pos="r" depth="2" NCoef="0" IVar="-1" Cut="0.0000000000000000e+00" cType="1" res="-1.9321195781230927e-02" rms="4.6980810165405273e-01" purity="3.3234253525733948e-01" nType="-99"/>
        </Node>
        <Node pos="r" depth="1" NCoef="0" IVar="10" Cut="6.9065918922424316e+00" cType="1" res="-2.5318771600723267e-01" rms="2.9499414563179016e-01" purity="1.0150096565485001e-01" nType="0">
          <Node pos="l" depth="2" NCoef="0" IVar="-1" Cut="0.0000000000000000e+00" cType="1" res="-2.9442260041832924e-02" rms="4.2675340175628662e-01" purity="2.4554027616977692e-01" nType="-99"/>
          <Node pos="r" depth="2" NCoef="0" IVar="-1" Cut="0.0000000000000000e+00" cType="1" res="-6.6615775227546692e-02" rms="2.0252262055873871e-01" purity="4.3039720505475998e-02" nType="-99"/>
        </Node>
      </Node>
    </BinaryTree>
    <BinaryTree type="DecisionTree" boostWeight="1.0000000000000000e+00" itree="6">
      <Node pos="s" depth="0" NCoef="0" IVar="3" Cut="6.6757454872131348e+00" cType="1" res="9.3707995256409049e-04" rms="4.3042403459548950e-01" purity="5.0083655118942261e-01" nType="0">
        <Node pos="l" depth="1" NCoef="0" IVar="3" Cut="1.3049154281616211e+00" cType="1" res="1.3317593932151794e-01" rms="3.9731654524803162e-01" purity="7.3536109924316406e-01" nType="0">
          <Node pos="l" depth="2" NCoef="0" IVar="-1" Cut="0.0000000000000000e+00" cType="1" res="-5.1471751183271408e-02" rms="4.2559969425201416e-01" purity="2.9412335157394409e-01" nType="-99"/>
          <Node pos="r" depth="2" NCoef="0" IVar="-1" Cut="0.0000000000000000e+00" cType="1" res="3.7912938743829727e-02" rms="3.7147197127342224e-01" purity="7.8464812040328979e-01" nType="-99"/>
        </Node>
        <Node pos="r" depth="1" NCoef="0" IVar="10" Cut="7.1328277587890625e+00" cType="1" res="-1.3487303256988525e-01" rms="4.2072030901908875e-01" purity="2.5997826457023621e-01" nType="0">
          <Node pos="l" depth="2" NCoef="0" IVar="-1" Cut="0.0000000000000000e+00" cType="1" res="-1.8741549924015999e-02" rms="4.6533644199371338e-01" purity="3.3473703265190125e-01" nType="-99"/>
          <Node pos="r" depth="2" NCoef="0" IVar="-1" Cut="0.0000000000000000e+00" cType="1" res="-6.2575399875640869e-02" rms="1.9437286257743835e-01" purity="3.9397027343511581e-02" nType="-99"/>
        </Node>
      </Node>
    </BinaryTree>
    <BinaryTree type="DecisionTree" boostWeight="1.0000000000000000e+00" itree="7">
      <Node pos="s" depth="0" NCoef="0" IVar="6" Cut="4.7755417823791504e+00" cType="1" res="-2.4300676304847002e-03" rms="4.2333045601844788e-01" purity="4.9753281474113464e-01" nType="0">
        <Node pos="l" depth="1" NCoef="0" IVar="3" Cut="3.5291664600372314e+00" cType="1" res="1.0853847116231918e-01" rms="4.0557286143302917e-01" purity="6.7901766300201416e-01" nType="0">
          <Node pos="l" depth="2" NCoef="0" IVar="-1" Cut="0.0000000000000000e+00" cType="1" res="5.8931846171617508e-02" rms="2.4835933744907379e-01" purity="9.2071491479873657e-01" nType="-99"/>
          <Node pos="r" depth="2" NCoef="0" IVar="-1" Cut="0.0000000000000000e+00" cType="1" res="-1.3387959916144609e-03" rms="4.5893099904060364e-01" purity="4.9816471338272095e-01" nType="-99"/>
        </Node>
        <Node pos="r" depth="1" NCoef="0" IVar="4" Cut="6.1559547424316406e+01" cType="1" res="-1.2986630201339722e-01" rms="4.0710064768791199e-01" purity="2.8911566734313965e-01" nType="0">
          <Node pos="l" depth="2" NCoef="0" IVar="-1" Cut="0.0000000000000000e+00" cType="1" res="-4.0658093988895416e-02" rms="3.8577604293823242e-01" purity="1.9574135541915894e-01" nType="-99"/>
          <Node pos="r" depth="2" NCoef="0" IVar="-1" Cut="0.0000000000000000e+00" cType="1" res="2.5286057963967323e-02" rms="4.0747663378715515e-01" purity="7.0356678962707520e-01" nType="-99"/>
        </Node>
      </Node>
    </BinaryTree>
    <BinaryTree type="DecisionTree" boostWeight="1.0000000000000000e+00" itree="8">
      <Node pos="s" depth="0" NCoef="0" IVar="10" Cut="4.7552185058593750e+00" cType="1" res="9.8430505022406578e-04" rms="4.1766670346260071e-01" purity="5.0058805942535400e-01" nType="0">
        <Node pos="l" depth="1" NCoef="0" IVar="6" Cut="4.7708988189697266e+00" cType="1" res="6.2964148819446564e-02" rms="4.2942935228347778e-01" purity="6.2158018350601196e-01" nType="0">
          <Node pos="l" depth="2" NCoef="0" IVar="-1" Cut="0.0000000000000000e+00" cType="1" res="3.2289586961269379e-02" rms="3.8647961616516113e-01" purity="7.6771759986877441e-01" nType="-99"/>
          <Node pos="r" depth="2" NCoef="0" IVar="-1" Cut="0.0000000000000000e+00" cType="1" res="-1.2152918614447117e-02" rms="4.5942574739456177e-01" purity="4.0853786468505859e-01" nType="-99"/>
        </Node>
        <Node pos="r" depth="1" NCoef="0" IVar="10" Cut="6.9065918922424316e+00" cType="1" res="-1.9975283741950989e-01" rms="2.9906061291694641e-01" purity="1.0872496664524078e-01" nType="0">
          <Node pos="l" depth="2" NCoef="0" IVar="-1" Cut="0.0000000000000000e+00" cType="1" res="-2.2600743919610977e-02" rms="4.2940291762351990e-01" purity="2.5776746869087219e-01" nType="-99"/>
          <Node pos="r" depth="2" NCoef="0" IVar="-1" Cut="0.0000000000000000e+00" cType="1" res="-5.9530004858970642e-02" rms="2.0744416117668152e-01" purity="4.4766638427972794e-02" nType="-99"/>
        </Node>
      </Node>
    </BinaryTree>
    <BinaryTree type="DecisionTree" boostWeight="1.0000000000000000e+00" itree="9">
      <Node pos="s" depth="0" NCoef="0" IVar="10" Cut="4.7552185058593750e+00" cType="1" res="-2.5027594529092312e-04" rms="4.1229605674743652e-01" purity="5.0027203559875488e-01" nType="0">
        <Node pos="l" depth="1" NCoef="0" IVar="3" Cut="6.3992743492126465e+00" cType="1" res="5.5620141327381134e-02" rms="4.2676249146461487e-01" purity="6.2172353267669678e-01" nType="0">
          <Node pos="l" depth="2" NCoef="0" IVar="-1" Cut="0.0000000000000000e+00" cType="1" res="3.3837735652923584e-02" rms="3.6435320973396301e-01" purity="8.2137030363082886e-01" nType="-99"/>
          <Node pos="r" depth="2" NCoef="0" IVar="-1" Cut="0.0000000000000000e+00" cType="1" res="-1.4086639508605003e-02" rms="4.7105470299720764e-01" purity="3.5378116369247437e-01" nType="-99"/>
        </Node>
        <Node pos="r" depth="1" NCoef="0" IVar="10" Cut="9.0577583312988281e+00" cType="1" res="-1.8135453760623932e-01" rms="2.9618394374847412e-01" purity="1.0658642649650574e-01" nType="0">
          <Node pos="l" depth="2" NCoef="0" IVar="-1" Cut="0.0000000000000000e+00" cType="1" res="-2.9187010601162910e-02" rms="3.8665139675140381e-01" purity="1.9509591162204742e-01" nType="-99"/>
          <Node pos="r" depth="2" NCoef="0" IVar="-1" Cut="0.0000000000000000e+00" cType="1" res="-6.1181448400020599e-02" rms="1.5997941792011261e-01" purity="2.5449642911553383e-02" nType="-99"/>
        </Node>
      </Node>
    </BinaryTree>
    <BinaryTree type="DecisionTree" boostWeight="1.0000000000000000e+00" itree="10">
      <Node pos="s" depth="0" NCoef="0" IVar="3" Cut="6.6757454872131348e+00" cType="1" res="1.4842360978946090e-03" rms="4.0906980633735657e-01" purity="5.0120007991790771e-01" nType="0">
        <Node pos="l" depth="1" NCoef="0" IVar="10" Cut="6.3553647994995117e+00" cType="1" res="9.5101490616798401e-02" rms="3.8050594925880432e-01" purity="7.3792475461959839e-01" nType="0">
          <Node pos="l" depth="2" NCoef="0" IVar="-1" Cut="0.0000000000000000e+00" cType="1" res="2.8956776484847069e-02" rms="3.7645196914672852e-01" purity="7.9577636718750000e-01" nType="-99"/>
          <Node pos="r" depth="2" NCoef="0" IVar="-1" Cut="0.0000000000000000e+00" cType="1" res="-5.8011010289192200e-02" rms="2.3683044314384460e-01" purity="6.1031080782413483e-02" nType="-99"/>
        </Node>
        <Node pos="r" depth="1" NCoef="0" IVar="10" Cut="7.1326022148132324e+00" cType="1" res="-9.4790689647197723e-02" rms="4.1502997279167175e-01" purity="2.5775516033172607e-01" nType="0">
          <Node pos="l" depth="2" NCoef="0" IVar="-1" Cut="0.0000000000000000e+00" cType="1" res="-1.3700389303267002e-02" rms="4.6279367804527283e-01" purity="3.3180066943168640e-01" nType="-99"/>
          <Node pos="r" depth="2" NCoef="0" IVar="-1" Cut="0.0000000000000000e+00" cType="1" res="-5.2567183971405029e-02" rms="1.9885160028934479e-01" purity="4.1769850999116898e-02" nType="-99"/>
        </Node>
      </Node>
    </BinaryTree>
    <BinaryTree type="DecisionTree" boostWeight="1.0000000000000000e+00" itree="11">
      <Node pos="s" depth="0" NCoef="0" IVar="6" Cut="4.7731060981750488e+00" cType="1" res="3.4009979572147131e-04" rms="4.0487429499626160e-01" purity="5.0192034244537354e-01" nType="0">
        <Node pos="l" depth="1" NCoef="0" IVar="3" Cut="3.4073295593261719e+00" cType="1" res="8.0626599490642548e-02" rms="3.9002308249473572e-01" purity="6.8283814191818237e-01" nType="0">
          <Node pos="l" depth="2" NCoef="0" IVar="-1" Cut="0.0000000000000000e+00" cType="1" res="5.1595456898212433e-02" rms="2.3942902684211731e-01" purity="9.2489224672317505e-01" nType="-99"/>
          <Node pos="r" depth="2" NCoef="0" IVar="-1" Cut="0.0000000000000000e+00" cType="1" res="-9.7853201441466808e-04" rms="4.4733294844627380e-01" purity="5.1521646976470947e-01" nType="-99"/>
        </Node>
        <Node pos="r" depth="1" NCoef="0" IVar="4" Cut="6.0304031372070312e+01" cType="1" res="-9.3180455267429352e-02" rms="4.0177077054977417e-01" purity="2.9118093848228455e-01" nType="0">
          <Node pos="l" depth="2" NCoef="0" IVar="-1" Cut="0.0000000000000000e+00" cType="1" res="-3.2933499664068222e-02" rms="3.8738733530044556e-01" purity="1.9558168947696686e-01" nType="-99"/>
          <Node pos="r" depth="2" NCoef="0" IVar="-1" Cut="0.0000000000000000e+00" cType="1" res="2.2549435496330261e-02" rms="4.0397560596466064e-01" purity="6.9635456800460815e-01" nType="-99"/>
        </Node>
      </Node>
    </BinaryTree>
    <BinaryTree type="DecisionTree" boostWeight="1.0000000000000000e+00" itree="12">
      <Node pos="s" depth="0" NCoef="0" IVar="10" Cut="4.7552185058593750e+00" cType="1" res="-3.2166167511604726e-04" rms="4.0044355392456055e-01" purity="5.0038468837738037e-01" nType="0">
        <Node pos="l" depth="1" NCoef="0" IVar="10" Cut="1.5850452184677124e+00" cType="1" res="4.4185515493154526e-02" rms="4.1823861002922058e-01" purity="6.2229955196380615e-01" nType="0">
          <Node pos="l" depth="2" NCoef="0" IVar="-1" Cut="0.0000000000000000e+00" cType="1" res="-2.5180546566843987e-02" rms="4.4606351852416992e-01" purity="3.3934530615806580e-01" nType="-99"/>
          <Node pos="r" depth="2" NCoef="0" IVar="-1" Cut="0.0000000000000000e+00" cType="1" res="1.9443063065409660e-02" rms="4.0172210335731506e-01" purity="6.9076722860336304e-01" nType="-99"/>
        </Node>
        <Node pos="r" depth="1" NCoef="0" IVar="10" Cut="6.9065918922424316e+00" cType="1" res="-1.4376917481422424e-01" rms="2.9400488734245300e-01" purity="1.0745059698820114e-01" nType="0">
          <Node pos="l" depth="2" NCoef="0" IVar="-1" Cut="0.0000000000000000e+00" cType="1" res="-1.8849963322281837e-02" rms="4.2260634899139404e-01" purity="2.4757191538810730e-01" nType="-99"/>
          <Node pos="r" depth="2" NCoef="0" IVar="-1" Cut="0.0000000000000000e+00" cType="1" res="-5.0323311239480972e-02" rms="2.1263226866722107e-01" purity="4.8209689557552338e-02" nType="-99"/>
        </Node>
      </Node>
    </BinaryTree>
    <BinaryTree type="DecisionTree" boostWeight="1.0000000000000000e+00" itree="13">
      <Node pos="s" depth="0" NCoef="0" IVar="6" Cut="4.7708988189697266e+00" cType="1" res="-1.1990737402811646e-03" rms="3.9822402596473694e-01" purity="4.9875977635383606e-01" nType="0">
        <Node pos="l" depth="1" NCoef="0" IVar="3" Cut="3.5291664600372314e+00" cType="1" res="6.8700477480888367e-02" rms="3.8604864478111267e-01" purity="6.7943531274795532e-01" nType="0">
          <Node pos="l" depth="2" NCoef="0" IVar="-1" Cut="0.0000000000000000e+00" cType="1" res="4.7860745340585709e-02" rms="2.4090439081192017e-01" purity="9.2274200916290283e-01" nType="-99"/>
          <Node pos="r" depth="2" NCoef="0" IVar="-1" Cut="0.0000000000000000e+00" cType="1" res="-2.9893459286540747e-03" rms="4.4957846403121948e-01" purity="4.9576848745346069e-01" nType="-99"/>
        </Node>
        <Node pos="r" depth="1" NCoef="0" IVar="4" Cut="6.1661510467529297e+01" cType="1" res="-8.1839032471179962e-02" rms="3.9681091904640198e-01" purity="2.9032257199287415e-01" nType="0">
          <Node pos="l" depth="2" NCoef="0" IVar="-1" Cut="0.0000000000000000e+00" cType="1" res="-2.9335526749491692e-02" rms="3.8696181774139404e-01" purity="1.9770009815692902e-01" nType="-99"/>
          <Node pos="r" depth="2" NCoef="0" IVar="-1" Cut="0.0000000000000000e+00" cType="1" res="2.0028609782457352e-02" rms="3.9651805162429810e-01" purity="7.0580166578292847e-01" nType="-99"/>
        </Node>
      </Node>
    </BinaryTree>
    <BinaryTree type="DecisionTree" boostWeight="1.0000000000000000e+00" itree="14">
      <Node pos="s" depth="0" NCoef="0" IVar="6" Cut="4.7737126350402832e+00" cType="1" res="4.0207616984844208e-03" rms="3.9285621047019958e-01" purity="5.0774103403091431e-01" nType="0">
        <Node pos="l" depth="1" NCoef="0" IVar="10" Cut="7.0997290611267090e+00" cType="1" res="7.0500530302524567e-02" rms="3.7797126173973083e-01" purity="6.9153565168380737e-01" nType="0">
          <Node pos="l" depth="2" NCoef="0" IVar="-1" Cut="0.0000000000000000e+00" cType="1" res="2.3611176759004593e-02" rms="3.8059982657432556e-01" purity="7.5349819660186768e-01" nType="-99"/>
          <Node pos="r" depth="2" NCoef="0" IVar="-1" Cut="0.0000000000000000e+00" cType="1" res="-5.4060224443674088e-02" rms="2.0960013568401337e-01" purity="4.5717272907495499e-02" nType="-99"/>
        </Node>
        <Node pos="r" depth="1" NCoef="0" IVar="4" Cut="6.4741935729980469e+01" cType="1" res="-7.4182778596878052e-02" rms="3.9562404155731201e-01" purity="2.9153394699096680e-01" nType="0">
          <Node pos="l" depth="2" NCoef="0" IVar="-1" Cut="0.0000000000000000e+00" cType="1" res="-2.7449110522866249e-02" rms="3.8685905933380127e-01" purity="1.9716610014438629e-01" nType="-99"/>
          <Node pos="r" depth="2" NCoef="0" IVar="-1" Cut="0.0000000000000000e+00" cType="1" res="2.0616281777620316e-02" rms="3.9444583654403687e-01" purity="7.2371309995651245e-01" nType="-99"/>
        </Node>
      </Node>
    </BinaryTree>
    <BinaryTree type="DecisionTree" boostWeight="1.0000000000000000e+00" itree="15">
      <Node pos="s" depth="0" NCoef="0" IVar="6" Cut="4.7731060981750488e+00" cType="1" res="-1.8889819039031863e-03" rms="3.9149981737136841e-01" purity="5.0003629922866821e-01" nType="0">
        <Node pos="l" depth="1" NCoef="0" IVar="3" Cut="3.5291857719421387e+00" cType="1" res="5.8358181267976761e-02" rms="3.8191187381744385e-01" purity="6.8270593881607056e-01" nType="0">
          <Node pos="l" depth="2" NCoef="0" IVar="-1" Cut="0.0000000000000000e+00" cType="1" res="4.4278066605329514e-02" rms="2.4166397750377655e-01" purity="9.2258143424987793e-01" nType="-99"/>
          <Node pos="r" depth="2" NCoef="0" IVar="-1" Cut="0.0000000000000000e+00" cType="1" res="-2.5992528535425663e-03" rms="4.4644245505332947e-01" purity="5.0477862358093262e-01" nType="-99"/>
        </Node>
        <Node pos="r" depth="1" NCoef="0" IVar="4" Cut="6.4818016052246094e+01" cType="1" res="-7.2494849562644958e-02" rms="3.9079856872558594e-01" purity="2.8595915436744690e-01" nType="0">
          <Node pos="l" depth="2" NCoef="0" IVar="-1" Cut="0.0000000000000000e+00" cType="1" res="-2.6845479384064674e-02" rms="3.8195770978927612e-01" purity="1.9089151918888092e-01" nType="-99"/>
          <Node pos="r" depth="2" NCoef="0" IVar="-1" Cut="0.0000000000000000e+00" cType="1" res="1.8221957609057426e-02" rms="3.9562156796455383e-01" purity="7.2098380327224731e-01" nType="-99"/>
        </Node>
      </Node>
    </BinaryTree>
    <BinaryTree type="DecisionTree" boostWeight="1.0000000000000000e+00" itree="16">
      <Node pos="s" depth="0" NCoef="0" IVar="10" Cut="4.7505822181701660e+00" cType="1" res="-1.5814085782039911e-04" rms="3.9081239700317383e-01" purity="4.9850860238075256e-01" nType="0">
        <Node pos="l" depth="1" NCoef="0" IVar="0" Cut="5.6285713195800781e+01" cType="1" res="3.4073721617460251e-02" rms="4.1020640730857849e-01" purity="6.2034302949905396e-01" nType="0">
          <Node pos="l" depth="2" NCoef="0" IVar="-1" Cut="0.0000000000000000e+00" cType="1" res="1.1328109540045261e-02" rms="4.0504488348960876e-01" purity="6.3323837518692017e-01" nType="-99"/>
          <Node pos="r" depth="2" NCoef="0" IVar="-1" Cut="0.0000000000000000e+00" cType="1" res="-7.1739576756954193e-02" rms="4.0585720539093018e-01" purity="2.6119413971900940e-01" nType="-99"/>
        </Node>
        <Node pos="r" depth="1" NCoef="0" IVar="10" Cut="9.0488891601562500e+00" cType="1" res="-1.0828524827957153e-01" rms="2.9710552096366882e-01" purity="1.1367413401603699e-01" nType="0">
          <Node pos="l" depth="2" NCoef="0" IVar="-1" Cut="0.0000000000000000e+00" cType="1" res="-1.7712363973259926e-02" rms="3.8580712676048279e-01" purity="2.0505122840404510e-01" nType="-99"/>
          <Node pos="r" depth="2" NCoef="0" IVar="-1" Cut="0.0000000000000000e+00" cType="1" res="-5.1615539938211441e-02" rms="1.6778518259525299e-01" purity="2.7594733983278275e-02" nType="-99"/>
        </Node>
      </Node>
    </BinaryTree>
    <BinaryTree type="DecisionTree" boostWeight="1.0000000000000000e+00" itree="17">
      <Node pos="s" depth="0" NCoef="0" IVar="10" Cut="4.7552185058593750e+00" cType="1" res="8.8142527965828776e-04" rms="3.8948908448219299e-01" purity="4.9986505508422852e-01" nType="0">
        <Node pos="l" depth="1" NCoef="0" IVar="0" Cut="5.1428569793701172e+01" cType="1" res="3.2309670001268387e-02" rms="4.0973776578903198e-01" purity="6.2114292383193970e-01" nType="0">
          <Node pos="l" depth="2" NCoef="0" IVar="-1" Cut="0.0000000000000000e+00" cType="1" res="1.0912912897765636e-02" rms="4.0534183382987976e-01" purity="6.3555496931076050e-01" nType="-99"/>
          <Node pos="r" depth="2" NCoef="0" IVar="-1" Cut="0.0000000000000000e+00" cType="1" res="-7.0577777922153473e-02" rms="3.8509917259216309e-01" purity="2.2115360200405121e-01" nType="-99"/>
        </Node>
        <Node pos="r" depth="1" NCoef="0" IVar="10" Cut="6.9065990447998047e+00" cType="1" res="-1.0009486973285675e-01" rms="2.9383060336112976e-01" purity="1.1020971089601517e-01" nType="0">
          <Node pos="l" depth="2" NCoef="0" IVar="-1" Cut="0.0000000000000000e+00" cType="1" res="-1.0882105678319931e-02" rms="4.2598339915275574e-01" purity="2.6185157895088196e-01" nType="-99"/>
          <Node pos="r" depth="2" NCoef="0" IVar="-1" Cut="0.0000000000000000e+00" cType="1" res="-4.4694550335407257e-02" rms="2.0925672352313995e-01" purity="4.5328930020332336e-02" nType="-99"/>
        </Node>
      </Node>
    </BinaryTree>
    <BinaryTree type="DecisionTree" boostWeight="1.0000000000000000e+00" itree="18">
      <Node pos="s" depth="0" NCoef="0" IVar="6" Cut="4.7731060981750488e+00" cType="1" res="9.7229436505585909e-04" rms="3.8658314943313599e-01" purity="5.0142163038253784e-01" nType="0">
        <Node pos="l" depth="1" NCoef="0" IVar="5" Cut="4.6889323741197586e-02" cType="1" res="5.2476331591606140e-02" rms="3.7684437632560730e-01" purity="6.8400174379348755e-01" nType="0">
          <Node pos="l" depth="2" NCoef="0" IVar="-1" Cut="0.0000000000000000e+00" cType="1" res="1.9968431442975998e-02" rms="3.5215884447097778e-01" purity="7.2498786449432373e-01" nType="-99"/>
          <Node pos="r" depth="2" NCoef="0" IVar="-1" Cut="0.0000000000000000e+00" cType="1" res="-2.8639331459999084e-02" rms="4.9687981605529785e-01" purity="3.6342117190361023e-01" nType="-99"/>
        </Node>
        <Node pos="r" depth="1" NCoef="0" IVar="4" Cut="6.0504779815673828e+01" cType="1" res="-5.8448169380426407e-02" rms="3.8914385437965393e-01" purity="2.9077795147895813e-01" nType="0">
          <Node pos="l" depth="2" NCoef="0" IVar="-1" Cut="0.0000000000000000e+00" cType="1" res="-2.3067859932780266e-02" rms="3.8347324728965759e-01" purity="1.9463725388050079e-01" nType="-99"/>
          <Node pos="r" depth="2" NCoef="0" IVar="-1" Cut="0.0000000000000000e+00" cType="1" res="1.4876608736813068e-02" rms="3.9001125097274780e-01" purity="6.9821375608444214e-01" nType="-99"/>
        </Node>
      </Node>
    </BinaryTree>
    <BinaryTree type="DecisionTree" boostWeight="1.0000000000000000e+00" itree="19">
      <Node pos="s" depth="0" NCoef="0" IVar="10" Cut="4.7552185058593750e+00" cType="1" res="-3.8216848042793572e-04" rms="3.8651674985885620e-01" purity="4.9957022070884705e-01" nType="0">
        <Node pos="l" depth="1" NCoef="0" IVar="0" Cut="5.6285713195800781e+01" cType="1" res="2.8397612273693085e-02" rms="4.0814509987831116e-01" purity="6.2125539779663086e-01" nType="0">
          <Node pos="l" depth="2" NCoef="0" IVar="-1" Cut="0.0000000000000000e+00" cType="1" res="9.7274528816342354e-03" rms="4.0479242801666260e-01" purity="6.3504999876022339e-01" nType="-99"/>
          <Node pos="r" depth="2" NCoef="0" IVar="-1" Cut="0.0000000000000000e+00" cType="1" res="-6.2853507697582245e-02" rms="3.8822481036186218e-01" purity="2.3403875529766083e-01" nType="-99"/>
        </Node>
        <Node pos="r" depth="1" NCoef="0" IVar="9" Cut="2.3801651000976562e+00" cType="1" res="-9.3708634376525879e-02" rms="2.8681898117065430e-01" purity="1.0497209429740906e-01" nType="0">
          <Node pos="l" depth="2" NCoef="0" IVar="-1" Cut="0.0000000000000000e+00" cType="1" res="-1.2789921835064888e-02" rms="3.6830273270606995e-01" purity="1.7956629395484924e-01" nType="-99"/>
          <Node pos="r" depth="2" NCoef="0" IVar="-1" Cut="0.0000000000000000e+00" cType="1" res="-3.7499133497476578e-02" rms="2.5269553065299988e-01" purity="8.0852977931499481e-02" nType="-99"/>
        </Node>
      </Node>
    </BinaryTree>
    <BinaryTree type="DecisionTree" boostWeight="1.0000000000000000e+00" itree="20">
      <Node pos="s" depth="0" NCoef="0" IVar="3" Cut="3.3353533744812012e+00" cType="1" res="2.0261795725673437e-04" rms="3.8617500662803650e-01" purity="4.9847409129142761e-01" nType="0">
        <Node pos="l" depth="1" NCoef="0" IVar="3" Cut="1.5565818548202515e+00" cType="1" res="7.7260695397853851e-02" rms="2.9403856396675110e-01" purity="8.0855327844619751e-01" nType="0">
          <Node pos="l" depth="2" NCoef="0" IVar="-1" Cut="0.0000000000000000e+00" cType="1" res="-4.5329608023166656e-02" rms="4.2001467943191528e-01" purity="2.9887822270393372e-01" nType="-99"/>
          <Node pos="r" depth="2" NCoef="0" IVar="-1" Cut="0.0000000000000000e+00" cType="1" res="4.6592526137828827e-02" rms="2.0230017602443695e-01" purity="9.4089859724044800e-01" nType="-99"/>
        </Node>
        <Node pos="r" depth="1" NCoef="0" IVar="0" Cut="2.2285715103149414e+01" cType="1" res="-2.6830803602933884e-02" rms="4.1024851799011230e-01" purity="3.8969248533248901e-01" nType="0">
          <Node pos="l" depth="2" NCoef="0" IVar="-1" Cut="0.0000000000000000e+00" cType="1" res="-3.9238259196281433e-03" rms="4.0891706943511963e-01" purity="4.0043753385543823e-01" nType="-99"/>
          <Node pos="r" depth="2" NCoef="0" IVar="-1" Cut="0.0000000000000000e+00" cType="1" res="-5.6971278041601181e-02" rms="3.7614950537681580e-01" purity="1.9354385137557983e-01" nType="-99"/>
        </Node>
      </Node>
    </BinaryTree>
    <BinaryTree type="DecisionTree" boostWeight="1.0000000000000000e+00" itree="21">
      <Node pos="s" depth="0" NCoef="0" IVar="10" Cut="4.7552185058593750e+00" cType="1" res="1.5461877919733524e-03" rms="3.8397079706192017e-01" purity="5.0240308046340942e-01" nType="0">
        <Node pos="l" depth="1" NCoef="0" IVar="10" Cut="1.5850644111633301e+00" cType="1" res="2.7062859386205673e-02" rms="4.0567174553871155e-01" purity="6.2372225522994995e-01" nType="0">
          <Node pos="l" depth="2" NCoef="0" IVar="-1" Cut="0.0000000000000000e+00" cType="1" res="-1.9280815497040749e-02" rms="4.5115494728088379e-01" purity="3.3734041452407837e-01" nType="-99"/>
          <Node pos="r" depth="2" NCoef="0" IVar="-1" Cut="0.0000000000000000e+00" cType="1" res="1.4141388237476349e-02" rms="3.8889962434768677e-01" purity="6.9350981712341309e-01" nType="-99"/>
        </Node>
        <Node pos="r" depth="1" NCoef="0" IVar="9" Cut="2.3552834987640381e+00" cType="1" res="-8.1755585968494415e-02" rms="2.8710034489631653e-01" purity="1.0634443163871765e-01" nType="0">
          <Node pos="l" depth="2" NCoef="0" IVar="-1" Cut="0.0000000000000000e+00" cType="1" res="-6.0298852622509003e-03" rms="3.8010501861572266e-01" purity="1.9956178963184357e-01" nType="-99"/>
          <Node pos="r" depth="2" NCoef="0" IVar="-1" Cut="0.0000000000000000e+00" cType="1" res="-3.6465235054492950e-02" rms="2.4655631184577942e-01" purity="7.6318278908729553e-02" nType="-99"/>
        </Node>
      </Node>
    </BinaryTree>
    <BinaryTree type="DecisionTree" boostWeight="1.0000000000000000e+00" itree="22">
      <Node pos="s" depth="0" NCoef="0" IVar="3" Cut="3.3353533744812012e+00" cType="1" res="-1.0149815352633595e-03" rms="3.8136789202690125e-01" purity="4.9896419048309326e-01" nType="0">
        <Node pos="l" depth="1" NCoef="0" IVar="3" Cut="1.5568485260009766e+00" cType="1" res="7.1204543113708496e-02" rms="2.8280478715896606e-01" purity="8.1415641307830811e-01" nType="0">
          <Node pos="l" depth="2" NCoef="0" IVar="-1" Cut="0.0000000000000000e+00" cType="1" res="-3.8929924368858337e-02" rms="4.2311814427375793e-01" purity="3.0902132391929626e-01" nType="-99"/>
          <Node pos="r" depth="2" NCoef="0" IVar="-1" Cut="0.0000000000000000e+00" cType="1" res="4.4806826859712601e-02" rms="1.9487330317497253e-01" purity="9.4361180067062378e-01" nType="-99"/>
        </Node>
        <Node pos="r" depth="1" NCoef="0" IVar="0" Cut="5.6285713195800781e+01" cType="1" res="-2.6982713490724564e-02" rms="4.0795841813087463e-01" purity="3.8563156127929688e-01" nType="0">
          <Node pos="l" depth="2" NCoef="0" IVar="-1" Cut="0.0000000000000000e+00" cType="1" res="-4.8517263494431973e-03" rms="4.0765389800071716e-01" purity="3.9504975080490112e-01" nType="-99"/>
          <Node pos="r" depth="2" NCoef="0" IVar="-1" Cut="0.0000000000000000e+00" cType="1" res="-6.2789306044578552e-02" rms="3.4495496749877930e-01" purity="1.2428508698940277e-01" nType="-99"/>
        </Node>
      </Node>
    </BinaryTree>
    <BinaryTree type="DecisionTree" boostWeight="1.0000000000000000e+00" itree="23">
      <Node pos="s" depth="0" NCoef="0" IVar="9" Cut="4.7581577301025391e+00" cType="1" res="9.4875274226069450e-04" rms="3.8060969114303589e-01" purity="5.0051409006118774e-01" nType="0">
        <Node pos="l" depth="1" NCoef="0" IVar="9" Cut="1.1328941583633423e+00" cType="1" res="2.4026004597544670e-02" rms="3.8520899415016174e-01" purity="5.4989969730377197e-01" nType="0">
          <Node pos="l" depth="2" NCoef="0" IVar="-1" Cut="0.0000000000000000e+00" cType="1" res="-2.4446379393339157e-02" rms="4.2747193574905396e-01" purity="2.9599535465240479e-01" nType="-99"/>
          <Node pos="r" depth="2" NCoef="0" IVar="-1" Cut="0.0000000000000000e+00" cType="1" res="1.2023446150124073e-02" rms="3.7456980347633362e-01" purity="5.8845114707946777e-01" nType="-99"/>
        </Node>
        <Node pos="r" depth="1" NCoef="0" IVar="9" Cut="9.0631761550903320e+00" cType="1" res="-7.8019529581069946e-02" rms="3.5320344567298889e-01" purity="3.3152091503143311e-01" nType="0">
          <Node pos="l" depth="2" NCoef="0" IVar="-1" Cut="0.0000000000000000e+00" cType="1" res="-1.3715595938265324e-02" rms="3.6326959729194641e-01" purity="3.9940208196640015e-01" nType="-99"/>
          <Node pos="r" depth="2" NCoef="0" IVar="-1" Cut="0.0000000000000000e+00" cType="1" res="-3.8249768316745758e-02" rms="3.2954296469688416e-01" purity="2.1906009316444397e-01" nType="-99"/>
        </Node>
      </Node>
    </BinaryTree>
    <BinaryTree type="DecisionTree" boostWeight="1.0000000000000000e+00" itree="24">
      <Node pos="s" depth="0" NCoef="0" IVar="10" Cut="4.7552185058593750e+00" cType="1" res="-1.0053830192191526e-04" rms="3.7980034947395325e-01" purity="4.9871078133583069e-01" nType="0">
        <Node pos="l" depth="1" NCoef="0" IVar="10" Cut="1.3586101531982422e+00" cType="1" res="2.2206671535968781e-02" rms="4.0193319320678711e-01" purity="6.2021261453628540e-01" nType="0">
          <Node pos="l" depth="2" NCoef="0" IVar="-1" Cut="0.0000000000000000e+00" cType="1" res="-1.9972110167145729e-02" rms="4.4091638922691345e-01" purity="3.0943256616592407e-01" nType="-99"/>
          <Node pos="r" depth="2" NCoef="0" IVar="-1" Cut="0.0000000000000000e+00" cType="1" res="1.1472720652818680e-02" rms="3.9035746455192566e-01" purity="6.8061739206314087e-01" nType="-99"/>
        </Node>
        <Node pos="r" depth="1" NCoef="0" IVar="10" Cut="9.0577516555786133e+00" cType="1" res="-7.2546042501926422e-02" rms="2.8494477272033691e-01" purity="1.0411797463893890e-01" nType="0">
          <Node pos="l" depth="2" NCoef="0" IVar="-1" Cut="0.0000000000000000e+00" cType="1" res="-1.1821714229881763e-02" rms="3.7507995963096619e-01" purity="1.9049277901649475e-01" nType="-99"/>
          <Node pos="r" depth="2" NCoef="0" IVar="-1" Cut="0.0000000000000000e+00" cType="1" res="-4.6825770288705826e-02" rms="1.5701694786548615e-01" purity="2.4755047634243965e-02" nType="-99"/>
        </Node>
      </Node>
    </BinaryTree>
    <BinaryTree type="DecisionTree" boostWeight="1.0000000000000000e+00" itree="25">
      <Node pos="s" depth="0" NCoef="0" IVar="0" Cut="7.0857139587402344e+01" cType="1" res="-5.4238771554082632e-05" rms="3.7695440649986267e-01" purity="5.0344127416610718e-01" nType="0">
        <Node pos="l" depth="1" NCoef="0" IVar="10" Cut="7.1326022148132324e+00" cType="1" res="6.0762073844671249e-03" rms="3.7562060356140137e-01" purity="5.1235795021057129e-01" nType="0">
          <Node pos="l" depth="2" NCoef="0" IVar="-1" Cut="0.0000000000000000e+00" cType="1" res="6.3103819265961647e-03" rms="3.9901965856552124e-01" purity="6.0363733768463135e-01" nType="-99"/>
          <Node pos="r" depth="2" NCoef="0" IVar="-1" Cut="0.0000000000000000e+00" cType="1" res="-4.0703412145376205e-02" rms="1.9060833752155304e-01" purity="3.8062926381826401e-02" nType="-99"/>
        </Node>
        <Node pos="r" depth="1" NCoef="0" IVar="-1" Cut="0.0000000000000000e+00" cType="1" res="-6.0289442539215088e-02" rms="3.4992903470993042e-01" purity="1.5495193004608154e-01" nType="-99"/>
      </Node>
    </BinaryTree>
    <BinaryTree type="DecisionTree" boostWeight="1.0000000000000000e+00" itree="26">
      <Node pos="s" depth="0" NCoef="0" IVar="6" Cut="4.7731060981750488e+00" cType="1" res="-7.6063559390604496e-04" rms="3.7612193822860718e-01" purity="5.0088250637054443e-01" nType="0">
        <Node pos="l" depth="1" NCoef="0" IVar="5" Cut="4.6889409422874451e-02" cType="1" res="3.6894019693136215e-02" rms="3.6843091249465942e-01" purity="6.8431401252746582e-01" nType="0">
          <Node pos="l" depth="2" NCoef="0" IVar="-1" Cut="0.0000000000000000e+00" cType="1" res="1.5677759423851967e-02" rms="3.4402275085449219e-01" purity="7.2365629673004150e-01" nType="-99"/>
          <Node pos="r" depth="2" NCoef="0" IVar="-1" Cut="0.0000000000000000e+00" cType="1" res="-2.2444387897849083e-02" rms="5.0354403257369995e-01" purity="3.7243974208831787e-01" nType="-99"/>
        </Node>
        <Node pos="r" depth="1" NCoef="0" IVar="4" Cut="6.1657836914062500e+01" cType="1" res="-4.5031487941741943e-02" rms="3.8022804260253906e-01" purity="2.8522080183029175e-01" nType="0">
          <Node pos="l" depth="2" NCoef="0" IVar="-1" Cut="0.0000000000000000e+00" cType="1" res="-1.8876662477850914e-02" rms="3.7814629077911377e-01" purity="1.9265469908714294e-01" nType="-99"/>
          <Node pos="r" depth="2" NCoef="0" IVar="-1" Cut="0.0000000000000000e+00" cType="1" res="1.2553550302982330e-02" rms="3.7509021162986755e-01" purity="7.0052373409271240e-01" nType="-99"/>
        </Node>
      </Node>
    </BinaryTree>
    <BinaryTree type="DecisionTree" boostWeight="1.0000000000000000e+00" itree="27">
      <Node pos="s" depth="0" NCoef="0" IVar="3" Cut="6.5277500152587891e+00" cType="1" res="-1.4758461620658636e-03" rms="3.7554368376731873e-01" purity="4.9929547309875488e-01" nType="0">
        <Node pos="l" depth="1" NCoef="0" IVar="5" Cut="4.4618897140026093e-02" cType="1" res="3.5385567694902420e-02" rms="3.4322550892829895e-01" purity="7.4136227369308472e-01" nType="0">
          <Node pos="l" depth="2" NCoef="0" IVar="-1" Cut="0.0000000000000000e+00" cType="1" res="1.5743777155876160e-02" rms="3.2491168379783630e-01" purity="7.6657843589782715e-01" nType="-99"/>
          <Node pos="r" depth="2" NCoef="0" IVar="-1" Cut="0.0000000000000000e+00" cType="1" res="-5.7321708649396896e-02" rms="4.9299362301826477e-01" purity="3.2429414987564087e-01" nType="-99"/>
        </Node>
        <Node pos="r" depth="1" NCoef="0" IVar="9" Cut="2.3801651000976562e+00" cType="1" res="-3.8458265364170074e-02" rms="4.0200459957122803e-01" purity="2.5643396377563477e-01" nType="0">
          <Node pos="l" depth="2" NCoef="0" IVar="-1" Cut="0.0000000000000000e+00" cType="1" res="-9.6302235033363104e-04" rms="4.4854941964149475e-01" purity="3.3088335394859314e-01" nType="-99"/>
          <Node pos="r" depth="2" NCoef="0" IVar="-1" Cut="0.0000000000000000e+00" cType="1" res="-1.9984545186161995e-02" rms="3.5642132163047791e-01" purity="1.9480231404304504e-01" nType="-99"/>
        </Node>
      </Node>
    </BinaryTree>
    <BinaryTree type="DecisionTree" boostWeight="1.0000000000000000e+00" itree="28">
      <Node pos="s" depth="0" NCoef="0" IVar="6" Cut="4.7731060981750488e+00" cType="1" res="-1.8824459984898567e-03" rms="3.7420994043350220e-01" purity="4.9974131584167480e-01" nType="0">
        <Node pos="l" depth="1" NCoef="0" IVar="3" Cut="3.2257587909698486e+00" cType="1" res="2.9463917016983032e-02" rms="3.6607512831687927e-01" purity="6.8268018960952759e-01" nType="0">
          <Node pos="l" depth="2" NCoef="0" IVar="-1" Cut="0.0000000000000000e+00" cType="1" res="3.5340547561645508e-02" rms="2.1920096874237061e-01" purity="9.2613607645034790e-01" nType="-99"/>
          <Node pos="r" depth="2" NCoef="0" IVar="-1" Cut="0.0000000000000000e+00" cType="1" res="-1.9174534827470779e-03" rms="4.2700117826461792e-01" purity="5.3547465801239014e-01" nType="-99"/>
        </Node>
        <Node pos="r" depth="1" NCoef="0" IVar="4" Cut="6.4030319213867188e+01" cType="1" res="-3.8524482399225235e-02" rms="3.8023850321769714e-01" purity="2.8589668869972229e-01" nType="0">
          <Node pos="l" depth="2" NCoef="0" IVar="-1" Cut="0.0000000000000000e+00" cType="1" res="-1.7472954466938972e-02" rms="3.7868633866310120e-01" purity="1.8917170166969299e-01" nType="-99"/>
          <Node pos="r" depth="2" NCoef="0" IVar="-1" Cut="0.0000000000000000e+00" cType="1" res="1.4811416156589985e-02" rms="3.7237787246704102e-01" purity="7.2571468353271484e-01" nType="-99"/>
        </Node>
      </Node>
    </BinaryTree>
    <BinaryTree type="DecisionTree" boostWeight="1.0000000000000000e+00" itree="29">
      <Node pos="s" depth="0" NCoef="0" IVar="9" Cut="4.7601127624511719e+00" cType="1" res="-2.6754038408398628e-03" rms="3.7413850426673889e-01" purity="4.9719446897506714e-01" nType="0">
        <Node pos="l" depth="1" NCoef="0" IVar="9" Cut="6.8000477552413940e-01" cType="1" res="1.5899026766419411e-02" rms="3.7822240591049194e-01" purity="5.4670268297195435e-01" nType="0">
          <Node pos="l" depth="2" NCoef="0" IVar="-1" Cut="0.0000000000000000e+00" cType="1" res="-3.2614152878522873e-02" rms="3.9101964235305786e-01" purity="2.1714849770069122e-01" nType="-99"/>
          <Node pos="r" depth="2" NCoef="0" IVar="-1" Cut="0.0000000000000000e+00" cType="1" res="7.5341844931244850e-03" rms="3.7516197562217712e-01" purity="5.6943285465240479e-01" nType="-99"/>
        </Node>
        <Node pos="r" depth="1" NCoef="0" IVar="6" Cut="5.7153377532958984e+01" cType="1" res="-6.6691666841506958e-02" rms="3.5228258371353149e-01" purity="3.2656589150428772e-01" nType="0">
          <Node pos="l" depth="2" NCoef="0" IVar="-1" Cut="0.0000000000000000e+00" cType="1" res="-1.6549920663237572e-02" rms="3.7277561426162720e-01" purity="3.7961143255233765e-01" nType="-99"/>
          <Node pos="r" depth="2" NCoef="0" IVar="-1" Cut="0.0000000000000000e+00" cType="1" res="-5.2708026021718979e-02" rms="1.9071643054485321e-01" purity="3.2474745064973831e-02" nType="-99"/>
        </Node>
      </Node>
    </BinaryTree>
    <BinaryTree type="DecisionTree" boostWeight="1.0000000000000000e+00" itree="30">
      <Node pos="s" depth="0" NCoef="0" IVar="0" Cut="6.6000000000000000e+01" cType="1" res="1.2533842818811536e-03" rms="3.7438550591468811e-01" purity="5.0222265720367432e-01" nType="0">
        <Node pos="l" depth="1" NCoef="0" IVar="10" Cut="7.1326022148132324e+00" cType="1" res="7.0667029358446598e-03" rms="3.7342461943626404e-01" purity="5.1149642467498779e-01" nType="0">
          <Node pos="l" depth="2" NCoef="0" IVar="-1" Cut="0.0000000000000000e+00" cType="1" res="5.8699175715446472e-03" rms="3.9617717266082764e-01" purity="6.0140788555145264e-01" nType="-99"/>
          <Node pos="r" depth="2" NCoef="0" IVar="-1" Cut="0.0000000000000000e+00" cType="1" res="-3.5729061812162399e-02" rms="2.0286498963832855e-01" purity="4.2560577392578125e-02" nType="-99"/>
        </Node>
        <Node pos="r" depth="1" NCoef="0" IVar="-1" Cut="0.0000000000000000e+00" cType="1" res="-5.7156521826982498e-02" rms="3.4403046965599060e-01" purity="1.5464231371879578e-01" nType="-99"/>
      </Node>
    </BinaryTree>
    <BinaryTree type="DecisionTree" boostWeight="1.0000000000000000e+00" itree="31">
      <Node pos="s" depth="0" NCoef="0" IVar="0" Cut="6.6000000000000000e+01" cType="1" res="9.8015076946467161e-04" rms="3.7218025326728821e-01" purity="5.0304704904556274e-01" nType="0">
        <Node pos="l" depth="1" NCoef="0" IVar="10" Cut="7.1037240028381348e+00" cType="1" res="6.3348324038088322e-03" rms="3.7141582369804382e-01" purity="5.1243901252746582e-01" nType="0">
          <Node pos="l" depth="2" NCoef="0" IVar="-1" Cut="0.0000000000000000e+00" cType="1" res="5.4702623747289181e-03" rms="3.9503508806228638e-01" purity="6.0353338718414307e-01" nType="-99"/>
          <Node pos="r" depth="2" NCoef="0" IVar="-1" Cut="0.0000000000000000e+00" cType="1" res="-3.5761315375566483e-02" rms="1.9434660673141479e-01" purity="3.9552506059408188e-02" nType="-99"/>
        </Node>
        <Node pos="r" depth="1" NCoef="0" IVar="-1" Cut="0.0000000000000000e+00" cType="1" res="-5.2238002419471741e-02" rms="3.4582462906837463e-01" purity="1.5768598020076752e-01" nType="-99"/>
      </Node>
    </BinaryTree>
    <BinaryTree type="DecisionTree" boostWeight="1.0000000000000000e+00" itree="32">
      <Node pos="s" depth="0" NCoef="0" IVar="6" Cut="7.1432762145996094e+01" cType="1" res="-9.4230608738143928e-06" rms="3.7274935841560364e-01" purity="5.0010150671005249e-01" nType="0">
        <Node pos="l" depth="1" NCoef="0" IVar="6" Cut="3.4153292179107666e+00" cType="1" res="8.2050412893295288e-03" rms="3.7541007995605469e-01" purity="5.2895575761795044e-01" nType="0">
          <Node pos="l" depth="2" NCoef="0" IVar="-1" Cut="0.0000000000000000e+00" cType="1" res="1.1930665932595730e-02" rms="3.5678485035896301e-01" purity="7.1528923511505127e-01" nType="-99"/>
          <Node pos="r" depth="2" NCoef="0" IVar="-1" Cut="0.0000000000000000e+00" cType="1" res="-6.5890923142433167e-03" rms="3.9066791534423828e-01" purity="3.4247601032257080e-01" nType="-99"/>
        </Node>
        <Node pos="r" depth="1" NCoef="0" IVar="3" Cut="2.4676767349243164e+01" cType="1" res="-1.0928652435541153e-01" rms="3.1562870740890503e-01" purity="1.1625322699546814e-01" nType="0">
          <Node pos="l" depth="2" NCoef="0" IVar="-1" Cut="0.0000000000000000e+00" cType="1" res="-4.8594783991575241e-02" rms="2.8016662597656250e-01" purity="8.0108880996704102e-02" nType="-99"/>
          <Node pos="r" depth="2" NCoef="0" IVar="-1" Cut="0.0000000000000000e+00" cType="1" res="-1.8249994143843651e-02" rms="3.4414425492286682e-01" purity="1.5697897970676422e-01" nType="-99"/>
        </Node>
      </Node>
    </BinaryTree>
    <BinaryTree type="DecisionTree" boostWeight="1.0000000000000000e+00" itree="33">
      <Node pos="s" depth="0" NCoef="0" IVar="9" Cut="4.7603302001953125e+00" cType="1" res="2.0245886407792568e-03" rms="3.7277948856353760e-01" purity="5.0308907032012939e-01" nType="0">
        <Node pos="l" depth="1" NCoef="0" IVar="9" Cut="1.3600095510482788e+00" cType="1" res="1.7890587449073792e-02" rms="3.7652301788330078e-01" purity="5.5310916900634766e-01" nType="0">
          <Node pos="l" depth="2" NCoef="0" IVar="-1" Cut="0.0000000000000000e+00" cType="1" res="-1.7999244853854179e-02" rms="4.3264144659042358e-01" purity="3.1105643510818481e-01" nType="-99"/>
          <Node pos="r" depth="2" NCoef="0" IVar="-1" Cut="0.0000000000000000e+00" cType="1" res="1.0924163274466991e-02" rms="3.6137959361076355e-01" purity="6.0196232795715332e-01" nType="-99"/>
        </Node>
        <Node pos="r" depth="1" NCoef="0" IVar="6" Cut="7.1436492919921875e+01" cType="1" res="-5.2309431135654449e-02" rms="3.5432228446006775e-01" purity="3.3179235458374023e-01" nType="0">
          <Node pos="l" depth="2" NCoef="0" IVar="-1" Cut="0.0000000000000000e+00" cType="1" res="-1.3383598066866398e-02" rms="3.7143313884735107e-01" purity="3.7194156646728516e-01" nType="-99"/>
          <Node pos="r" depth="2" NCoef="0" IVar="-1" Cut="0.0000000000000000e+00" cType="1" res="-5.8377187699079514e-02" rms="1.4149637520313263e-01" purity="1.1822976171970367e-02" nType="-99"/>
        </Node>
      </Node>
    </BinaryTree>
    <BinaryTree type="DecisionTree" boostWeight="1.0000000000000000e+00" itree="34">
      <Node pos="s" depth="0" NCoef="0" IVar="0" Cut="6.1142856597900391e+01" cType="1" res="3.2822781940922141e-04" rms="3.7195172905921936e-01" purity="5.0220221281051636e-01" nType="0">
        <Node pos="l" depth="1" NCoef="0" IVar="10" Cut="4.7358160018920898e+00" cType="1" res="5.2735698409378529e-03" rms="3.7181189656257629e-01" purity="5.1124805212020874e-01" nType="0">
          <Node pos="l" depth="2" NCoef="0" IVar="-1" Cut="0.0000000000000000e+00" cType="1" res="5.7843183167278767e-03" rms="3.9394807815551758e-01" purity="6.3799089193344116e-01" nType="-99"/>
          <Node pos="r" depth="2" NCoef="0" IVar="-1" Cut="0.0000000000000000e+00" cType="1" res="-1.9090853631496429e-02" rms="2.8455770015716553e-01" purity="1.0795377939939499e-01" nType="-99"/>
        </Node>
        <Node pos="r" depth="1" NCoef="0" IVar="-1" Cut="0.0000000000000000e+00" cType="1" res="-5.0869278609752655e-02" rms="3.2690376043319702e-01" purity="1.6261002421379089e-01" nType="-99"/>
      </Node>
    </BinaryTree>
    <BinaryTree type="DecisionTree" boostWeight="1.0000000000000000e+00" itree="35">
      <Node pos="s" depth="0" NCoef="0" IVar="5" Cut="4.7323565930128098e-02" cType="1" res="-2.7303679380565882e-03" rms="3.7114396691322327e-01" purity="4.9703413248062134e-01" nType="0">
        <Node pos="l" depth="1" NCoef="0" IVar="5" Cut="4.5046075247228146e-03" cType="1" res="6.8239308893680573e-03" rms="3.5994046926498413e-01" purity="5.1504731178283691e-01" nType="0">
          <Node pos="l" depth="2" NCoef="0" IVar="-1" Cut="0.0000000000000000e+00" cType="1" res="6.2025231309235096e-03" rms="3.4549054503440857e-01" purity="5.3805929422378540e-01" nType="-99"/>
          <Node pos="r" depth="2" NCoef="0" IVar="-1" Cut="0.0000000000000000e+00" cType="1" res="-2.4922462180256844e-02" rms="4.4653066992759705e-01" purity="3.3035668730735779e-01" nType="-99"/>
        </Node>
        <Node pos="r" depth="1" NCoef="0" IVar="3" Cut="7.0307130813598633e+00" cType="1" res="-1.0437256842851639e-01" rms="4.6214866638183594e-01" purity="3.0540332198143005e-01" nType="0">
          <Node pos="l" depth="2" NCoef="0" IVar="-1" Cut="0.0000000000000000e+00" cType="1" res="-6.1236146837472916e-02" rms="4.6907112002372742e-01" purity="2.9845482110977173e-01" nType="-99"/>
          <Node pos="r" depth="2" NCoef="0" IVar="-1" Cut="0.0000000000000000e+00" cType="1" res="-7.9220468178391457e-03" rms="4.4183281064033508e-01" purity="3.0887672305107117e-01" nType="-99"/>
        </Node>
      </Node>
    </BinaryTree>
    <BinaryTree type="DecisionTree" boostWeight="1.0000000000000000e+00" itree="36">
      <Node pos="s" depth="0" NCoef="0" IVar="5" Cut="4.7323565930128098e-02" cType="1" res="3.1079244799911976e-03" rms="3.7211424112319946e-01" purity="5.0398540496826172e-01" nType="0">
        <Node pos="l" depth="1" NCoef="0" IVar="5" Cut="4.5064375735819340e-03" cType="1" res="1.1507991701364517e-02" rms="3.6121994256973267e-01" purity="5.2197164297103882e-01" nType="0">
          <Node pos="l" depth="2" NCoef="0" IVar="-1" Cut="0.0000000000000000e+00" cType="1" res="6.9400141946971416e-03" rms="3.4682545065879822e-01" purity="5.4395025968551636e-01" nType="-99"/>
          <Node pos="r" depth="2" NCoef="0" IVar="-1" Cut="0.0000000000000000e+00" cType="1" res="-1.9191028550267220e-02" rms="4.5254531502723694e-01" purity="3.4394338726997375e-01" nType="-99"/>
        </Node>
        <Node pos="r" depth="1" NCoef="0" IVar="3" Cut="8.5459775924682617e+00" cType="1" res="-8.6199983954429626e-02" rms="4.6333819627761841e-01" purity="3.1275951862335205e-01" nType="0">
          <Node pos="l" depth="2" NCoef="0" IVar="-1" Cut="0.0000000000000000e+00" cType="1" res="-5.0643574446439743e-02" rms="4.6480342745780945e-01" purity="3.0235913395881653e-01" nType="-99"/>
          <Node pos="r" depth="2" NCoef="0" IVar="-1" Cut="0.0000000000000000e+00" cType="1" res="-3.0024291481822729e-03" rms="4.4664156436920166e-01" purity="3.1908214092254639e-01" nType="-99"/>
        </Node>
      </Node>
    </BinaryTree>
    <BinaryTree type="DecisionTree" boostWeight="1.0000000000000000e+00" itree="37">
      <Node pos="s" depth="0" NCoef="0" IVar="3" Cut="3.2380015850067139e+00" cType="1" res="2.5939082843251526e-04" rms="3.7038648128509521e-01" purity="5.0241923332214355e-01" nType="0">
        <Node pos="l" depth="1" NCoef="0" IVar="3" Cut="1.4919475317001343e+00" cType="1" res="4.7799117863178253e-02" rms="2.6126688718795776e-01" purity="8.1684887409210205e-01" nType="0">
          <Node pos="l" depth="2" NCoef="0" IVar="-1" Cut="0.0000000000000000e+00" cType="1" res="-2.9744746163487434e-02" rms="4.1149681806564331e-01" purity="3.1598010659217834e-01" nType="-99"/>
          <Node pos="r" depth="2" NCoef="0" IVar="-1" Cut="0.0000000000000000e+00" cType="1" res="3.9466146379709244e-02" rms="1.8315927684307098e-01" purity="9.4689369201660156e-01" nType="-99"/>
        </Node>
        <Node pos="r" depth="1" NCoef="0" IVar="0" Cut="1.2571428298950195e+01" cType="1" res="-1.6199782490730286e-02" rms="3.9999526739120483e-01" purity="3.9355763792991638e-01" nType="0">
          <Node pos="l" depth="2" NCoef="0" IVar="-1" Cut="0.0000000000000000e+00" cType="1" res="-2.5443127378821373e-03" rms="3.9951413869857788e-01" purity="4.0321949124336243e-01" nType="-99"/>
          <Node pos="r" depth="2" NCoef="0" IVar="-1" Cut="0.0000000000000000e+00" cType="1" res="-3.5616409033536911e-02" rms="3.9018547534942627e-01" purity="2.3807869851589203e-01" nType="-99"/>
        </Node>
      </Node>
    </BinaryTree>
    <BinaryTree type="DecisionTree" boostWeight="1.0000000000000000e+00" itree="38">
      <Node pos="s" depth="0" NCoef="0" IVar="10" Cut="4.7552185058593750e+00" cType="1" res="-5.9753766981884837e-04" rms="3.6849641799926758e-01" purity="5.0088948011398315e-01" nType="0">
        <Node pos="l" depth="1" NCoef="0" IVar="10" Cut="3.6230044364929199e+00" cType="1" res="1.4199999161064625e-02" rms="3.9229184389114380e-01" purity="6.2443614006042480e-01" nType="0">
          <Node pos="l" depth="2" NCoef="0" IVar="-1" Cut="0.0000000000000000e+00" cType="1" res="7.9938946291804314e-03" rms="3.8530710339546204e-01" purity="6.4393085241317749e-01" nType="-99"/>
          <Node pos="r" depth="2" NCoef="0" IVar="-1" Cut="0.0000000000000000e+00" cType="1" res="-2.7067098766565323e-02" rms="4.2896851897239685e-01" purity="4.5569035410881042e-01" nType="-99"/>
        </Node>
        <Node pos="r" depth="1" NCoef="0" IVar="3" Cut="2.3379487991333008e+01" cType="1" res="-4.9254339188337326e-02" rms="2.7050971984863281e-01" purity="9.4646945595741272e-02" nType="0">
          <Node pos="l" depth="2" NCoef="0" IVar="-1" Cut="0.0000000000000000e+00" cType="1" res="-2.3224413394927979e-02" rms="2.6940363645553589e-01" purity="9.5873802900314331e-02" nType="-99"/>
          <Node pos="r" depth="2" NCoef="0" IVar="-1" Cut="0.0000000000000000e+00" cType="1" res="-5.9675346128642559e-03" rms="2.7579137682914734e-01" purity="8.5130289196968079e-02" nType="-99"/>
        </Node>
      </Node>
    </BinaryTree>
    <BinaryTree type="DecisionTree" boostWeight="1.0000000000000000e+00" itree="39">
      <Node pos="s" depth="0" NCoef="0" IVar="6" Cut="8.0954177856445312e+01" cType="1" res="3.7104703369550407e-04" rms="3.6957538127899170e-01" purity="5.0086450576782227e-01" nType="0">
        <Node pos="l" depth="1" NCoef="0" IVar="0" Cut="6.6000000000000000e+01" cType="1" res="6.7273322492837906e-03" rms="3.7219282984733582e-01" purity="5.2318328619003296e-01" nType="0">
          <Node pos="l" depth="2" NCoef="0" IVar="-1" Cut="0.0000000000000000e+00" cType="1" res="3.3906686585396528e-03" rms="3.7211179733276367e-01" purity="5.3296667337417603e-01" nType="-99"/>
          <Node pos="r" depth="2" NCoef="0" IVar="-1" Cut="0.0000000000000000e+00" cType="1" res="-4.3840747326612473e-02" rms="3.3714392781257629e-01" purity="1.6450892388820648e-01" nType="-99"/>
        </Node>
        <Node pos="r" depth="1" NCoef="0" IVar="3" Cut="2.4190008163452148e+01" cType="1" res="-1.1540830135345459e-01" rms="2.9509291052818298e-01" purity="9.4329603016376495e-02" nType="0">
          <Node pos="l" depth="2" NCoef="0" IVar="-1" Cut="0.0000000000000000e+00" cType="1" res="-4.9592103809118271e-02" rms="2.6791369915008545e-01" purity="6.9322638213634491e-02" nType="-99"/>
          <Node pos="r" depth="2" NCoef="0" IVar="-1" Cut="0.0000000000000000e+00" cType="1" res="-2.7744980528950691e-02" rms="3.1515023112297058e-01" purity="1.1789220571517944e-01" nType="-99"/>
        </Node>
      </Node>
    </BinaryTree>
    <BinaryTree type="DecisionTree" boostWeight="1.0000000000000000e+00" itree="40">
      <Node pos="s" depth="0" NCoef="0" IVar="9" Cut="4.7567462921142578e+00" cType="1" res="1.4208421343937516e-03" rms="3.6957475543022156e-01" purity="5.0075381994247437e-01" nType="0">
        <Node pos="l" depth="1" NCoef="0" IVar="9" Cut="1.1324397325515747e+00" cType="1" res="1.5053234994411469e-02" rms="3.7423580884933472e-01" purity="5.5058211088180542e-01" nType="0">
          <Node pos="l" depth="2" NCoef="0" IVar="-1" Cut="0.0000000000000000e+00" cType="1" res="-1.6521481797099113e-02" rms="4.1958937048912048e-01" purity="3.0187529325485229e-01" nType="-99"/>
          <Node pos="r" depth="2" NCoef="0" IVar="-1" Cut="0.0000000000000000e+00" cType="1" res="8.4602134302258492e-03" rms="3.6513721942901611e-01" purity="5.8895552158355713e-01" nType="-99"/>
        </Node>
        <Node pos="r" depth="1" NCoef="0" IVar="9" Cut="6.9089684486389160e+00" cType="1" res="-4.4480253010988235e-02" rms="3.4954178333282471e-01" purity="3.3297908306121826e-01" nType="0">
          <Node pos="l" depth="2" NCoef="0" IVar="-1" Cut="0.0000000000000000e+00" cType="1" res="-6.1074290424585342e-03" rms="3.5893487930297852e-01" purity="4.1478267312049866e-01" nType="-99"/>
          <Node pos="r" depth="2" NCoef="0" IVar="-1" Cut="0.0000000000000000e+00" cType="1" res="-2.1181872114539146e-02" rms="3.4182307124137878e-01" purity="2.7678573131561279e-01" nType="-99"/>
        </Node>
      </Node>
    </BinaryTree>
    <BinaryTree type="DecisionTree" boostWeight="1.0000000000000000e+00" itree="41">
      <Node pos="s" depth="0" NCoef="0" IVar="5" Cut="4.5905768871307373e-02" cType="1" res="2.0667368080466986e-03" rms="3.6916190385818481e-01" purity="5.0210809707641602e-01" nType="0">
        <Node pos="l" depth="1" NCoef="0" IVar="5" Cut="6.5572448074817657e-03" cType="1" res="1.0102344676852226e-02" rms="3.5860753059387207e-01" purity="5.2077585458755493e-01" nType="0">
          <Node pos="l" depth="2" NCoef="0" IVar="-1" Cut="0.0000000000000000e+00" cType="1" res="6.2765893526375294e-03" rms="3.4759524464607239e-01" purity="5.4081898927688599e-01" nType="-99"/>
          <Node pos="r" depth="2" NCoef="0" IVar="-1" Cut="0.0000000000000000e+00" cType="1" res="-2.3969981819391251e-02" rms="4.4910225272178650e-01" purity="3.0259558558464050e-01" nType="-99"/>
        </Node>
        <Node pos="r" depth="1" NCoef="0" IVar="3" Cut="6.6997022628784180e+00" cType="1" res="-8.4458127617835999e-02" rms="4.5913705229759216e-01" purity="3.0109992623329163e-01" nType="0">
          <Node pos="l" depth="2" NCoef="0" IVar="-1" Cut="0.0000000000000000e+00" cType="1" res="-5.2022375166416168e-02" rms="4.6747979521751404e-01" purity="2.8193959593772888e-01" nType="-99"/>
          <Node pos="r" depth="2" NCoef="0" IVar="-1" Cut="0.0000000000000000e+00" cType="1" res="-5.8121616020798683e-03" rms="4.4255921244621277e-01" purity="3.1028771400451660e-01" nType="-99"/>
        </Node>
      </Node>
    </BinaryTree>
    <BinaryTree type="DecisionTree" boostWeight="1.0000000000000000e+00" itree="42">
      <Node pos="s" depth="0" NCoef="0" IVar="9" Cut="7.1404953002929688e+00" cType="1" res="1.9153510220348835e-03" rms="3.7069112062454224e-01" purity="5.0265121459960938e-01" nType="0">
        <Node pos="l" depth="1" NCoef="0" IVar="9" Cut="6.8004447221755981e-01" cType="1" res="1.0860256850719452e-02" rms="3.7444561719894409e-01" purity="5.3576284646987915e-01" nType="0">
          <Node pos="l" depth="2" NCoef="0" IVar="-1" Cut="0.0000000000000000e+00" cType="1" res="-2.2151673212647438e-02" rms="4.0596473217010498e-01" purity="2.3647041618824005e-01" nType="-99"/>
          <Node pos="r" depth="2" NCoef="0" IVar="-1" Cut="0.0000000000000000e+00" cType="1" res="5.1873563788831234e-03" rms="3.7149751186370850e-01" purity="5.5476474761962891e-01" nType="-99"/>
        </Node>
        <Node pos="r" depth="1" NCoef="0" IVar="10" Cut="2.3674485683441162e+00" cType="1" res="-5.8813672512769699e-02" rms="3.3791580796241760e-01" purity="2.7784898877143860e-01" nType="0">
          <Node pos="l" depth="2" NCoef="0" IVar="-1" Cut="0.0000000000000000e+00" cType="1" res="-5.7114111259579659e-03" rms="4.1576638817787170e-01" purity="4.2792755365371704e-01" nType="-99"/>
          <Node pos="r" depth="2" NCoef="0" IVar="-1" Cut="0.0000000000000000e+00" cType="1" res="-2.7507798746228218e-02" rms="3.0613571405410767e-01" purity="2.2705991566181183e-01" nType="-99"/>
        </Node>
      </Node>
    </BinaryTree>
    <BinaryTree type="DecisionTree" boostWeight="1.0000000000000000e+00" itree="43">
      <Node pos="s" depth="0" NCoef="0" IVar="6" Cut="6.1908359527587891e+01" cType="1" res="2.0981302950531244e-03" rms="3.7069380283355713e-01" purity="5.0224107503890991e-01" nType="0">
        <Node pos="l" depth="1" NCoef="0" IVar="6" Cut="2.9569931030273438e+00" cType="1" res="9.0125864371657372e-03" rms="3.7308949232101440e-01" purity="5.3746396303176880e-01" nType="0">
          <Node pos="l" depth="2" NCoef="0" IVar="-1" Cut="0.0000000000000000e+00" cType="1" res="1.1082086712121964e-02" rms="3.4944316744804382e-01" purity="7.2435688972473145e-01" nType="-99"/>
          <Node pos="r" depth="2" NCoef="0" IVar="-1" Cut="0.0000000000000000e+00" cType="1" res="-4.1189203038811684e-03" rms="3.9201298356056213e-01" purity="3.6676505208015442e-01" nType="-99"/>
        </Node>
        <Node pos="r" depth="1" NCoef="0" IVar="3" Cut="1.8871711730957031e+01" cType="1" res="-6.8386323750019073e-02" rms="3.3733427524566650e-01" purity="1.4318643510341644e-01" nType="0">
          <Node pos="l" depth="2" NCoef="0" IVar="-1" Cut="0.0000000000000000e+00" cType="1" res="-3.8794428110122681e-02" rms="3.1641441583633423e-01" purity="1.1430642008781433e-01" nType="-99"/>
          <Node pos="r" depth="2" NCoef="0" IVar="-1" Cut="0.0000000000000000e+00" cType="1" res="-1.2594944797456264e-02" rms="3.4528005123138428e-01" purity="1.6026596724987030e-01" nType="-99"/>
        </Node>
      </Node>
    </BinaryTree>
    <BinaryTree type="DecisionTree" boostWeight="1.0000000000000000e+00" itree="44">
      <Node pos="s" depth="0" NCoef="0" IVar="0" Cut="7.0857139587402344e+01" cType="1" res="-2.1875281818211079e-03" rms="3.6713042855262756e-01" purity="4.9717608094215393e-01" nType="0">
        <Node pos="l" depth="1" NCoef="0" IVar="10" Cut="7.1309418678283691e+00" cType="1" res="1.7329386901110411e-03" rms="3.6733373999595642e-01" purity="5.0639730691909790e-01" nType="0">
          <Node pos="l" depth="2" NCoef="0" IVar="-1" Cut="0.0000000000000000e+00" cType="1" res="3.4330151975154877e-03" rms="3.9196914434432983e-01" purity="5.9899455308914185e-01" nType="-99"/>
          <Node pos="r" depth="2" NCoef="0" IVar="-1" Cut="0.0000000000000000e+00" cType="1" res="-3.1991153955459595e-02" rms="1.9277574121952057e-01" purity="3.8872491568326950e-02" nType="-99"/>
        </Node>
        <Node pos="r" depth="1" NCoef="0" IVar="-1" Cut="0.0000000000000000e+00" cType="1" res="-4.4928748160600662e-02" rms="3.2535687088966370e-01" purity="1.4349748194217682e-01" nType="-99"/>
      </Node>
    </BinaryTree>
    <BinaryTree type="DecisionTree" boostWeight="1.0000000000000000e+00" itree="45">
      <Node pos="s" depth="0" NCoef="0" IVar="9" Cut="4.7603302001953125e+00" cType="1" res="-3.2578457612544298e-03" rms="3.6681908369064331e-01" purity="4.9831226468086243e-01" nType="0">
        <Node pos="l" depth="1" NCoef="0" IVar="9" Cut="1.5867644548416138e+00" cType="1" res="8.0895600840449333e-03" rms="3.7253201007843018e-01" purity="5.4796469211578369e-01" nType="0">
          <Node pos="l" depth="2" NCoef="0" IVar="-1" Cut="0.0000000000000000e+00" cType="1" res="-1.1322282254695892e-02" rms="4.3357747793197632e-01" purity="3.4268733859062195e-01" nType="-99"/>
          <Node pos="r" depth="2" NCoef="0" IVar="-1" Cut="0.0000000000000000e+00" cType="1" res="7.4070990085601807e-03" rms="3.5193318128585815e-01" purity="6.0597741603851318e-01" nType="-99"/>
        </Node>
        <Node pos="r" depth="1" NCoef="0" IVar="10" Cut="2.3674485683441162e+00" cType="1" res="-4.1969355195760727e-02" rms="3.4381490945816040e-01" purity="3.2892370223999023e-01" nType="0">
          <Node pos="l" depth="2" NCoef="0" IVar="-1" Cut="0.0000000000000000e+00" cType="1" res="-9.1624457854777575e-04" rms="4.2579409480094910e-01" purity="4.8385861515998840e-01" nType="-99"/>
          <Node pos="r" depth="2" NCoef="0" IVar="-1" Cut="0.0000000000000000e+00" cType="1" res="-2.1499915048480034e-02" rms="3.0919703841209412e-01" purity="2.7510803937911987e-01" nType="-99"/>
        </Node>
      </Node>
    </BinaryTree>
    <BinaryTree type="DecisionTree" boostWeight="1.0000000000000000e+00" itree="46">
      <Node pos="s" depth="0" NCoef="0" IVar="5" Cut="4.6216584742069244e-02" cType="1" res="-8.4998895181342959e-04" rms="3.6619904637336731e-01" purity="5.0153410434722900e-01" nType="0">
        <Node pos="l" depth="1" NCoef="0" IVar="4" Cut="3.2130044555664062e+02" cType="1" res="6.4236992038786411e-03" rms="3.5531479120254517e-01" purity="5.2078151702880859e-01" nType="0">
          <Node pos="l" depth="2" NCoef="0" IVar="-1" Cut="0.0000000000000000e+00" cType="1" res="-8.0620571970939636e-03" rms="3.9766126871109009e-01" purity="3.7042710185050964e-01" nType="-99"/>
          <Node pos="r" depth="2" NCoef="0" IVar="-1" Cut="0.0000000000000000e+00" cType="1" res="5.2442342042922974e-02" rms="1.1439900845289230e-01" purity="9.8509490489959717e-01" nType="-99"/>
        </Node>
        <Node pos="r" depth="1" NCoef="0" IVar="3" Cut="9.0585584640502930e+00" cType="1" res="-7.7446147799491882e-02" rms="4.5866730809211731e-01" purity="2.9884797334671021e-01" nType="0">
          <Node pos="l" depth="2" NCoef="0" IVar="-1" Cut="0.0000000000000000e+00" cType="1" res="-4.3397679924964905e-02" rms="4.6108892560005188e-01" purity="2.7934724092483521e-01" nType="-99"/>
          <Node pos="r" depth="2" NCoef="0" IVar="-1" Cut="0.0000000000000000e+00" cType="1" res="-4.1827317327260971e-03" rms="4.4666397571563721e-01" purity="3.1092491745948792e-01" nType="-99"/>
        </Node>
      </Node>
    </BinaryTree>
    <BinaryTree type="DecisionTree" boostWeight="1.0000000000000000e+00" itree="47">
      <Node pos="s" depth="0" NCoef="0" IVar="1" Cut="-1.8983533382415771e+00" cType="1" res="-1.5190526610240340e-03" rms="3.6636596918106079e-01" purity="4.9710378050804138e-01" nType="0">
        <Node pos="l" depth="1" NCoef="0" IVar="10" Cut="9.5101366043090820e+00" cType="1" res="0.0000000000000000e+00" rms="0.0000000000000000e+00" purity="5.0581324100494385e-01" nType="0">
          <Node pos="l" depth="2" NCoef="0" IVar="-1" Cut="0.0000000000000000e+00" cType="1" res="3.3889918122440577e-03" rms="3.8640570640563965e-01" purity="5.7236605882644653e-01" nType="-99"/>
          <Node pos="r" depth="2" NCoef="0" IVar="-1" Cut="0.0000000000000000e+00" cType="1" res="-4.1486162692308426e-02" rms="1.3703401386737823e-01" purity="1.8455848097801208e-02" nType="-99"/>
        </Node>
        <Node pos="r" depth="1" NCoef="0" IVar="1" Cut="-1.3461703062057495e-01" cType="1" res="-8.7695218622684479e-02" rms="3.5819956660270691e-01" purity="3.4463134407997131e-01" nType="0">
          <Node pos="l" depth="2" NCoef="0" IVar="-1" Cut="0.0000000000000000e+00" cType="1" res="-4.3274808675050735e-02" rms="3.5531929135322571e-01" purity="2.3642456531524658e-01" nType="-99"/>
          <Node pos="r" depth="2" NCoef="0" IVar="-1" Cut="0.0000000000000000e+00" cType="1" res="-9.0289497748017311e-03" rms="3.5217058658599854e-01" purity="4.6315625309944153e-01" nType="-99"/>
        </Node>
      </Node>
    </BinaryTree>
    <BinaryTree type="DecisionTree" boostWeight="1.0000000000000000e+00" itree="48">
      <Node pos="s" depth="0" NCoef="0" IVar="9" Cut="7.1401686668395996e+00" cType="1" res="1.7544847214594483e-03" rms="3.6547055840492249e-01" purity="5.0529056787490845e-01" nType="0">
        <Node pos="l" depth="1" NCoef="0" IVar="9" Cut="1.3599044084548950e+00" cType="1" res="9.9849458783864975e-03" rms="3.6911651492118835e-01" purity="5.4064279794692993e-01" nType="0">
          <Node pos="l" depth="2" NCoef="0" IVar="-1" Cut="0.0000000000000000e+00" cType="1" res="-9.8834205418825150e-03" rms="4.3067497014999390e-01" purity="3.2812923192977905e-01" nType="-99"/>
          <Node pos="r" depth="2" NCoef="0" IVar="-1" Cut="0.0000000000000000e+00" cType="1" res="6.1558890156447887e-03" rms="3.5596111416816711e-01" purity="5.7958161830902100e-01" nType="-99"/>
        </Node>
        <Node pos="r" depth="1" NCoef="0" IVar="10" Cut="6.9919509887695312e+00" cType="1" res="-5.6324545294046402e-02" rms="3.3289331197738647e-01" purity="2.5582385063171387e-01" nType="0">
          <Node pos="l" depth="2" NCoef="0" IVar="-1" Cut="0.0000000000000000e+00" cType="1" res="-1.8443942070007324e-02" rms="3.9889523386955261e-01" purity="3.8152197003364563e-01" nType="-99"/>
          <Node pos="r" depth="2" NCoef="0" IVar="-1" Cut="0.0000000000000000e+00" cType="1" res="-3.3921614289283752e-02" rms="1.4060133695602417e-01" purity="2.0647486671805382e-02" nType="-99"/>
        </Node>
      </Node>
    </BinaryTree>
    <BinaryTree type="DecisionTree" boostWeight="1.0000000000000000e+00" itree="49">
      <Node pos="s" depth="0" NCoef="0" IVar="6" Cut="4.7745823860168457e+00" cType="1" res="-1.8021003052126616e-04" rms="3.6534970998764038e-01" purity="5.0053501129150391e-01" nType="0">
        <Node pos="l" depth="1" NCoef="0" IVar="3" Cut="3.5291664600372314e+00" cType="1" res="1.9428338855504990e-02" rms="3.5689792037010193e-01" purity="6.8461751937866211e-01" nType="0">
          <Node pos="l" depth="2" NCoef="0" IVar="-1" Cut="0.0000000000000000e+00" cType="1" res="2.6656983420252800e-02" rms="2.1481725573539734e-01" purity="9.2117547988891602e-01" nType="-99"/>
          <Node pos="r" depth="2" NCoef="0" IVar="-1" Cut="0.0000000000000000e+00" cType="1" res="-1.7291394760832191e-03" rms="4.3275013566017151e-01" purity="5.0557482242584229e-01" nType="-99"/>
        </Node>
        <Node pos="r" depth="1" NCoef="0" IVar="10" Cut="2.3769805431365967e+00" cType="1" res="-2.3108389228582382e-02" rms="3.7368819117546082e-01" purity="2.8528821468353271e-01" nType="0">
          <Node pos="l" depth="2" NCoef="0" IVar="-1" Cut="0.0000000000000000e+00" cType="1" res="5.2306656725704670e-03" rms="4.3526044487953186e-01" purity="4.0615165233612061e-01" nType="-99"/>
          <Node pos="r" depth="2" NCoef="0" IVar="-1" Cut="0.0000000000000000e+00" cType="1" res="-2.0411329343914986e-02" rms="3.1995087862014771e-01" purity="2.0045229792594910e-01" nType="-99"/>
        </Node>
      </Node>
    </BinaryTree>
    <BinaryTree type="DecisionTree" boostWeight="1.0000000000000000e+00" itree="50">
      <Node pos="s" depth="0" NCoef="0" IVar="6" Cut="7.1431266784667969e+01" cType="1" res="-1.0806430364027619e-03" rms="3.6387354135513306e-01" purity="5.0175267457962036e-01" nType="0">
        <Node pos="l" depth="1" NCoef="0" IVar="3" Cut="6.0397615432739258e+00" cType="1" res="4.5959353446960449e-03" rms="3.6693468689918518e-01" purity="5.3091377019882202e-01" nType="0">
          <Node pos="l" depth="2" NCoef="0" IVar="-1" Cut="0.0000000000000000e+00" cType="1" res="1.0175592266023159e-02" rms="3.1498688459396362e-01" purity="7.7246302366256714e-01" nType="-99"/>
          <Node pos="r" depth="2" NCoef="0" IVar="-1" Cut="0.0000000000000000e+00" cType="1" res="-5.4323864169418812e-03" rms="4.1152939200401306e-01" purity="2.8649425506591797e-01" nType="-99"/>
        </Node>
        <Node pos="r" depth="1" NCoef="0" IVar="3" Cut="1.9689363479614258e+01" cType="1" res="-7.6891921460628510e-02" rms="3.1040197610855103e-01" purity="1.1230263113975525e-01" nType="0">
          <Node pos="l" depth="2" NCoef="0" IVar="-1" Cut="0.0000000000000000e+00" cType="1" res="-4.6062964946031570e-02" rms="2.7484497427940369e-01" purity="7.1453124284744263e-02" nType="-99"/>
          <Node pos="r" depth="2" NCoef="0" IVar="-1" Cut="0.0000000000000000e+00" cType="1" res="-1.6319358721375465e-02" rms="3.2595050334930420e-01" purity="1.3711641728878021e-01" nType="-99"/>
        </Node>
      </Node>
    </BinaryTree>
    <BinaryTree type="DecisionTree" boostWeight="1.0000000000000000e+00" itree="51">
      <Node pos="s" depth="0" NCoef="0" IVar="5" Cut="4.7323565930128098e-02" cType="1" res="-3.8938489160500467e-04" rms="3.6202535033226013e-01" purity="5.0344222784042358e-01" nType="0">
        <Node pos="l" depth="1" NCoef="0" IVar="5" Cut="4.5064375735819340e-03" cType="1" res="4.8768301494419575e-03" rms="3.5116907954216003e-01" purity="5.2126675844192505e-01" nType="0">
          <Node pos="l" depth="2" NCoef="0" IVar="-1" Cut="0.0000000000000000e+00" cType="1" res="5.4789478890597820e-03" rms="3.3720505237579346e-01" purity="5.4673033952713013e-01" nType="-99"/>
          <Node pos="r" depth="2" NCoef="0" IVar="-1" Cut="0.0000000000000000e+00" cType="1" res="-2.4339286610484123e-02" rms="4.4174885749816895e-01" purity="3.0463168025016785e-01" nType="-99"/>
        </Node>
        <Node pos="r" depth="1" NCoef="0" IVar="3" Cut="7.3439273834228516e+00" cType="1" res="-5.6271281093358994e-02" rms="4.5804524421691895e-01" purity="3.1429913640022278e-01" nType="0">
          <Node pos="l" depth="2" NCoef="0" IVar="-1" Cut="0.0000000000000000e+00" cType="1" res="-3.6364432424306870e-02" rms="4.7316420078277588e-01" purity="3.0549392104148865e-01" nType="-99"/>
          <Node pos="r" depth="2" NCoef="0" IVar="-1" Cut="0.0000000000000000e+00" cType="1" res="-2.4294422473758459e-03" rms="4.4294419884681702e-01" purity="3.1889486312866211e-01" nType="-99"/>
        </Node>
      </Node>
    </BinaryTree>
    <BinaryTree type="DecisionTree" boostWeight="1.0000000000000000e+00" itree="52">
      <Node pos="s" depth="0" NCoef="0" IVar="0" Cut="2.8571429252624512e+00" cType="1" res="-2.7321975212544203e-03" rms="3.6354687809944153e-01" purity="4.9666926264762878e-01" nType="0">
        <Node pos="l" depth="1" NCoef="0" IVar="10" Cut="4.7539610862731934e+00" cType="1" res="0.0000000000000000e+00" rms="0.0000000000000000e+00" purity="5.0563395023345947e-01" nType="0">
          <Node pos="l" depth="2" NCoef="0" IVar="-1" Cut="0.0000000000000000e+00" cType="1" res="3.4816525876522064e-03" rms="3.8651648163795471e-01" purity="6.3503724336624146e-01" nType="-99"/>
          <Node pos="r" depth="2" NCoef="0" IVar="-1" Cut="0.0000000000000000e+00" cType="1" res="-1.4812934212386608e-02" rms="2.7562403678894043e-01" purity="9.8183058202266693e-02" nType="-99"/>
        </Node>
        <Node pos="r" depth="1" NCoef="0" IVar="1" Cut="-1.3549226522445679e-01" cType="1" res="-8.2130983471870422e-02" rms="3.5794275999069214e-01" purity="3.4235411882400513e-01" nType="0">
          <Node pos="l" depth="2" NCoef="0" IVar="-1" Cut="0.0000000000000000e+00" cType="1" res="-4.1810542345046997e-02" rms="3.4746640920639038e-01" purity="2.3645293712615967e-01" nType="-99"/>
          <Node pos="r" depth="2" NCoef="0" IVar="-1" Cut="0.0000000000000000e+00" cType="1" res="-7.6814098283648491e-03" rms="3.6041536927223206e-01" purity="4.5869526267051697e-01" nType="-99"/>
        </Node>
      </Node>
    </BinaryTree>
    <BinaryTree type="DecisionTree" boostWeight="1.0000000000000000e+00" itree="53">
      <Node pos="s" depth="0" NCoef="0" IVar="6" Cut="4.7731060981750488e+00" cType="1" res="1.1413994943723083e-03" rms="3.6399972438812256e-01" purity="5.0305843353271484e-01" nType="0">
        <Node pos="l" depth="1" NCoef="0" IVar="5" Cut="4.6513594686985016e-02" cType="1" res="1.9461184740066528e-02" rms="3.5679513216018677e-01" purity="6.8664687871932983e-01" nType="0">
          <Node pos="l" depth="2" NCoef="0" IVar="-1" Cut="0.0000000000000000e+00" cType="1" res="1.0152497328817844e-02" rms="3.3572486042976379e-01" purity="7.2799736261367798e-01" nType="-99"/>
          <Node pos="r" depth="2" NCoef="0" IVar="-1" Cut="0.0000000000000000e+00" cType="1" res="-1.3130419887602329e-02" rms="4.8437193036079407e-01" purity="3.6442109942436218e-01" nType="-99"/>
        </Node>
        <Node pos="r" depth="1" NCoef="0" IVar="4" Cut="6.1554874420166016e+01" cType="1" res="-2.0217778161168098e-02" rms="3.7108334898948669e-01" purity="2.8901129961013794e-01" nType="0">
          <Node pos="l" depth="2" NCoef="0" IVar="-1" Cut="0.0000000000000000e+00" cType="1" res="-1.0418632999062538e-02" rms="3.7340697646141052e-01" purity="1.9006623327732086e-01" nType="-99"/>
          <Node pos="r" depth="2" NCoef="0" IVar="-1" Cut="0.0000000000000000e+00" cType="1" res="8.3958199247717857e-03" rms="3.5680499672889709e-01" purity="7.0677578449249268e-01" nType="-99"/>
        </Node>
      </Node>
    </BinaryTree>
    <BinaryTree type="DecisionTree" boostWeight="1.0000000000000000e+00" itree="54">
      <Node pos="s" depth="0" NCoef="0" IVar="6" Cut="6.1908359527587891e+01" cType="1" res="-7.5060751987621188e-04" rms="3.6297291517257690e-01" purity="5.0128543376922607e-01" nType="0">
        <Node pos="l" depth="1" NCoef="0" IVar="6" Cut="2.9567649364471436e+00" cType="1" res="5.2068093791604042e-03" rms="3.6627253890037537e-01" purity="5.3755569458007812e-01" nType="0">
          <Node pos="l" depth="2" NCoef="0" IVar="-1" Cut="0.0000000000000000e+00" cType="1" res="9.0801455080509186e-03" rms="3.4255409240722656e-01" purity="7.2934830188751221e-01" nType="-99"/>
          <Node pos="r" depth="2" NCoef="0" IVar="-1" Cut="0.0000000000000000e+00" cType="1" res="-4.2978217825293541e-03" rms="3.8581141829490662e-01" purity="3.6105024814605713e-01" nType="-99"/>
        </Node>
        <Node pos="r" depth="1" NCoef="0" IVar="3" Cut="1.8952005386352539e+01" cType="1" res="-6.2011059373617172e-02" rms="3.2076153159141541e-01" purity="1.2831680476665497e-01" nType="0">
          <Node pos="l" depth="2" NCoef="0" IVar="-1" Cut="0.0000000000000000e+00" cType="1" res="-3.7133317440748215e-02" rms="2.9599344730377197e-01" purity="9.9306777119636536e-02" nType="-99"/>
          <Node pos="r" depth="2" NCoef="0" IVar="-1" Cut="0.0000000000000000e+00" cType="1" res="-1.3167529366910458e-02" rms="3.3220997452735901e-01" purity="1.4590734243392944e-01" nType="-99"/>
        </Node>
      </Node>
    </BinaryTree>
    <BinaryTree type="DecisionTree" boostWeight="1.0000000000000000e+00" itree="55">
      <Node pos="s" depth="0" NCoef="0" IVar="0" Cut="2.2285715103149414e+01" cType="1" res="1.0623057605698705e-03" rms="3.6480772495269775e-01" purity="4.9924325942993164e-01" nType="0">
        <Node pos="l" depth="1" NCoef="0" IVar="6" Cut="7.1431930541992188e+01" cType="1" res="5.3140008822083473e-03" rms="3.6478176712989807e-01" purity="5.0842559337615967e-01" nType="0">
          <Node pos="l" depth="2" NCoef="0" IVar="-1" Cut="0.0000000000000000e+00" cType="1" res="3.4317220561206341e-03" rms="3.6818039417266846e-01" purity="5.3916096687316895e-01" nType="-99"/>
          <Node pos="r" depth="2" NCoef="0" IVar="-1" Cut="0.0000000000000000e+00" cType="1" res="-2.3738373070955276e-02" rms="3.0996659398078918e-01" purity="1.1355460435152054e-01" nType="-99"/>
        </Node>
        <Node pos="r" depth="1" NCoef="0" IVar="-1" Cut="0.0000000000000000e+00" cType="1" res="-2.6288365945219994e-02" rms="3.5509872436523438e-01" purity="3.1847158074378967e-01" nType="-99"/>
      </Node>
    </BinaryTree>
    <BinaryTree type="DecisionTree" boostWeight="1.0000000000000000e+00" itree="56">
      <Node pos="s" depth="0" NCoef="0" IVar="6" Cut="6.1908359527587891e+01" cType="1" res="-3.0222022905945778e-03" rms="3.6214634776115417e-01" purity="4.9651116132736206e-01" nType="0">
        <Node pos="l" depth="1" NCoef="0" IVar="5" Cut="4.7323659062385559e-02" cType="1" res="2.5131136644631624e-03" rms="3.6638131737709045e-01" purity="5.3308296203613281e-01" nType="0">
          <Node pos="l" depth="2" NCoef="0" IVar="-1" Cut="0.0000000000000000e+00" cType="1" res="2.9213230591267347e-03" rms="3.5503861308097839e-01" purity="5.5683416128158569e-01" nType="-99"/>
          <Node pos="r" depth="2" NCoef="0" IVar="-1" Cut="0.0000000000000000e+00" cType="1" res="-1.3678817078471184e-02" rms="4.5530059933662415e-01" purity="3.1021812558174133e-01" nType="-99"/>
        </Node>
        <Node pos="r" depth="1" NCoef="0" IVar="9" Cut="2.3801507949829102e+00" cType="1" res="-6.0391798615455627e-02" rms="3.0913469195365906e-01" purity="1.1747005581855774e-01" nType="0">
          <Node pos="l" depth="2" NCoef="0" IVar="-1" Cut="0.0000000000000000e+00" cType="1" res="-8.6918734014034271e-03" rms="3.9677932858467102e-01" purity="2.0587998628616333e-01" nType="-99"/>
          <Node pos="r" depth="2" NCoef="0" IVar="-1" Cut="0.0000000000000000e+00" cType="1" res="-4.0385700762271881e-02" rms="2.1839590370655060e-01" purity="5.0850439816713333e-02" nType="-99"/>
        </Node>
      </Node>
    </BinaryTree>
    <BinaryTree type="DecisionTree" boostWeight="1.0000000000000000e+00" itree="57">
      <Node pos="s" depth="0" NCoef="0" IVar="5" Cut="4.6888455748558044e-02" cType="1" res="2.2790960501879454e-03" rms="3.6591538786888123e-01" purity="5.0019687414169312e-01" nType="0">
        <Node pos="l" depth="1" NCoef="0" IVar="4" Cut="3.1600653076171875e+02" cType="1" res="6.9584129378199577e-03" rms="3.5541999340057373e-01" purity="5.1821869611740112e-01" nType="0">
          <Node pos="l" depth="2" NCoef="0" IVar="-1" Cut="0.0000000000000000e+00" cType="1" res="-6.2122219242155552e-03" rms="3.9936625957489014e-01" purity="3.6730191111564636e-01" nType="-99"/>
          <Node pos="r" depth="2" NCoef="0" IVar="-1" Cut="0.0000000000000000e+00" cType="1" res="5.0680883228778839e-02" rms="1.1856062710285187e-01" purity="9.8515993356704712e-01" nType="-99"/>
        </Node>
        <Node pos="r" depth="1" NCoef="0" IVar="3" Cut="7.3439292907714844e+00" cType="1" res="-4.7436833381652832e-02" rms="4.6002784371376038e-01" purity="3.0872198939323425e-01" nType="0">
          <Node pos="l" depth="2" NCoef="0" IVar="-1" Cut="0.0000000000000000e+00" cType="1" res="-4.0525097399950027e-02" rms="4.6773034334182739e-01" purity="2.6570665836334229e-01" nType="-99"/>
          <Node pos="r" depth="2" NCoef="0" IVar="-1" Cut="0.0000000000000000e+00" cType="1" res="1.9558409694582224e-03" rms="4.4587570428848267e-01" purity="3.2979068160057068e-01" nType="-99"/>
        </Node>
      </Node>
    </BinaryTree>
    <BinaryTree type="DecisionTree" boostWeight="1.0000000000000000e+00" itree="58">
      <Node pos="s" depth="0" NCoef="0" IVar="10" Cut="7.1309418678283691e+00" cType="1" res="2.0766216330230236e-03" rms="3.6322516202926636e-01" purity="5.0118577480316162e-01" nType="0">
        <Node pos="l" depth="1" NCoef="0" IVar="10" Cut="3.3956360816955566e+00" cType="1" res="9.9398763850331306e-03" rms="3.8754773139953613e-01" purity="5.8937209844589233e-01" nType="0">
          <Node pos="l" depth="2" NCoef="0" IVar="-1" Cut="0.0000000000000000e+00" cType="1" res="6.8068848922848701e-03" rms="3.7769159674644470e-01" purity="6.4408856630325317e-01" nType="-99"/>
          <Node pos="r" depth="2" NCoef="0" IVar="-1" Cut="0.0000000000000000e+00" cType="1" res="-9.7988247871398926e-03" rms="4.1834712028503418e-01" purity="3.9075782895088196e-01" nType="-99"/>
        </Node>
        <Node pos="r" depth="1" NCoef="0" IVar="3" Cut="9.2780647277832031e+00" cType="1" res="-3.9589185267686844e-02" rms="1.8195870518684387e-01" purity="3.3904314041137695e-02" nType="0">
          <Node pos="l" depth="2" NCoef="0" IVar="-1" Cut="0.0000000000000000e+00" cType="1" res="-3.8463972508907318e-02" rms="1.8447183072566986e-01" purity="3.5232353955507278e-02" nType="-99"/>
          <Node pos="r" depth="2" NCoef="0" IVar="-1" Cut="0.0000000000000000e+00" cType="1" res="-2.0449766889214516e-02" rms="1.7773960530757904e-01" purity="3.3057004213333130e-02" nType="-99"/>
        </Node>
      </Node>
    </BinaryTree>
    <BinaryTree type="DecisionTree" boostWeight="1.0000000000000000e+00" itree="59">
      <Node pos="s" depth="0" NCoef="0" IVar="0" Cut="6.6000000000000000e+01" cType="1" res="4.4789284584112465e-04" rms="3.6430704593658447e-01" purity="4.9927005171775818e-01" nType="0">
        <Node pos="l" depth="1" NCoef="0" IVar="9" Cut="4.7603015899658203e+00" cType="1" res="3.1028988305479288e-03" rms="3.6461824178695679e-01" purity="5.0836151838302612e-01" nType="0">
          <Node pos="l" depth="2" NCoef="0" IVar="-1" Cut="0.0000000000000000e+00" cType="1" res="3.9140316657721996e-03" rms="3.7001669406890869e-01" purity="5.5844718217849731e-01" nType="-99"/>
          <Node pos="r" depth="2" NCoef="0" IVar="-1" Cut="0.0000000000000000e+00" cType="1" res="-1.0368976742029190e-02" rms="3.4351789951324463e-01" purity="3.3530119061470032e-01" nType="-99"/>
        </Node>
        <Node pos="r" depth="1" NCoef="0" IVar="-1" Cut="0.0000000000000000e+00" cType="1" res="-3.2009147107601166e-02" rms="3.3822688460350037e-01" purity="1.6266360878944397e-01" nType="-99"/>
      </Node>
    </BinaryTree>
    <BinaryTree type="DecisionTree" boostWeight="1.0000000000000000e+00" itree="60">
      <Node pos="s" depth="0" NCoef="0" IVar="9" Cut="4.7603302001953125e+00" cType="1" res="2.3719234741292894e-04" rms="3.6249724030494690e-01" purity="5.0025463104248047e-01" nType="0">
        <Node pos="l" depth="1" NCoef="0" IVar="9" Cut="6.8004190921783447e-01" cType="1" res="9.3993814662098885e-03" rms="3.6835286021232605e-01" purity="5.5149435997009277e-01" nType="0">
          <Node pos="l" depth="2" NCoef="0" IVar="-1" Cut="0.0000000000000000e+00" cType="1" res="-1.6345296055078506e-02" rms="3.9634841680526733e-01" purity="2.4482788145542145e-01" nType="-99"/>
          <Node pos="r" depth="2" NCoef="0" IVar="-1" Cut="0.0000000000000000e+00" cType="1" res="4.7346218489110470e-03" rms="3.6576586961746216e-01" purity="5.7341653108596802e-01" nType="-99"/>
        </Node>
        <Node pos="r" depth="1" NCoef="0" IVar="3" Cut="1.9341413497924805e+01" cType="1" res="-3.1506691128015518e-02" rms="3.3952680230140686e-01" purity="3.2272669672966003e-01" nType="0">
          <Node pos="l" depth="2" NCoef="0" IVar="-1" Cut="0.0000000000000000e+00" cType="1" res="-8.7039712816476822e-03" rms="3.5671022534370422e-01" purity="3.7739804387092590e-01" nType="-99"/>
          <Node pos="r" depth="2" NCoef="0" IVar="-1" Cut="0.0000000000000000e+00" cType="1" res="-3.1303331255912781e-02" rms="2.4052968621253967e-01" purity="6.6352419555187225e-02" nType="-99"/>
        </Node>
      </Node>
    </BinaryTree>
    <BinaryTree type="DecisionTree" boostWeight="1.0000000000000000e+00" itree="61">
      <Node pos="s" depth="0" NCoef="0" IVar="2" Cut="-1.5787827968597412e+00" cType="1" res="3.9956631371751428e-04" rms="3.6128067970275879e-01" purity="5.0231754779815674e-01" nType="0">
        <Node pos="l" depth="1" NCoef="0" IVar="10" Cut="7.1328277587890625e+00" cType="1" res="0.0000000000000000e+00" rms="0.0000000000000000e+00" purity="5.1114749908447266e-01" nType="0">
          <Node pos="l" depth="2" NCoef="0" IVar="-1" Cut="0.0000000000000000e+00" cType="1" res="3.5946010611951351e-03" rms="3.8607314229011536e-01" purity="6.0475075244903564e-01" nType="-99"/>
          <Node pos="r" depth="2" NCoef="0" IVar="-1" Cut="0.0000000000000000e+00" cType="1" res="-2.8532892465591431e-02" rms="1.7985217273235321e-01" purity="3.4028172492980957e-02" nType="-99"/>
        </Node>
        <Node pos="r" depth="1" NCoef="0" IVar="1" Cut="-1.3578720390796661e-01" cType="1" res="-6.3342340290546417e-02" rms="3.6254939436912537e-01" purity="3.4837928414344788e-01" nType="0">
          <Node pos="l" depth="2" NCoef="0" IVar="-1" Cut="0.0000000000000000e+00" cType="1" res="-3.3054769039154053e-02" rms="3.5203298926353455e-01" purity="2.4986082315444946e-01" nType="-99"/>
          <Node pos="r" depth="2" NCoef="0" IVar="-1" Cut="0.0000000000000000e+00" cType="1" res="-7.6656294986605644e-03" rms="3.6945158243179321e-01" purity="4.5431938767433167e-01" nType="-99"/>
        </Node>
      </Node>
    </BinaryTree>
    <BinaryTree type="DecisionTree" boostWeight="1.0000000000000000e+00" itree="62">
      <Node pos="s" depth="0" NCoef="0" IVar="10" Cut="2.3769805431365967e+00" cType="1" res="8.8878429960459471e-04" rms="3.6208298802375793e-01" purity="5.0192445516586304e-01" nType="0">
        <Node pos="l" depth="1" NCoef="0" IVar="10" Cut="1.8110035657882690e+00" cType="1" res="2.1328620612621307e-02" rms="4.0516412258148193e-01" purity="5.7311147451400757e-01" nType="0">
          <Node pos="l" depth="2" NCoef="0" IVar="-1" Cut="0.0000000000000000e+00" cType="1" res="-4.3228566646575928e-03" rms="4.4423261284828186e-01" purity="3.8309574127197266e-01" nType="-99"/>
          <Node pos="r" depth="2" NCoef="0" IVar="-1" Cut="0.0000000000000000e+00" cType="1" res="1.8183710053563118e-02" rms="3.6206978559494019e-01" purity="7.4739700555801392e-01" nType="-99"/>
        </Node>
        <Node pos="r" depth="1" NCoef="0" IVar="6" Cut="4.7758789062500000e+00" cType="1" res="-1.2237785384058952e-02" rms="3.3081126213073730e-01" purity="4.5620787143707275e-01" nType="0">
          <Node pos="l" depth="2" NCoef="0" IVar="-1" Cut="0.0000000000000000e+00" cType="1" res="1.2921884190291166e-03" rms="3.3761414885520935e-01" purity="6.5595680475234985e-01" nType="-99"/>
          <Node pos="r" depth="2" NCoef="0" IVar="-1" Cut="0.0000000000000000e+00" cType="1" res="-1.2937218882143497e-02" rms="3.2107502222061157e-01" purity="2.0765598118305206e-01" nType="-99"/>
        </Node>
      </Node>
    </BinaryTree>
    <BinaryTree type="DecisionTree" boostWeight="1.0000000000000000e+00" itree="63">
      <Node pos="s" depth="0" NCoef="0" IVar="0" Cut="2.8571429252624512e+00" cType="1" res="-9.2435855185613036e-04" rms="3.6149331927299500e-01" purity="4.9954879283905029e-01" nType="0">
        <Node pos="l" depth="1" NCoef="0" IVar="10" Cut="9.5101366043090820e+00" cType="1" res="0.0000000000000000e+00" rms="0.0000000000000000e+00" purity="5.0831139087677002e-01" nType="0">
          <Node pos="l" depth="2" NCoef="0" IVar="-1" Cut="0.0000000000000000e+00" cType="1" res="2.2751798387616873e-03" rms="3.8151514530181885e-01" purity="5.7497918605804443e-01" nType="-99"/>
          <Node pos="r" depth="2" NCoef="0" IVar="-1" Cut="0.0000000000000000e+00" cType="1" res="-3.1503722071647644e-02" rms="1.5347203612327576e-01" purity="2.4013496935367584e-02" nType="-99"/>
        </Node>
        <Node pos="r" depth="1" NCoef="0" IVar="1" Cut="-1.3578720390796661e-01" cType="1" res="-5.6805826723575592e-02" rms="3.4998768568038940e-01" purity="3.5144680738449097e-01" nType="0">
